{"version":"0.5.4","metadata":{"date":{"year":2025,"month":4,"day":18,"hour":19,"minute":6,"second":18},"loudness":-21.734615325927734,"gain":0.6010069845936576,"name":"blackstar ht-20h studio tone - 10; volume - 10","modeled_by":"ztarachenko","gear_type":"amp","gear_make":"tz-make","gear_model":"tz-model","tone_type":"overdrive","input_level_dbu":null,"output_level_dbu":null,"training":{"settings":{"ignore_checks":false},"data":{"latency":{"manual":null,"calibration":{"algorithm_version":1,"delays":[-27],"safety_factor":1,"recommended":-28,"warnings":{"matches_lookahead":false,"disagreement_too_high":false}}},"checks":{"version":3,"passed":true}},"validation_esr":0.003514513347746678}},"architecture":"WaveNet","config":{"layers":[{"input_size":1,"condition_size":1,"head_size":8,"channels":16,"kernel_size":3,"dilations":[1,2,4,8,16,32,64,128,256,512],"activation":"Tanh","gated":false,"head_bias":false},{"input_size":16,"condition_size":1,"head_size":1,"channels":8,"kernel_size":3,"dilations":[1,2,4,8,16,32,64,128,256,512],"activation":"Tanh","gated":false,"head_bias":true}],"head":null,"head_scale":0.02},"weights":[-0.14884799718856812,0.9171631932258606,-1.4071921110153198,-1.0450509786605835,-0.5737929344177246,0.5209376215934753,-0.43615514039993286,0.9923754334449768,-0.31762340664863586,0.4262494742870331,-0.6460433602333069,-0.2834930419921875,-1.2154697179794312,-0.8670161366462708,-0.7784335017204285,0.45265811681747437,0.44783324003219604,-0.011400596238672733,-0.316183865070343,-0.39682671427726746,0.07770219445228577,0.35719719529151917,0.2750683128833771,0.09505891054868698,-0.267606258392334,0.3409329056739807,0.09672991186380386,-0.3473542332649231,0.30141156911849976,-0.07696416974067688,-0.2783680260181427,-0.2606830894947052,-0.02989499270915985,0.18777430057525635,0.2931007742881775,-0.24076245725154877,-0.3607669472694397,-0.2353021204471588,0.09589186310768127,0.2977297306060791,0.4416375458240509,-0.12269964069128036,-0.2047731578350067,-0.5256620645523071,-0.037901394069194794,0.1717572808265686,0.47151437401771545,0.03049851395189762,-0.2965639531612396,0.41025498509407043,0.03283121436834335,-0.09059366583824158,0.3775654435157776,-0.007135025225579739,-0.1145298108458519,0.2789230942726135,-0.01766008697450161,-0.3368939459323883,0.2613779902458191,-0.10581167042255402,-0.1626642644405365,-0.3706098198890686,0.006925817579030991,0.30836978554725647,-0.01622411049902439,0.04655783623456955,-0.05841171741485596,0.07070120424032211,0.020291754975914955,0.16620126366615295,-0.13036736845970154,0.004499930422753096,0.03627098724246025,0.08813463896512985,0.19937162101268768,0.09087890386581421,-0.03095848299562931,-0.04125169292092323,-0.018308788537979126,-0.022251462563872337,-0.22334815561771393,0.15678443014621735,0.01286956574767828,-0.054211970418691635,-0.029408615082502365,0.025503169745206833,-0.0979338139295578,-0.03826867789030075,-0.0368468277156353,0.003921121824532747,0.0035430199932307005,0.14222456514835358,0.008917143568396568,0.08479759097099304,-0.20549750328063965,-0.007955284789204597,0.03188101947307587,-0.04909036308526993,-0.023343972861766815,-0.11717761307954788,0.1048227846622467,0.16821175813674927,-0.09685312956571579,-0.08392920345067978,-0.056502994149923325,-0.03380869701504707,-0.15717539191246033,-0.036135151982307434,-0.04561352729797363,0.11961013823747635,-0.14059396088123322,0.12970197200775146,0.05667852237820625,-0.013500547036528587,0.07577265799045563,-0.25537407398223877,0.0922539085149765,0.011567098088562489,0.13571976125240326,-0.0873216986656189,0.03709150105714798,0.1313752382993698,-0.1984001249074936,0.06359861046075821,0.0173895675688982,-0.2171357423067093,-0.03500113636255264,-0.22442543506622314,0.08707626909017563,-0.11472684890031815,0.16085922718048096,-0.09732528775930405,-0.08092044293880463,-0.14451152086257935,0.23257601261138916,-0.010136139579117298,0.19379989802837372,-0.13657395541667938,0.04811469838023186,-0.07168249040842056,0.26790156960487366,0.084007129073143,0.2934988737106323,-0.1437021940946579,-0.12498100847005844,0.09786685556173325,-0.03663014993071556,0.003961882088333368,0.05111998692154884,-0.2384972721338272,-0.13602711260318756,0.017624609172344208,-0.1614263653755188,0.07672034949064255,0.22091418504714966,-0.2680789828300476,0.0901154950261116,-0.2894485294818878,0.12254492193460464,-0.02959512174129486,-0.14967386424541473,0.06766585260629654,-0.0816696509718895,-0.002312340075150132,-0.10881724208593369,-0.038112375885248184,-0.17277440428733826,0.1374303102493286,-0.07726559042930603,-0.12367746978998184,0.2151203602552414,-0.02020023949444294,-0.014155359007418156,0.14031408727169037,-0.09782703965902328,0.229205921292305,-0.10923964530229568,-0.10178505629301071,-0.051998570561409,-0.04824305698275566,0.026617256924510002,0.09622365981340408,0.014053793624043465,0.0010018851608037949,-0.1024613305926323,0.12443497031927109,-0.020854154601693153,0.11813626438379288,-0.20574979484081268,0.05067574605345726,-0.026895351707935333,0.18765033781528473,-0.07138726115226746,-0.14433975517749786,-0.008875725790858269,-0.04772970825433731,-0.19777528941631317,0.1374204158782959,-0.04995867237448692,-0.13269682228565216,0.09735126048326492,0.1294098198413849,-0.24138575792312622,-0.01371145062148571,-0.04891539365053177,0.2682916224002838,-0.1558019071817398,0.05730818212032318,-0.24116554856300354,0.2789413332939148,-0.030869025737047195,0.14554254710674286,-0.15551581978797913,-0.05100397393107414,-0.11707576364278793,0.14383570849895477,-0.05473219230771065,-0.22359655797481537,0.2917926013469696,-0.11289625614881516,-0.2658916115760803,0.34335339069366455,0.047426488250494,0.26949313282966614,-0.3549000024795532,0.049138832837343216,-0.41090381145477295,0.2463313341140747,-0.03019598126411438,0.18542757630348206,-0.17781931161880493,0.10277081280946732,-0.3123050332069397,0.360749751329422,0.06700689345598221,0.17975454032421112,-0.1744045913219452,-0.10852009057998657,-0.301249623298645,0.265017569065094,0.04773101955652237,-0.19002655148506165,0.18757745623588562,-0.005263482686132193,-0.07411906123161316,0.027956295758485794,0.10114060342311859,-0.32005852460861206,0.19642627239227295,-0.01490967720746994,-0.27446189522743225,0.20682303607463837,0.11749544739723206,0.27058786153793335,-0.34817206859588623,-0.0686783567070961,-0.02048206701874733,-0.012051854282617569,-0.1380714625120163,-0.19809909164905548,-0.0016984536778181791,0.14233307540416718,0.164335235953331,0.028095964342355728,-0.01102600060403347,0.046394266188144684,-0.12597520649433136,-0.01185019314289093,0.23964576423168182,-0.04641128331422806,-0.12444540858268738,-0.18754279613494873,-0.048231299966573715,0.09247749298810959,0.07772159576416016,-0.19268938899040222,0.08077343553304672,-0.1989780068397522,0.06924660503864288,0.09836918115615845,0.15895001590251923,-0.16703931987285614,-0.15867292881011963,-0.012450489215552807,0.10647714138031006,0.17278195917606354,0.07444921135902405,-0.04129490256309509,-0.08609344810247421,0.12334787100553513,-0.17490898072719574,-0.005920965690165758,0.13896676898002625,-0.08858229219913483,-0.08555465936660767,0.02130802348256111,0.011088426224887371,-0.16310612857341766,0.1724562793970108,-0.12921081483364105,-0.12540796399116516,-0.12390533089637756,0.011043091304600239,0.11444523930549622,-0.0033417274244129658,-0.15106269717216492,0.18193669617176056,0.07596933841705322,0.14754991233348846,-0.17154362797737122,-0.1392490118741989,-0.10703075677156448,0.18689405918121338,-0.07341528683900833,-0.02961728535592556,0.23077081143856049,-0.1002141684293747,-0.0856967493891716,0.2076130360364914,0.03083447925746441,0.09119875729084015,-0.15124288201332092,-0.11375202983617783,-0.021183524280786514,0.3297383785247803,0.15204547345638275,0.17372725903987885,-0.12235230207443237,0.0532267726957798,-0.14299628138542175,0.06263483315706253,-0.11172857135534286,0.2163373827934265,-0.08061841875314713,-0.11792747676372528,-0.02361358515918255,0.27308300137519836,0.1274442821741104,0.04854690283536911,0.2704772353172302,-0.04899559170007706,-0.1398889720439911,0.2550557851791382,0.05630848556756973,-0.17179246246814728,0.27348795533180237,0.048299483954906464,-0.009493737481534481,0.06334541738033295,0.0775262787938118,0.006149339023977518,-0.06827680766582489,-0.2888960540294647,0.24867922067642212,-0.03175440430641174,0.21970251202583313,-0.16338644921779633,0.09680021554231644,-0.21317148208618164,0.10807118564844131,-0.09497947245836258,-0.2814495861530304,0.0006204060628078878,0.07245499640703201,-0.14935864508152008,0.2728760838508606,0.06856099516153336,0.10686459392309189,-0.2617945969104767,-0.0010634242789819837,-0.34177470207214355,0.333242267370224,-0.11103455722332001,0.118291936814785,-0.2587074041366577,-0.04931666702032089,-0.1673395037651062,0.2857571244239807,0.04588459059596062,0.3495485484600067,-0.044417984783649445,-0.0027064187452197075,-0.14972367882728577,0.28551194071769714,0.007092528510838747,-0.11714515835046768,0.242915078997612,0.04087477922439575,-0.19026020169258118,0.17801356315612793,-0.03149625286459923,-0.2189434915781021,0.05146755278110504,-0.11783970147371292,-0.2907806634902954,0.22354449331760406,0.05854737386107445,0.25165197253227234,-0.2730839252471924,0.13234750926494598,0.20074409246444702,-0.1637418270111084,0.05259940028190613,0.08283296227455139,0.1930316984653473,-0.19690808653831482,0.15751846134662628,0.010111812502145767,0.00008423716644756496,0.1148083284497261,-0.21105417609214783,0.05964406207203865,0.20830687880516052,-0.14141224324703217,-0.004535264801234007,-0.14388661086559296,0.1187642365694046,-0.12792924046516418,0.14708563685417175,-0.04109693318605423,0.16250745952129364,-0.15374556183815002,0.14150038361549377,-0.011360789649188519,0.2052498757839203,-0.29404449462890625,0.1107925996184349,-0.20850811898708344,0.0994943380355835,-0.056510597467422485,-0.021920304745435715,-0.10264286398887634,0.23020334541797638,0.1251041144132614,-0.25579899549484253,0.05417568236589432,0.06892251968383789,-0.23625414073467255,0.15810327231884003,-0.07382459938526154,-0.2779662311077118,-0.05384518578648567,0.028162043541669846,-0.04452608525753021,-0.03491422161459923,-0.002496405504643917,0.11557985842227936,-0.07778454571962357,-0.07024434953927994,-0.042569298297166824,0.1787438839673996,0.10119213908910751,0.15195490419864655,0.00782649777829647,-0.09786716103553772,0.09508638828992844,0.07741338759660721,0.04870006814599037,-0.1219392940402031,0.006371523253619671,-0.20708690583705902,-0.05477658286690712,0.08689489960670471,-0.054291702806949615,0.02352133020758629,-0.008532214909791946,-0.03147805482149124,0.004354487638920546,0.015163667500019073,-0.0002576055994722992,0.07217340171337128,0.08180350065231323,0.011125484481453896,0.022131456062197685,0.13660450279712677,-0.08207463473081589,-0.15387746691703796,-0.01350124180316925,-0.13092154264450073,0.08864569664001465,-0.03234755992889404,-0.1495337039232254,-0.0985451340675354,0.14187753200531006,-0.031993065029382706,0.0985332801938057,0.13584694266319275,0.03929683938622475,0.004560035653412342,0.01602223888039589,-0.06778344511985779,0.017786366865038872,0.1317242830991745,-0.012983826920390129,0.05372293293476105,-0.09076736867427826,-0.42073163390159607,-0.011915894225239754,0.1213391050696373,0.31755128502845764,-0.13588665425777435,0.05939267575740814,-0.07421685755252838,0.059971414506435394,0.17056861519813538,-0.24832093715667725,0.05684925615787506,0.07497548311948776,-0.29792141914367676,0.07718855142593384,-0.011483993381261826,0.3530711829662323,-0.08761455118656158,-0.11273336410522461,-0.23732870817184448,0.15423788130283356,0.015461466275155544,0.23090992867946625,0.07256238162517548,-0.04875868186354637,-0.26400548219680786,0.012122497893869877,0.0862109512090683,0.15722233057022095,-0.14757990837097168,-0.1286763995885849,-0.10975389927625656,0.005276719108223915,0.03751019760966301,-0.36046460270881653,0.19983027875423431,0.1805134266614914,-0.2757343351840973,-0.11358431726694107,-0.095500648021698,-0.2195516675710678,-0.01030721701681614,-0.0625404343008995,-0.2670901417732239,0.03975383937358856,-0.0478004552423954,0.3511606454849243,-0.09804213792085648,-0.1113831028342247,0.042584676295518875,-0.25997743010520935,0.22831276059150696,-0.015125242061913013,0.28899043798446655,-0.09363266080617905,-0.1309390813112259,-0.4307495057582855,0.32264643907546997,-0.08541394770145416,-0.29536327719688416,0.1989487260580063,-0.0014091464690864086,-0.38615527749061584,0.34123921394348145,-0.03537163510918617,0.22006967663764954,-0.3522486388683319,-0.043469492346048355,-0.3660445809364319,0.21731600165367126,0.10727667063474655,0.30021509528160095,-0.24931907653808594,0.14635662734508514,-0.32378530502319336,0.40707558393478394,0.03976571559906006,0.3198387324810028,-0.3699159622192383,0.014646968804299831,-0.24744057655334473,0.21338798105716705,-0.0775483101606369,-0.3005833327770233,0.4162147343158722,-0.027984747663140297,-0.43987902998924255,0.08634438365697861,0.04641760140657425,-0.34412822127342224,0.15481947362422943,0.038586344569921494,-0.29904699325561523,0.36341893672943115,0.08714891970157623,0.3772352635860443,-0.440856397151947,-0.49883273243904114,0.09055545181035995,0.16221167147159576,0.33130335807800293,-0.013220297172665596,0.0069332788698375225,-0.11657299846410751,0.009043465368449688,-0.003934076521545649,-0.3140893280506134,-0.20112459361553192,0.23750440776348114,-0.37721753120422363,-0.16228048503398895,0.19411340355873108,0.23734521865844727,0.009134510532021523,-0.15928512811660767,-0.3504762053489685,-0.14809654653072357,0.29104578495025635,0.2203776091337204,0.15633629262447357,0.007590754423290491,-0.267370343208313,-0.0659840852022171,0.25418296456336975,0.3209017515182495,0.0011126863537356257,-0.012532330118119717,-0.27292558550834656,-0.22714665532112122,0.0861462876200676,-0.4206121265888214,0.050428587943315506,0.10982833802700043,-0.3841073513031006,-0.11749551445245743,0.19245056807994843,-0.24989736080169678,-0.048296865075826645,0.1309709995985031,-0.23985546827316284,-0.1423473209142685,0.06120073050260544,0.29694539308547974,-0.04765193909406662,-0.07428182661533356,-0.2683091163635254,0.18994012475013733,0.08211363852024078,0.18606509268283844,-0.2294255644083023,0.10141415894031525,-0.23945143818855286,0.23773828148841858,-0.05873561277985573,-0.19924570620059967,0.21310126781463623,-0.025917809456586838,-0.08487778156995773,0.0440303236246109,-0.09676683694124222,0.1362410932779312,-0.13168974220752716,0.09761939197778702,-0.29529258608818054,0.21248096227645874,-0.012705772183835506,0.15320611000061035,-0.03098762035369873,-0.14549057185649872,-0.2257375419139862,0.27822935581207275,-0.01314004696905613,0.3210325539112091,-0.19713105261325836,0.09176213294267654,-0.3425808250904083,0.1271020919084549,-0.0018245619721710682,-0.17229396104812622,0.20874334871768951,0.1303090751171112,-0.18558579683303833,0.12673628330230713,0.12725186347961426,-0.22336606681346893,0.26871442794799805,-0.06506329029798508,-0.20269431173801422,0.1307883858680725,0.0917118713259697,0.33528631925582886,-0.18838898837566376,-0.16699928045272827,0.2330397367477417,-0.10602967441082001,0.06927522271871567,-0.20511145889759064,0.19264724850654602,0.14550337195396423,0.10084936767816544,-0.20803028345108032,0.06692948192358017,-0.003936829976737499,-0.06863685697317123,0.019741440191864967,0.09331914037466049,-0.0646408200263977,-0.12090383470058441,-0.13087095320224762,0.03862886130809784,-0.00990168284624815,0.22100244462490082,-0.015609183348715305,-0.051822394132614136,-0.041251324117183685,0.08719968050718307,-0.062204230576753616,0.08326331526041031,-0.25571539998054504,0.17019905149936676,-0.20365943014621735,0.14243902266025543,0.03532658517360687,0.25168994069099426,0.00005936346860835329,0.12462764978408813,0.07632117718458176,-0.15569628775119781,-0.07334047555923462,0.019477924332022667,-0.06338204443454742,0.13740704953670502,0.015390240587294102,-0.02577546052634716,-0.07689088582992554,0.10267388075590134,0.007830774411559105,-0.026898646727204323,-0.19932477176189423,0.02861824817955494,0.11871828138828278,0.08563622087240219,-0.13297833502292633,0.05866207554936409,-0.12177741527557373,-0.08861301094293594,0.017693351954221725,0.10749258100986481,-0.05898144841194153,0.057835426181554794,0.13583014905452728,0.05686699226498604,-0.06698136031627655,0.04930052161216736,-0.09158141911029816,-0.12022481858730316,-0.07040148973464966,0.1589217185974121,0.138845756649971,0.11941048502922058,0.0013157738139852881,-0.061651259660720825,0.06839706748723984,-0.02016020379960537,-0.09331304579973221,0.13043034076690674,0.05071300268173218,-0.1230601891875267,0.05683242529630661,0.10921474546194077,-0.08682914078235626,0.02536732703447342,0.07583597302436829,-0.11518959701061249,0.046489231288433075,-0.012298453599214554,-0.1362638622522354,0.08680397272109985,0.03903220593929291,0.09611974656581879,-0.046844735741615295,0.09477227926254272,-0.08846279978752136,0.1858338713645935,-0.17024007439613342,-0.1286063939332962,-0.026844685897231102,0.0464409738779068,0.01763639599084854,0.07706744223833084,-0.011547974310815334,-0.15817229449748993,0.056186869740486145,0.048397235572338104,-0.09972956776618958,-0.09548836201429367,0.014031104743480682,0.0007481561624445021,0.01902548037469387,-0.19813770055770874,-0.027379291132092476,-0.28944462537765503,0.08864539116621017,-0.0026112135965377092,0.0005302774952724576,0.6978209614753723,-0.4041653871536255,0.81247878074646,-0.7540029883384705,-0.01212976686656475,0.9745602011680603,0.8485035300254822,-0.5437489151954651,0.08773334324359894,0.053281694650650024,-0.5210609436035156,-0.6214049458503723,0.13031522929668427,-0.7325888276100159,0.16873778402805328,0.4627969264984131,-0.35097578167915344,0.0637289434671402,-0.02288193255662918,0.14866209030151367,0.29537495970726013,-0.0947384387254715,0.16110746562480927,0.22450527548789978,-0.08957276493310928,0.014224315993487835,0.2920105457305908,-0.01668904535472393,0.21964021027088165,0.0479813888669014,0.15085765719413757,0.014833110384643078,0.0669623389840126,-0.06918696314096451,-0.35237762331962585,0.20717740058898926,0.5660288333892822,-0.12687821686267853,-0.16260847449302673,0.4120473265647888,-0.11003746837377548,0.04833986610174179,0.07120943814516068,-0.3950986862182617,0.035443492233753204,0.09726797044277191,-0.038551900535821915,0.09675449877977371,-0.24675394594669342,-0.040709368884563446,-0.08397598564624786,0.13709324598312378,-0.01189111266285181,-0.23427124321460724,0.10186421126127243,-0.017587248235940933,0.009146196767687798,-0.04290757700800896,0.42427995800971985,-0.035160377621650696,0.2545070946216583,0.30557671189308167,0.058466535061597824,-0.01578870601952076,0.11617186665534973,-0.10924320667982101,-0.033207401633262634,-0.22504158318042755,-0.028348026797175407,0.06872750073671341,0.008199188858270645,0.07548122853040695,-0.18855780363082886,0.0753311887383461,0.09610733389854431,0.026228144764900208,0.2282295972108841,0.14716558158397675,-0.06443633884191513,-0.06457418203353882,-0.1386115998029709,-0.13147658109664917,-0.13675712049007416,0.1331673115491867,0.0764046236872673,0.14548811316490173,0.13320352137088776,-0.16470462083816528,0.12099790573120117,0.15146131813526154,-0.051168106496334076,0.2979370355606079,0.10217227041721344,0.08332546055316925,0.016601763665676117,0.060360390692949295,-0.14525124430656433,0.02718375064432621,-0.025340743362903595,0.19191423058509827,0.24083541333675385,0.11435604840517044,0.1549002230167389,0.14429743587970734,0.10665971040725708,-0.1296612024307251,-0.2101031392812729,-0.11436539143323898,-0.043695542961359024,-0.021787844598293304,0.0469042994081974,-0.006340707652270794,0.1751568615436554,0.05261094495654106,0.31335994601249695,0.008116068318486214,-0.774716317653656,-0.23173430562019348,0.0906667411327362,-0.4402554929256439,0.22318780422210693,-0.15090888738632202,-0.42608675360679626,0.6968333125114441,0.162969172000885,-0.38134995102882385,0.12964515388011932,-0.056334711611270905,0.29423603415489197,0.09428134560585022,0.3335697054862976,-0.18869738280773163,-0.34333109855651855,0.19221986830234528,0.27759379148483276,-0.02909201756119728,0.10732685774564743,-0.23959533870220184,0.05770260840654373,-0.00018234760500490665,0.04206448793411255,-0.18009673058986664,-0.11548067629337311,0.10457917302846909,-0.1359899640083313,0.022896578535437584,-0.21494291722774506,-0.20850299298763275,0.008939496241509914,-0.09704643487930298,-0.13877511024475098,-0.11701125651597977,-0.19924715161323547,-0.1581505388021469,0.16436728835105896,0.21596671640872955,0.17302140593528748,-0.11075209826231003,0.07638435065746307,0.07190455496311188,-0.5467950701713562,0.03510908782482147,0.19282053411006927,-0.07868099212646484,-0.20475314557552338,-0.10718285292387009,0.1978752464056015,0.0010837479494512081,-0.05665517970919609,0.09086690843105316,0.4236684739589691,0.3527228534221649,0.5107634663581848,0.29855456948280334,-0.07530524581670761,-0.08173300325870514,0.10239223390817642,0.14835786819458008,-0.31448227167129517,0.10587552189826965,-0.11841519176959991,-0.2751965820789337,-0.022604327648878098,-0.12522679567337036,0.037111155688762665,-0.18725116550922394,-0.17189523577690125,-0.23994703590869904,-0.12017997354269028,0.1255507916212082,0.09474129974842072,0.14652159810066223,0.05639258399605751,-0.09206784516572952,0.20300474762916565,-0.06711337715387344,0.12146882712841034,0.03435146436095238,0.02644994482398033,0.13553273677825928,-0.024415357038378716,-0.18177713453769684,0.17149300873279572,-0.416341096162796,0.03394981101155281,0.11054914444684982,-0.12859660387039185,-0.11217428743839264,-0.3082047700881958,-0.04615045711398125,-0.004157349932938814,0.06206478178501129,0.15413179993629456,-0.24526157975196838,-0.011404008604586124,0.3056264817714691,0.17465470731258392,0.013233537785708904,0.12120560556650162,0.1859649121761322,0.33054542541503906,-0.09298991411924362,-0.05573705956339836,0.026600845158100128,-0.21538345515727997,-0.12457609921693802,-0.1359575241804123,0.09801357984542847,0.05653471499681473,0.15119118988513947,0.24459333717823029,0.23343832790851593,-0.06901486963033676,0.0037922116462141275,0.19462841749191284,0.12293678522109985,-0.01476891990751028,0.006988311652094126,-0.2180248349905014,0.02116492949426174,-0.2641970217227936,0.2715814411640167,-0.1734274923801422,-0.09608092159032822,0.40126919746398926,-0.032866016030311584,0.13044121861457825,0.34167057275772095,-0.2804587483406067,0.12377317994832993,0.08526387810707092,-0.2613034248352051,0.2060692012310028,0.2944200932979584,-0.22320234775543213,-0.08511386066675186,0.4472116231918335,0.008278653025627136,0.27536121010780334,-0.20805220305919647,-0.05167103186249733,0.45260193943977356,0.10407128185033798,0.11091490089893341,-0.12031183391809464,-0.06326914578676224,-0.2802521288394928,-0.6964616775512695,-0.13335497677326202,0.07549549639225006,-0.015275552868843079,0.09254922717809677,0.13722309470176697,-0.1494380533695221,0.3098922073841095,-0.07877274602651596,-0.11358578503131866,-0.05495768040418625,0.06892064958810806,-0.11505311727523804,0.031163621693849564,-0.23908519744873047,0.11346955597400665,0.03413582220673561,0.12414482980966568,0.15475353598594666,0.09287695586681366,-0.061314381659030914,0.21754200756549835,-0.011157025583088398,0.11485061049461365,-0.4299546480178833,-0.6076261401176453,-0.16699762642383575,0.26487869024276733,0.10749845206737518,0.08808378875255585,-0.19165657460689545,-0.13210135698318481,-0.19494251906871796,-0.21769562363624573,-0.27804887294769287,-0.1465781182050705,-0.19209632277488708,-0.19503620266914368,0.18013165891170502,0.2457941472530365,0.29660284519195557,0.2021293342113495,-0.26917198300361633,-0.12682265043258667,-0.048243630677461624,-0.01587666943669319,-0.02101365104317665,-0.19007427990436554,-0.7736152410507202,-0.5195505619049072,-0.3672546446323395,0.17374476790428162,0.13624165952205658,-0.019853422418236732,-0.059089116752147675,-0.1343562752008438,-0.0914943665266037,0.1673879325389862,-0.051134198904037476,-0.19421540200710297,0.27137598395347595,0.2521926462650299,0.013661539182066917,0.040890224277973175,-0.10235337167978287,-0.024245282635092735,0.11566316336393356,0.1856086552143097,0.025883864611387253,-0.18239061534404755,0.06768900156021118,0.14840476214885712,-0.33016958832740784,0.2597990930080414,0.3543285131454468,-0.07162779569625854,0.02703821286559105,0.037472061812877655,-0.09979992359876633,0.11113981157541275,-0.07555679231882095,0.14640063047409058,-0.08352512121200562,0.1030072346329689,-0.18524521589279175,-0.1578424572944641,0.041858870536088943,0.400925874710083,-0.5644691586494446,-0.4196186363697052,0.05176101252436638,-0.20981331169605255,0.07347626984119415,-0.11925679445266724,-0.058825474232435226,-0.0707135796546936,0.14047008752822876,0.07425083965063095,-0.07261472940444946,0.05112605541944504,0.1065322682261467,-0.012196490541100502,-0.2874031662940979,0.21776708960533142,0.14214231073856354,-0.14914202690124512,-0.014533531852066517,-0.008588537573814392,-0.07218372821807861,0.04095211997628212,0.00910236593335867,-0.24664553999900818,0.17326892912387848,0.06954370439052582,-0.050547294318675995,0.19543036818504333,-0.14289577305316925,-0.22616583108901978,-0.012838762253522873,-0.024331506341695786,0.15006019175052643,0.027074340730905533,-0.050740502774715424,-0.011727015487849712,0.044733453541994095,-0.022659866139292717,0.11874710768461227,0.028476187959313393,-0.11760485917329788,0.1205640360713005,0.03320547193288803,0.08522983640432358,0.03971800580620766,0.057144999504089355,0.17093941569328308,0.12301088869571686,-0.017705287784337997,-0.050620872527360916,-0.03781149536371231,-0.12665262818336487,0.18237043917179108,-0.15536893904209137,-0.006857329048216343,-0.01776314713060856,-0.02766130305826664,0.056896597146987915,-0.0844387486577034,-0.10414115339517593,-0.1190500408411026,0.030913978815078735,0.04658469557762146,-0.1467723846435547,0.011543835513293743,-0.1454666256904602,0.1403871327638626,-0.11398780345916748,-0.0062767742201685905,0.04043120518326759,0.05839972943067551,-0.2358865737915039,0.09998130053281784,0.030908942222595215,0.04974711313843727,-0.04278281331062317,0.2045612931251526,0.1706458181142807,-0.3418281376361847,-0.03173770010471344,-0.1866254210472107,0.03528360277414322,0.06897246837615967,0.08937091380357742,-0.38868194818496704,-0.2008705884218216,0.13340851664543152,0.015825234353542328,-0.09988299012184143,0.12160807102918625,-0.04372315853834152,0.04614999517798424,-0.05107155442237854,0.22058169543743134,0.010858939960598946,0.08541767299175262,0.35151198506355286,-0.06311006844043732,-0.14964400231838226,0.26220858097076416,0.04562314227223396,0.28443020582199097,-0.4070165157318115,0.019586533308029175,0.2470933496952057,-0.06583262234926224,0.057881563901901245,-0.02185695990920067,-0.23607347905635834,-0.014900894835591316,0.06126315891742706,-0.03075604885816574,0.20928846299648285,0.29098862409591675,-0.5352027416229248,-0.12985378503799438,0.09564417600631714,-0.3137185573577881,-0.13699676096439362,0.047864820808172226,-0.5398634076118469,0.07852111011743546,-0.32262009382247925,0.5597778558731079,-0.04076332598924637,-0.22992587089538574,0.07113058120012283,0.007487577386200428,0.21853844821453094,-0.05046796053647995,0.040907565504312515,-0.044047802686691284,0.017333196476101875,-0.02476411871612072,-0.09627401828765869,0.151224747300148,0.16147947311401367,0.00465746084228158,0.07302163541316986,-0.05823822692036629,0.0065988157875835896,0.03816418722271919,-0.15872789919376373,-0.007406641263514757,0.06238387152552605,-0.01589677296578884,0.07814662158489227,0.1078048124909401,0.0821494609117508,-0.03491990268230438,0.17334002256393433,0.04875382035970688,0.09392881393432617,-0.004555515479296446,0.06239842250943184,0.07821100205183029,-0.07711103558540344,-0.001957142958417535,-0.11529901623725891,-0.024890579283237457,0.231314018368721,-0.4089578688144684,-0.009746769443154335,0.17339065670967102,-0.07570621371269226,-0.03019591048359871,0.022386331111192703,-0.14048002660274506,-0.14588958024978638,-0.05636947602033615,0.1923656016588211,-0.18206316232681274,-0.05482431501150131,0.21362940967082977,-0.14546306431293488,-0.01066588331013918,-0.20892883837223053,0.11028098315000534,-0.11118144541978836,-0.023516682907938957,-0.08268866688013077,-0.015962019562721252,0.04882221296429634,0.07383279502391815,0.06395339965820312,0.0006791520863771439,0.078133724629879,0.08505377918481827,0.07490501552820206,0.03838995844125748,0.06428880989551544,0.029690252617001534,-0.24866634607315063,0.05381086841225624,0.08646707236766815,-0.01144284289330244,0.19172024726867676,0.29653388261795044,0.003739821258932352,-0.13130061328411102,0.09262629598379135,-0.07880328595638275,-0.03321617469191551,0.038504958152770996,-0.021144915372133255,0.01735767163336277,0.2259039580821991,-0.07268858700990677,0.020131967961788177,0.45051512122154236,-0.0066152699291706085,0.02456534095108509,0.06570959836244583,-0.11780492216348648,0.0982971265912056,0.1721431314945221,0.056423284113407135,-0.23224452137947083,-0.2406231015920639,0.10184723883867264,0.02389032021164894,-0.1135634183883667,-0.13570867478847504,0.02954607829451561,-0.49476689100265503,0.19577951729297638,0.08925643563270569,0.09317098557949066,-0.10354001075029373,0.08320573717355728,0.1512887179851532,-0.04045318439602852,-0.03773320093750954,-0.007267551962286234,0.012958564795553684,-0.13432082533836365,0.06153862178325653,0.10776782035827637,0.18326058983802795,0.7474565505981445,-0.1698349565267563,-0.24531705677509308,-0.09739555418491364,0.0679110735654831,0.06593015044927597,0.1858261674642563,-0.27619707584381104,-0.12400460243225098,0.04599021002650261,0.0008328850963152945,-0.04207224398851395,0.05748907849192619,-0.04032277315855026,0.0871027335524559,-0.4143952429294586,0.16525819897651672,0.09322644025087357,0.2090250700712204,-0.16592417657375336,0.1309223771095276,0.04393525794148445,-0.04600362107157707,-0.1500871628522873,-0.35303929448127747,-0.07577299326658249,0.06783192604780197,-0.25956496596336365,0.4537579119205475,0.06216931715607643,0.04208797216415405,0.05015234649181366,0.12955647706985474,-0.016119591891765594,-0.0650273934006691,-0.4062063992023468,0.06928705424070358,0.18428336083889008,0.10627297312021255,-0.002522702096030116,-0.06387947499752045,-0.11714556813240051,-0.0742759257555008,-0.19621454179286957,-0.18097949028015137,0.051658276468515396,-0.06485038250684738,0.08908046782016754,-0.01927550695836544,-0.22981436550617218,0.27360284328460693,-0.13427531719207764,-0.20892088115215302,0.01023455336689949,0.16580814123153687,-0.11753696203231812,0.10078524798154831,-0.08505352586507797,-0.00384775479324162,-0.07691320776939392,0.19387896358966827,0.01097410824149847,-0.023270046338438988,0.12345202267169952,0.05781552940607071,-0.10280900448560715,0.36378970742225647,0.19759537279605865,-0.03452799469232559,0.06269541382789612,0.14275908470153809,-0.03394797816872597,0.34710046648979187,0.22677704691886902,-0.008011658675968647,-0.1789451241493225,-0.028042137622833252,-0.047593679279088974,0.23113997280597687,0.17790082097053528,-0.015489011071622372,0.21028921008110046,0.09240538626909256,-0.05093095079064369,0.06707063317298889,0.05387796089053154,0.34498926997184753,0.07165452837944031,0.005287316627800465,-0.007013359572738409,0.06316483020782471,0.007975463755428791,0.02202940173447132,-0.02766689844429493,0.06861080229282379,-0.16321861743927002,-0.25549033284187317,0.1516021192073822,0.04053312912583351,-0.06439198553562164,-0.08364172279834747,-0.09515006840229034,-0.11851231753826141,-0.14677228033542633,0.17971669137477875,0.12288332730531693,0.1576680839061737,-0.15957939624786377,-0.034853242337703705,-0.06036960333585739,0.049243420362472534,0.08420158922672272,0.04098369926214218,0.28036805987358093,-0.0676540657877922,0.09757599234580994,0.2336079627275467,-0.1279401034116745,-0.15760596096515656,-0.11963112652301788,0.011061173863708973,-0.11791593581438065,0.2043408900499344,-0.01955764926970005,-0.017965642735362053,-0.12713219225406647,0.16905748844146729,0.05535906180739403,0.01574023813009262,0.06358952820301056,0.1871466487646103,-0.01059450302273035,-0.08583759516477585,0.03227950632572174,0.042518630623817444,-0.04030357301235199,0.09163878858089447,-0.040236182510852814,0.0031126653775572777,-0.14907677471637726,-0.03971952199935913,-0.13233529031276703,-0.09582511335611343,0.024294044822454453,-0.13763760030269623,-0.20375019311904907,0.23930591344833374,-0.06859949976205826,0.07199589908123016,0.15950225293636322,0.047742027789354324,0.15859250724315643,0.08693638443946838,-0.11576272547245026,-0.1373724490404129,0.0644550547003746,-0.09122011065483093,0.034181151539087296,0.08580178022384644,0.17234836518764496,0.09983964264392853,-0.07891074568033218,0.07737857848405838,-0.13721588253974915,-0.004307167138904333,-0.1251397728919983,-0.011867991648614407,0.0013487170217558742,0.062251798808574677,-0.08482196927070618,0.035045746713876724,-0.024902043864130974,0.27446839213371277,-0.15056341886520386,0.07566732913255692,0.2432604283094406,-0.19376622140407562,-0.15600377321243286,0.1977860927581787,-0.08920350670814514,-0.17193642258644104,0.33184099197387695,-0.04217010363936424,-0.13426227867603302,0.0895831361413002,-0.005855041090399027,-0.07838718593120575,0.11346795409917831,-0.18917177617549896,0.017755085602402687,0.054034631699323654,0.09707008302211761,-0.07565614581108093,-0.17268866300582886,0.1563800722360611,0.06849422305822372,-0.027792783454060555,0.19750401377677917,-0.19717112183570862,0.10868464410305023,-0.13478076457977295,-0.13298636674880981,-0.00566546805202961,0.051806848496198654,0.09903886169195175,-0.04792461171746254,-0.0927586480975151,0.05029718950390816,0.07046964019536972,-0.18578751385211945,0.21263134479522705,0.38063791394233704,-0.13053342700004578,-0.025167549028992653,0.13482582569122314,-0.05121017247438431,0.12648436427116394,0.3892390727996826,-0.20559503138065338,-0.05522838979959488,-0.42052727937698364,0.15914830565452576,-0.12197516858577728,0.017719455063343048,-0.06389681249856949,-0.057223740965127945,0.013390133157372475,-0.3934955894947052,-0.1362237185239792,0.11929988116025925,0.12045586854219437,0.04385988786816597,0.08012291043996811,0.043839845806360245,-0.05005308613181114,-0.010022656060755253,-0.08186683803796768,0.02762707881629467,0.15475499629974365,-0.029672669246792793,0.0900871753692627,-0.23311005532741547,0.28913602232933044,0.20780152082443237,0.11059824377298355,0.031257543712854385,0.050858523696660995,-0.06158246472477913,0.0788741409778595,-0.1167626678943634,0.10630469769239426,-0.06573154777288437,-0.09473151713609695,0.015267818234860897,-0.10365837812423706,-0.005540097132325172,0.1799997091293335,-0.039809852838516235,-0.27122095227241516,-0.03544078394770622,0.34822994470596313,0.020861713215708733,0.007131366059184074,-0.026559550315141678,-0.14195561408996582,0.06872942298650742,-0.10174460709095001,0.22404298186302185,0.14607934653759003,-0.05460004508495331,0.06656422466039658,-0.018555859103798866,-0.10047696530818939,0.13373655080795288,0.11351838707923889,-0.08466574549674988,0.07615473121404648,0.06654360890388489,-0.015888549387454987,-0.01312214881181717,-0.004429603461176157,-0.02924051135778427,0.1805555373430252,-0.03222273290157318,-0.044339414685964584,-0.0913846343755722,-0.0996679961681366,0.12567681074142456,-0.14787369966506958,-0.16249652206897736,-0.02395176887512207,-0.11157748848199844,-0.05924774333834648,-0.0019680578261613846,-0.03414417803287506,0.00012024600437143818,0.09831255674362183,-0.04200195521116257,0.034995466470718384,-0.137777641415596,0.08108966052532196,0.1097903624176979,0.05353347584605217,0.16799882054328918,-0.16284240782260895,-0.030088815838098526,0.21176700294017792,-0.23649278283119202,0.1562737673521042,-0.011386054567992687,-0.052390649914741516,-0.059460822492837906,0.192756786942482,-0.13977225124835968,0.004163425415754318,-0.09493504464626312,0.15007157623767853,-0.1126982569694519,0.1812991052865982,-0.06740213185548782,0.17695578932762146,-0.13605956733226776,0.1529616266489029,-0.042777322232723236,0.17637686431407928,-0.0745612233877182,0.15648546814918518,-0.06053854525089264,-0.04582422226667404,0.04422084242105484,0.006122263614088297,-0.014199262484908104,0.15175732970237732,-0.13260355591773987,0.04194659739732742,-0.13100314140319824,0.12932653725147247,-0.0035216184332966805,0.05948835238814354,0.13272447884082794,0.08448879420757294,-0.022131694480776787,0.19834308326244354,-0.10538037121295929,0.17403893172740936,0.09823555499315262,-0.10200483351945877,0.09187235683202744,-0.07858723402023315,-0.02800566703081131,-0.03131888061761856,-0.046143218874931335,0.15217390656471252,-0.0277923122048378,0.09708470851182938,-0.20456968247890472,0.07819830626249313,0.09078050404787064,0.03202936425805092,-0.054623957723379135,0.08965925872325897,-0.008885631337761879,-0.005033676978200674,-0.24448077380657196,0.17435072362422943,-0.03020482137799263,-0.3760400116443634,-0.043226394802331924,0.0994957834482193,-0.13310332596302032,0.2360130250453949,0.16220632195472717,-0.029655078426003456,-0.10895612835884094,0.06613059341907501,-0.17714163661003113,-0.22279028594493866,-0.15962964296340942,-0.1736183911561966,-0.16676166653633118,-0.17282965779304504,0.10364522784948349,-0.1028708815574646,-0.04778342321515083,0.3236946165561676,0.13758540153503418,-0.15449994802474976,-0.00030956920818425715,0.12519454956054688,-0.03082878515124321,0.004752540960907936,-0.17924682796001434,0.1520511507987976,-0.18960775434970856,-0.28305214643478394,0.11832138150930405,0.0850631594657898,0.11497191339731216,0.030652279034256935,0.0342874601483345,0.03063580021262169,0.009001039899885654,-0.32666584849357605,-0.3432721495628357,0.09720604121685028,-0.06289970129728317,-0.08969318866729736,0.0018042447045445442,-0.44619107246398926,-0.15591609477996826,0.030652295798063278,0.4160979688167572,0.3175205886363983,-0.08849091827869415,-0.05399615690112114,-0.029698677361011505,-0.08152591437101364,0.016139306128025055,0.058513421565294266,0.07432203739881516,0.08042921125888824,0.05530502647161484,0.0012044921750202775,0.09312266856431961,0.05387726426124573,-0.12142153084278107,-0.04036553204059601,-0.026191433891654015,-0.007526454050093889,-0.12966611981391907,-0.12194294482469559,0.0860169306397438,0.0007659844704903662,-0.029786966741085052,-0.23330458998680115,0.020164819434285164,-0.06681948900222778,0.0017586699686944485,-0.08207371085882187,-0.16279998421669006,-0.14942023158073425,-0.19417858123779297,0.0531248040497303,0.1811308115720749,0.036062952131032944,0.07953359186649323,-0.16739529371261597,-0.05463980883359909,-0.07871540635824203,-0.0610622800886631,0.16951294243335724,-0.19163423776626587,-0.013491425663232803,0.09098044037818909,0.07049886882305145,-0.15680599212646484,0.17717692255973816,-0.09774632751941681,-0.027366384863853455,-0.05714232474565506,0.43374937772750854,0.21212008595466614,0.39235711097717285,-0.018119705840945244,-0.033235881477594376,0.08583048731088638,-0.20324896275997162,0.17648710310459137,0.1081860139966011,0.21934965252876282,-0.09223711490631104,-0.04979639872908592,0.12314195930957794,0.048914749175310135,0.13221858441829681,0.09565442055463791,0.1707296222448349,0.0042476048693060875,-0.33922553062438965,0.3982366621494293,0.4923812747001648,-0.6364395618438721,0.20493124425411224,-0.9155551791191101,-0.32536572217941284,-0.5346978902816772,0.7657087445259094,-1.0597758293151855,-0.5407946109771729,-1.1839051246643066,0.06801533699035645,-0.8772112131118774,0.5481453537940979,-0.7245427370071411,-0.30414366722106934,0.017184829339385033,0.17970919609069824,0.1875230222940445,0.3976151943206787,-0.19552455842494965,-0.03245246037840843,-0.21748921275138855,-0.056731995195150375,-0.21915842592716217,0.01242123357951641,0.2980833649635315,-0.11264277994632721,-0.04236139729619026,0.0877004861831665,-0.2145840972661972,0.033887848258018494,0.21692925691604614,-0.06485716998577118,0.010696050710976124,-0.2989434003829956,0.32898053526878357,0.40506428480148315,-0.28868380188941956,0.16228537261486053,-0.15249745547771454,-0.021656466647982597,0.14586852490901947,0.08514399081468582,0.324535608291626,0.0037116692401468754,0.2873799800872803,-0.0558297336101532,0.17528143525123596,-0.14771899580955505,0.4550391137599945,-0.22921666502952576,0.3677031695842743,0.10284164547920227,0.16175596415996552,-0.12373390793800354,0.15640942752361298,0.018949633464217186,-0.13243424892425537,0.18001067638397217,0.11851445585489273,-0.08168663829565048,0.04568364471197128,0.2114686369895935,0.2043665200471878,-0.13408753275871277,-0.29226475954055786,-0.0894562155008316,-0.0188869871199131,0.09482240676879883,-0.06725233793258667,-0.15409184992313385,0.11864590644836426,0.16740238666534424,0.40064743161201477,0.10018361359834671,-0.1381656527519226,0.06891082972288132,0.09514832496643066,0.33447447419166565,0.041284531354904175,-0.010971994139254093,-0.27854830026626587,0.343535840511322,-0.14887477457523346,-0.0685955062508583,0.21562229096889496,0.19170595705509186,-0.0754852294921875,-0.08887830376625061,0.3572207987308502,-0.3257955014705658,-0.06002640724182129,0.1586650013923645,-0.21653160452842712,-0.25867903232574463,0.15275730192661285,-0.09826159477233887,-0.06802002340555191,0.15727436542510986,-0.2165977507829666,-0.085150808095932,-0.09946978092193604,0.08617179840803146,0.16742797195911407,-0.027015848085284233,-0.14628203213214874,-0.2480868101119995,-0.1085936650633812,0.054302215576171875,0.06091492250561714,-0.014777845703065395,-0.332684189081192,0.08041568100452423,-0.29976534843444824,0.14631810784339905,0.2399434745311737,-0.5695130228996277,-0.16475968062877655,0.18470396101474762,0.20697884261608124,0.07857643067836761,0.35394221544265747,0.07890571653842926,-0.13924585282802582,-0.06887204945087433,0.15949971973896027,0.1549217700958252,0.02687687985599041,0.011154575273394585,0.16854752600193024,0.15413986146450043,-0.19277438521385193,-0.15296635031700134,0.08867274969816208,0.057348884642124176,0.23165151476860046,-0.19231542944908142,-0.04995192587375641,-0.10461735725402832,-0.01989555172622204,0.08995717018842697,-0.013337037526071072,-0.07996788620948792,-0.03229140862822533,-0.19108934700489044,-0.13349542021751404,-0.3221389651298523,-0.11493635922670364,-0.05660354718565941,-0.07418859004974365,0.02965845912694931,0.0043078819289803505,0.13376004993915558,-0.16350018978118896,0.122225321829319,0.01126276794821024,-0.1285366266965866,0.3383236229419708,-0.11668789386749268,0.07689732313156128,-0.09591314196586609,0.1447032392024994,0.04292432591319084,-0.1141168624162674,0.02606392279267311,0.00909094512462616,-0.029718587175011635,-0.03171021118760109,0.08579432219266891,0.1674545854330063,0.12006611377000809,0.09321792423725128,0.2186053842306137,-0.16011843085289001,-0.15175072848796844,-0.06316789239645004,-0.12323369830846786,0.28673404455184937,-0.0048271724954247475,0.014323001727461815,-0.007823962718248367,0.0021720402874052525,0.056715548038482666,0.23911039531230927,-0.13752126693725586,0.21443882584571838,0.09630847722291946,0.06546637415885925,-0.08675269037485123,0.10366195440292358,0.05078208073973656,0.13928449153900146,-0.15056903660297394,-0.3065098226070404,-0.14606539905071259,-0.10600347816944122,0.2655676305294037,0.16171613335609436,-0.47451892495155334,0.19502267241477966,0.2838471829891205,0.005441535729914904,0.07263029366731644,-0.1676168590784073,0.11303551495075226,0.061640966683626175,-0.032924216240644455,-0.11601194739341736,-0.13262462615966797,0.5054246783256531,0.018103091046214104,-0.007673557382076979,-0.04644760116934776,0.12367808818817139,-0.1442650556564331,-0.05939728394150734,-0.24920734763145447,0.021185996010899544,0.13939614593982697,-0.19872230291366577,-0.016388829797506332,-0.05893107131123543,0.07323269546031952,-0.06380440294742584,-0.17399168014526367,0.3451578617095947,-0.2718448042869568,0.12086399644613266,-0.1110437661409378,-0.045837607234716415,0.20980434119701385,0.14080192148685455,0.05791468173265457,0.06306902319192886,0.14857445657253265,0.2510991394519806,-0.0778329074382782,-0.129431813955307,0.0765497162938118,0.6003729104995728,0.04585286229848862,0.050716955214738846,-0.060371607542037964,-0.11909183859825134,0.5333812832832336,-0.07593823969364166,-0.15014567971229553,0.15390802919864655,-0.11684054881334305,0.18764540553092957,-0.19812554121017456,0.36510348320007324,0.3046467900276184,0.24028123915195465,0.29737845063209534,-0.3995095491409302,-0.20026154816150665,0.2408054918050766,-0.47818154096603394,0.24874286353588104,-0.2663591504096985,0.2059556096792221,0.24820077419281006,-0.17373548448085785,0.29348987340927124,-0.0941295400261879,0.08697938919067383,0.24195381999015808,-0.506291389465332,-0.05393502861261368,-0.06785354018211365,0.06555686146020889,0.13721898198127747,-0.07702069729566574,-0.21461841464042664,0.01592934876680374,0.18094153702259064,0.18504461646080017,0.04198189079761505,0.12232377380132675,0.009537214413285255,-0.26287955045700073,0.027724865823984146,-0.21667799353599548,-0.18966999650001526,-0.1522451639175415,0.08807586133480072,-0.025912923738360405,-0.04095093533396721,-0.024447157979011536,-0.3586297929286957,-0.1032637506723404,-0.02312452346086502,-0.13785021007061005,0.09639060497283936,-0.0580996498465538,-0.2477765679359436,-0.008796613663434982,-0.12655584514141083,-0.11551690101623535,-0.17941690981388092,0.11928217858076096,0.13044477999210358,-0.07612956315279007,-0.11104556918144226,-0.05048902705311775,0.1373123675584793,-0.02401200495660305,0.18593111634254456,-0.22118999063968658,0.05081123113632202,0.05341506004333496,0.21422766149044037,0.05501960217952728,-0.0023421403020620346,-0.16337959468364716,-0.12340943515300751,-0.11086560040712357,0.07941459119319916,-0.1322009563446045,0.008753866888582706,0.1061844527721405,-0.24635612964630127,-0.2098371982574463,0.21777653694152832,-0.07068399339914322,-0.057907089591026306,0.03582027554512024,-0.15817485749721527,-0.1736883968114853,-0.028947418555617332,0.1842971295118332,-0.08148529380559921,0.0738031342625618,-0.08263864368200302,-0.06526529043912888,0.024116400629281998,-0.18496455252170563,0.3866040110588074,-0.31058037281036377,0.18777428567409515,0.09196712076663971,0.12471012026071548,-0.01876751333475113,0.011396056972444057,-0.0912804827094078,0.16923299431800842,0.0814608559012413,0.09551581740379333,0.004570075310766697,0.08283784985542297,-0.06974788755178452,0.09191588312387466,-0.25167012214660645,0.2645251750946045,-0.21234174072742462,-0.2860036790370941,-0.03092249482870102,0.031184567138552666,-0.030682820826768875,-0.2312125861644745,0.061263781040906906,0.1046290174126625,0.07371396571397781,0.2404109239578247,0.15241175889968872,-0.0066634961403906345,-0.09218493103981018,-0.03700001537799835,-0.10889296233654022,0.15452218055725098,0.07410553842782974,0.01710975170135498,0.1863795518875122,-0.02028767392039299,-0.07630457729101181,-0.22752715647220612,0.48432788252830505,-0.17473319172859192,0.16226543486118317,-0.16528606414794922,-0.03031199611723423,0.0593908429145813,-0.12279719114303589,-0.0806756541132927,-0.016079191118478775,-0.16528218984603882,-0.2645535171031952,0.04292943328619003,0.05550413578748703,0.13270431756973267,-0.21729084849357605,0.037864845246076584,0.13742072880268097,-0.053137607872486115,-0.09485696256160736,0.1316334754228592,0.05196613445878029,-0.05049494653940201,-0.04184016212821007,0.05216576159000397,0.16029782593250275,0.20226818323135376,0.1622171401977539,0.12008266896009445,-0.057451412081718445,-0.009783011861145496,0.05909847095608711,0.09924030303955078,0.044845808297395706,0.04568992182612419,-0.1263357251882553,-0.3129950165748596,-0.04361410439014435,-0.03247600048780441,-0.05802060663700104,0.07811664789915085,0.04242915287613869,-0.0718877762556076,0.021963391453027725,0.1396356225013733,-0.24009697139263153,0.041855353862047195,0.17745327949523926,0.10159311443567276,-0.288204550743103,0.00404362054541707,-0.17871536314487457,0.0291149765253067,0.08938740938901901,-0.1335965394973755,-0.22022514045238495,0.10050269216299057,-0.09649670869112015,-0.101361945271492,0.12675541639328003,-0.02805398590862751,0.1316419541835785,-0.14501193165779114,0.06185977905988693,0.08414822816848755,-0.1656225174665451,-0.07246670871973038,0.0183394867926836,-0.05238256976008415,0.12760992348194122,-0.02378755249083042,0.15950676798820496,0.3078904449939728,0.03289787098765373,-0.08050410449504852,-0.13005360960960388,-0.08399456739425659,0.05230002850294113,-0.11587215960025787,-0.015900006517767906,-0.032878924161195755,0.014196546748280525,-0.14821042120456696,-0.07791328430175781,0.0706317201256752,0.0703054666519165,-0.07785415649414062,0.05644410103559494,0.002448607236146927,-0.18420283496379852,-0.018751880154013634,0.11551335453987122,-0.11451546847820282,0.0010572784813120961,0.00450054882094264,0.07032865285873413,-0.1005624532699585,-0.27641624212265015,-0.13546861708164215,-0.1502317488193512,0.09989185631275177,0.07039304077625275,0.029500162228941917,-0.08737663924694061,0.04520434886217117,0.0257677361369133,0.19025464355945587,-0.24246427416801453,0.13793258368968964,0.09041385352611542,-0.04250356927514076,0.0024222240317612886,0.0049914466217160225,-0.08710509538650513,-0.18947553634643555,-0.22347846627235413,-0.019194383174180984,-0.015053466893732548,0.18424783647060394,0.0054425993002951145,-0.2367449551820755,-0.2652670443058014,0.19705815613269806,-0.265228271484375,0.06991138309240341,0.01846473105251789,0.20811080932617188,-0.1429060399532318,0.1490318924188614,0.006235307548195124,0.12922100722789764,-0.020558008924126625,0.046208299696445465,-0.12455867975950241,0.07218264043331146,0.019771898165345192,0.010006316006183624,-0.10444747656583786,-0.10134214907884598,0.08048732578754425,-0.08091484755277634,0.1839083433151245,-0.14966773986816406,0.10532364994287491,-0.1571388691663742,-0.16972807049751282,0.038377419114112854,0.22508852183818817,-0.07930190861225128,-0.01734064891934395,0.04928089305758476,0.10290016233921051,-0.13574065268039703,0.12024355679750443,-0.4150239825248718,0.3698897957801819,0.015523385256528854,-0.17568731307983398,-0.0345657616853714,0.022915003821253777,-0.20903991162776947,0.0992175042629242,-0.16380847990512848,0.02906530536711216,0.04753119498491287,-0.12752138078212738,0.02529294602572918,0.04207443818449974,0.020119179040193558,0.22418685257434845,-0.045092541724443436,-0.30706268548965454,-0.1569211333990097,0.1299869418144226,0.25669392943382263,-0.0504998080432415,-0.029684418812394142,-0.08798528462648392,0.03488932177424431,-0.04211721569299698,0.21400846540927887,0.045062996447086334,0.032877836376428604,0.13747461140155792,0.03387368842959404,-0.0055733248591423035,0.09281038492918015,-0.0517546646296978,0.02709212712943554,0.15133880078792572,0.002206366276368499,0.14063192903995514,-0.06645609438419342,-0.2303617149591446,-0.04306657612323761,0.1861703097820282,-0.10957121104001999,0.017559636384248734,-0.09927408397197723,-0.31979724764823914,0.1000819206237793,0.15840747952461243,-0.3972601890563965,0.04300689324736595,0.010652250610291958,-0.030669696629047394,-0.159636989235878,0.029319889843463898,0.2446523904800415,-0.015001418069005013,0.07215587049722672,-0.0260334312915802,0.09928463399410248,-0.028340820223093033,-0.022564435377717018,0.06566382199525833,0.07548943907022476,-0.006216150708496571,-0.13482916355133057,0.041475534439086914,0.03377188369631767,-0.16803689301013947,-0.2600412368774414,0.044094379991292953,0.042296696454286575,-0.06432542204856873,-0.06159394234418869,0.04275320842862129,-0.06827864050865173,0.0643324926495552,-0.15601830184459686,-0.030282994732260704,0.05066521465778351,-0.07386190444231033,-0.40291279554367065,0.0193032119423151,-0.08919401466846466,-0.15973107516765594,0.034550610929727554,-0.07807719707489014,0.05058315396308899,-0.2980417311191559,0.05473392829298973,0.02996586449444294,0.14935779571533203,-0.09640516340732574,0.02549801953136921,-0.0034687728621065617,-0.18101783096790314,-0.18888039886951447,0.11748210340738297,0.10531501471996307,-0.1790420114994049,0.04796823859214783,-0.02617482654750347,-0.11439649015665054,0.08092895895242691,0.17687536776065826,0.06163128465414047,0.12941913306713104,-0.03841397166252136,-0.04059809446334839,0.04127807915210724,-0.006119254045188427,-0.14771664142608643,-0.1280638426542282,0.011412572115659714,0.028682345524430275,0.002697475254535675,-0.06631214171648026,-0.2817476689815521,-0.0020560803823173046,-0.16069576144218445,-0.17145609855651855,-0.027082117274403572,-0.10702712088823318,-0.001992953009903431,-0.19927151501178741,-0.017803385853767395,-0.022694477811455727,0.09232590347528458,-0.05211034044623375,0.05709102004766464,-0.14343960583209991,0.13819578289985657,-0.2894376814365387,-0.17934824526309967,-0.04571022093296051,0.19757278263568878,-0.11173034459352493,0.021254979074001312,-0.22636178135871887,-0.04702033847570419,-0.09171488136053085,-0.664391040802002,-0.33736804127693176,-0.13631677627563477,0.5052371621131897,0.2259836494922638,0.163120836019516,0.346513956785202,0.22058098018169403,0.14178940653800964,0.1458674967288971,-0.008864456787705421,-0.02522624284029007,-0.23068152368068695,-0.12735821306705475,0.08298511058092117,-0.5346255302429199,-0.2889351546764374,-0.238678976893425,0.30721837282180786,0.009761594235897064,-0.02356625162065029,0.14544948935508728,0.10182778537273407,-0.0018153776181861758,0.3190387785434723,0.040592603385448456,0.24399533867835999,-0.20826832950115204,0.17009636759757996,0.05670196935534477,-0.09342875331640244,-0.3231135606765747,-0.26767343282699585,0.29395198822021484,0.05122281610965729,-0.10960619896650314,-0.367973655462265,-0.13456843793392181,-0.07645369321107864,0.011994513683021069,-0.1537025421857834,0.04992517828941345,0.08601519465446472,-0.19037756323814392,-0.1324501633644104,0.22458766400814056,0.12680745124816895,0.008287318050861359,-0.08330562710762024,0.014973253943026066,-0.03844011574983597,0.10250885039567947,0.0642746314406395,-0.11009832471609116,0.09977762401103973,0.01729404926300049,0.030413514003157616,-0.06078600138425827,-0.09825829416513443,-0.2537587285041809,-0.0651392713189125,-0.08669331669807434,0.0804101973772049,-0.03187967836856842,0.07885641604661942,0.03786003589630127,-0.2213248759508133,-0.005030287429690361,-0.24122893810272217,-0.1876758337020874,-0.10969894379377365,-0.008509219624102116,0.18189920485019684,-0.08142583072185516,0.07929302752017975,0.09656462073326111,-0.0949423611164093,0.06469704210758209,0.1591920554637909,0.049881741404533386,-0.09850463271141052,-0.09346389770507812,0.126583069562912,-0.2268688678741455,0.08361970633268356,0.056945908814668655,0.03307364508509636,0.17356537282466888,-0.12195233255624771,-0.028407732024788857,-0.18186725676059723,0.14075534045696259,-0.23645959794521332,0.2033853530883789,-0.08113263547420502,-0.12008233368396759,-0.1107700914144516,0.03882461041212082,-0.07103235274553299,-0.11784474551677704,0.1408522129058838,0.24426738917827606,-0.06187901645898819,-0.004951864015311003,0.1438269466161728,-0.006931306794285774,-0.014816204085946083,0.21652911603450775,0.02870144508779049,-0.1732972264289856,0.16794489324092865,0.07889869064092636,0.07108069211244583,-0.0703033059835434,0.060496632009744644,0.056868862360715866,-0.07096470892429352,0.17622382938861847,0.24108146131038666,-0.056076496839523315,0.1004595011472702,-0.009059774689376354,0.17481312155723572,0.0013769391225650907,0.09382855892181396,-0.03161453828215599,-0.09828043729066849,-0.1468411386013031,0.058526765555143356,0.06924997270107269,-0.11700914055109024,0.18327826261520386,-0.14591968059539795,0.005437660496681929,0.01506592147052288,0.03912881761789322,-0.2144956886768341,0.05688100308179855,-0.34064072370529175,0.25741496682167053,-0.052038006484508514,0.03209017962217331,-0.16818389296531677,0.11273441463708878,-0.07612471282482147,-0.03518081456422806,0.04936903342604637,0.0010045928647741675,-0.13631735742092133,-0.016878841444849968,0.009146294556558132,0.005009225104004145,0.015766194090247154,0.0494825504720211,-0.0201608557254076,-0.0675867348909378,0.09218841046094894,-0.05267232283949852,-0.0666695162653923,-0.056889645755290985,-0.0840141549706459,0.035546429455280304,0.1453186720609665,0.10166329145431519,0.21105782687664032,-0.15573707222938538,-0.06256885826587677,-0.02211022563278675,0.04021632671356201,0.10227697342634201,-0.05376008525490761,-0.2059004008769989,-0.06066715717315674,-0.1486080437898636,0.13736312091350555,0.04067187383770943,-0.1320711225271225,0.30430033802986145,-0.03535142540931702,0.039639536291360855,-0.18555517494678497,0.10791667550802231,-0.3382194936275482,0.06114361807703972,-0.026653224602341652,0.09459942579269409,-0.07747051119804382,-0.11629599332809448,-0.09623384475708008,0.0008766280952841043,-0.12857304513454437,-0.09275021404027939,0.03601283207535744,-0.08235131204128265,0.2108818143606186,-0.2620931565761566,0.2599872648715973,-0.4360169470310211,-0.11713824421167374,-0.2043413668870926,-0.06734026223421097,-0.13166919350624084,0.061596572399139404,0.032779939472675323,0.20910589396953583,0.20424999296665192,0.10545950382947922,0.0499209389090538,0.0380057767033577,0.0222831629216671,0.12377863377332687,0.15945333242416382,-0.053950995206832886,0.33577755093574524,-0.15627974271774292,-0.11058532446622849,-0.02871500700712204,-0.12707820534706116,-0.03174092248082161,0.11124449968338013,0.07758400589227676,-0.09851638227701187,-0.1639343649148941,0.1208811029791832,0.13465362787246704,-0.20744548738002777,-0.0460171140730381,0.15407638251781464,0.05232889950275421,-0.05502711236476898,-0.10123084485530853,-0.015195374377071857,0.07891007512807846,0.06064821779727936,-0.053906261920928955,0.34826913475990295,-0.07416564226150513,0.0037305662408471107,-0.1626770794391632,0.048500366508960724,0.0587521530687809,-0.010587694123387337,-0.05365458130836487,0.12461281567811966,-0.08705567568540573,0.09423001110553741,0.06865188479423523,0.01673518680036068,-0.05061562359333038,-0.19672982394695282,-0.0728767067193985,0.1597820669412613,-0.11448584496974945,0.1856618970632553,0.07684893906116486,-0.05813675373792648,-0.03210139647126198,-0.12409805506467819,-0.17467746138572693,0.080856092274189,-0.03269657492637634,0.25611555576324463,0.037146762013435364,-0.08172038942575455,-0.06031407043337822,0.06273708492517471,0.025656554847955704,0.12387093156576157,-0.0029023378156125546,0.1102416142821312,-0.15500502288341522,-0.1019977405667305,-0.09980359673500061,-0.1412036418914795,-0.012324200011789799,0.013713379390537739,0.04883083701133728,0.07094778120517731,0.1522149294614792,-0.08510414510965347,0.15603125095367432,0.018196476623415947,0.10829878598451614,-0.10794785618782043,0.07017118483781815,-0.15058478713035583,0.022901490330696106,0.08826582878828049,0.03517554700374603,0.05353717505931854,0.016380108892917633,0.13965055346488953,-0.1058826744556427,0.34159010648727417,-0.07602551579475403,0.04171862453222275,0.12704911828041077,-0.12637928128242493,-0.030341463163495064,0.12112859636545181,-0.0603032261133194,0.03745094686746597,-0.23354189097881317,0.08604850620031357,-0.06889815628528595,-0.17802470922470093,-0.20582035183906555,0.19144074618816376,-0.2908700108528137,0.20647935569286346,0.027677172794938087,-0.07028156518936157,-0.13756218552589417,-0.12734805047512054,0.10707931220531464,0.1408403068780899,0.03936833143234253,-0.022083094343543053,-0.14327497780323029,-0.04004441201686859,0.06615088880062103,-0.0464208647608757,0.15453045070171356,0.05148789659142494,-0.17297320067882538,0.01104747224599123,-0.2862701117992401,-0.26711392402648926,-0.09133040904998779,0.07762452214956284,0.11540815234184265,-0.1316709667444229,0.1072719469666481,-0.05964146926999092,0.14738090336322784,0.09975067526102066,0.15865245461463928,0.23757530748844147,0.012320891954004765,-0.3761032521724701,0.17344996333122253,0.21440918743610382,-0.10473277419805527,0.13536909222602844,0.1285635530948639,-0.22233846783638,0.09030164033174515,0.18839505314826965,0.21466559171676636,0.3179987967014313,0.059557948261499405,0.1501716673374176,0.00408597756177187,-0.10637449473142624,0.11434873938560486,-0.07483324408531189,-0.40224555134773254,0.033187225461006165,-0.13482420146465302,-0.1896241456270218,0.03322720527648926,-0.07282330095767975,-0.01800413616001606,-0.021082138642668724,0.11498741805553436,-0.14178940653800964,-0.14647825062274933,0.07959553599357605,0.28715285658836365,-0.28451085090637207,0.00618019001558423,0.1969386637210846,-0.08249790966510773,0.3841176927089691,-0.05395190790295601,-0.010289426892995834,0.1515088826417923,0.057080984115600586,-0.23968514800071716,0.5205504298210144,0.22964182496070862,-0.08781600743532181,-0.326099157333374,0.11874587833881378,0.07935917377471924,-0.03165743127465248,0.09756869822740555,-0.1958485245704651,0.07146366685628891,-0.05840189382433891,-0.14107471704483032,-0.0559270866215229,0.45458993315696716,0.017560787498950958,0.11144976317882538,0.04331155866384506,-0.151788592338562,0.07008529454469681,0.006357268895953894,-0.016288086771965027,-0.11484424024820328,-0.6888511776924133,0.9530853629112244,0.10304171591997147,-0.5862391591072083,0.16792970895767212,-0.47037485241889954,0.009659224189817905,0.48062989115715027,-0.8744844794273376,1.338369607925415,0.6455737352371216,-0.034812409430742264,-0.2130720615386963,0.35129985213279724,-1.2536695003509521,0.05497873201966286,-0.08085651695728302,-0.025574764236807823,0.006931967101991177,0.2945520281791687,0.32680246233940125,0.0687149241566658,-0.21221321821212769,0.3878363370895386,0.1762639731168747,0.32359886169433594,0.20924757421016693,-0.326541930437088,-0.1307683289051056,-0.2105785608291626,-0.33047720789909363,0.09205566346645355,-0.14836283028125763,0.18486756086349487,0.19284868240356445,0.32507044076919556,0.2742496728897095,-0.0020859893411397934,-0.3623396158218384,-0.25687944889068604,0.12801644206047058,-0.1770503968000412,-0.09386063367128372,-0.00824128556996584,0.24891027808189392,0.1773090809583664,-0.07927875220775604,-0.2265731394290924,-0.080230213701725,0.14434409141540527,-0.15271520614624023,-0.06624208390712738,-0.2405761331319809,-0.0206548273563385,-0.03869204223155975,-0.19074547290802002,-0.06565100699663162,-0.3811728358268738,0.11224498599767685,0.18408998847007751,-0.1673194020986557,-0.03829801455140114,0.2408137321472168,0.15953080356121063,0.1832803189754486,-0.09712646901607513,0.07039908319711685,0.16071230173110962,0.2679263651371002,-0.08395308256149292,-0.003221276216208935,0.39383670687675476,0.1652272492647171,-0.0711875930428505,0.22071947157382965,-0.015142402611672878,0.07212019711732864,-0.010429533198475838,-0.010556410998106003,0.07312092930078506,-0.31702741980552673,0.25990745425224304,-0.011892491020262241,-0.005169093143194914,-0.21833686530590057,0.2162630707025528,0.08647187054157257,0.11402371525764465,-0.11784304678440094,-0.20028920471668243,0.026576191186904907,-0.16535241901874542,-0.04462379962205887,0.20095251500606537,-0.27843761444091797,0.06655243039131165,-0.30513930320739746,0.26318785548210144,-0.06644618511199951,-0.3803352117538452,-0.27802395820617676,0.17640459537506104,0.29649868607521057,-0.5437435507774353,-0.43408524990081787,0.14070293307304382,-0.07578182965517044,0.2331617772579193,0.3809216022491455,0.4247024655342102,-0.1125073954463005,0.12564139068126678,0.17359891533851624,-0.19570814073085785,-0.08461195975542068,0.3040866553783417,-0.060440368950366974,-0.09473240375518799,-0.0552392341196537,-0.16527129709720612,0.3012862503528595,0.08758042752742767,-0.17541198432445526,0.04520576074719429,0.05133489519357681,0.0005212289397604764,0.0689626932144165,0.317461222410202,0.16594579815864563,-0.16062968969345093,-0.22155877947807312,0.04851721227169037,-0.1555766761302948,-0.048423781991004944,0.03155887871980667,0.029142776504158974,0.028705783188343048,0.17050063610076904,0.17601601779460907,0.040455907583236694,0.035236094146966934,0.16092275083065033,0.06016228720545769,-0.18155637383460999,0.22455406188964844,0.11497126519680023,0.27052804827690125,-0.0694340318441391,-0.02133021503686905,-0.11053042113780975,0.1806778758764267,-0.09071489423513412,0.0036203302443027496,-0.05314350873231888,0.1965494304895401,-0.21189166605472565,-0.06211123615503311,0.11077632009983063,-0.0637049451470375,0.19654639065265656,-0.1493481546640396,-0.1079387292265892,-0.14705125987529755,0.28072187304496765,0.15898340940475464,-0.3463241755962372,-0.31490638852119446,-0.08079493790864944,0.07510942965745926,0.1892964094877243,0.04597765952348709,-0.02869505062699318,-0.19570009410381317,0.21503591537475586,-0.06095321476459503,0.2839730679988861,-0.14307603240013123,-0.20816422998905182,-0.10610166192054749,0.10987918823957443,-0.08847151696681976,0.1359705775976181,0.011310819536447525,0.27018213272094727,0.0178928691893816,-0.2647925019264221,-0.004993153270334005,-0.01859334297478199,-0.128689244389534,0.042764924466609955,0.18978741765022278,0.0066997879184782505,0.04910275340080261,-0.12588264048099518,0.30223554372787476,-0.10329961776733398,0.38769760727882385,0.3887418210506439,0.10407284647226334,-0.011868332512676716,-0.17211394011974335,-0.29146039485931396,0.26506954431533813,-0.32172471284866333,-0.23993326723575592,-0.07132468372583389,-0.07141448557376862,-0.34746840596199036,-0.17305362224578857,-0.2540144622325897,0.08914708346128464,0.10672688484191895,0.16062195599079132,-0.017208127304911613,-0.015275171957910061,0.2410069853067398,-0.06625927239656448,-0.17609351873397827,-0.05952797830104828,-0.046172454953193665,0.0583120621740818,0.05809992179274559,-0.04630856215953827,-0.09440114349126816,0.12222255021333694,-0.21499228477478027,-0.08620472252368927,0.12057062983512878,-0.18676979839801788,0.193744957447052,-0.14440934360027313,0.08801034092903137,0.09515461325645447,0.16955450177192688,-0.2656821310520172,0.027217047289013863,0.19537600874900818,-0.17169150710105896,0.01717248745262623,-0.09650446474552155,0.2446458488702774,-0.25871551036834717,-0.06951656192541122,-0.09883090108633041,-0.018063461408019066,0.053370457142591476,-0.29980266094207764,0.22940321266651154,0.1770983636379242,-0.0005451262113638222,0.08531641960144043,-0.04893000051379204,0.02696491964161396,-0.10572502017021179,-0.09455622732639313,-0.17140202224254608,0.10678250342607498,-0.1521754413843155,-0.021444791927933693,-0.07175420224666595,-0.1087852492928505,0.07560918480157852,-0.32332587242126465,0.17336900532245636,0.11743468791246414,0.1921950876712799,0.10682541877031326,-0.1729063242673874,-0.14672641456127167,-0.17686784267425537,0.3168325126171112,0.13445298373699188,0.14060403406620026,0.30612117052078247,0.062495749443769455,-0.1366499364376068,0.2541685700416565,0.2424938678741455,0.02666591666638851,-0.24531231820583344,-0.060191258788108826,0.024207694455981255,-0.05081949755549431,-0.03278646245598793,0.059164684265851974,-0.05565296858549118,-0.08730703592300415,0.03199057653546333,0.03643946349620819,0.040934041142463684,0.3311312794685364,-0.1117662638425827,-0.015321670100092888,0.15451611578464508,-0.006140536163002253,0.10311616957187653,-0.1045856699347496,0.04259089007973671,0.1099252849817276,0.21689942479133606,-0.09673810750246048,-0.04522981122136116,0.24757450819015503,-0.002548253396525979,0.04523177817463875,0.3076261878013611,-0.0958690345287323,-0.06919444352388382,-0.19637367129325867,0.11040496826171875,-0.038961488753557205,-0.061111871153116226,-0.09791695326566696,-0.017978761345148087,0.0804465115070343,0.018984321504831314,-0.10339316725730896,-0.2076290398836136,-0.16659978032112122,0.28285396099090576,-0.0178158450871706,-0.0668080598115921,0.04207247868180275,-0.21609163284301758,-0.1096605658531189,0.03431013599038124,0.05345676466822624,-0.13028883934020996,0.021601838991045952,-0.1772351861000061,-0.03992652893066406,0.01595197431743145,-0.1571640819311142,0.03672832250595093,0.0026925504207611084,-0.12483354657888412,0.2166786938905716,-0.07297307997941971,0.09644828736782074,-0.040008723735809326,0.09043729305267334,0.08456863462924957,-0.14751291275024414,0.024968517944216728,-0.09700621664524078,0.08887764811515808,0.1071062684059143,0.03337778151035309,0.02243257500231266,0.19011187553405762,0.022123128175735474,-0.14963355660438538,0.004444491118192673,-0.17883485555648804,0.253856897354126,0.04842386394739151,-0.12367379665374756,-0.16463394463062286,-0.17688016593456268,0.08053497225046158,0.061156705021858215,-0.1603427678346634,-0.05400731787085533,0.16283954679965973,0.16404612362384796,0.08693183958530426,0.1844974160194397,0.040779534727334976,0.15861022472381592,-0.05292952433228493,-0.15713666379451752,0.013748541474342346,-0.019841574132442474,-0.03214983269572258,-0.18004103004932404,0.05251719802618027,-0.15117856860160828,0.05078298971056938,0.08221204578876495,-0.008703170344233513,-0.006531906314194202,0.009146862663328648,-0.13067398965358734,-0.025262756273150444,0.021208584308624268,-0.04023733362555504,0.037625908851623535,-0.021040288731455803,-0.3669551908969879,-0.20116421580314636,0.02202698588371277,0.07850451022386551,-0.0045902966521680355,0.03050876595079899,0.07300003618001938,0.09055380523204803,-0.2524975836277008,-0.12093602120876312,-0.06569527089595795,-0.09376981109380722,-0.028686119243502617,0.21274448931217194,-0.17151421308517456,-0.19996842741966248,0.11030004173517227,0.13238759338855743,0.06959445029497147,-0.09957478195428848,0.17851436138153076,0.165819451212883,0.16318319737911224,0.0929962769150734,-0.044956374913454056,-0.115471750497818,-0.068832628428936,-0.07248801738023758,-0.07027969509363174,-0.10048121958971024,0.07368937879800797,-0.13842737674713135,0.13685917854309082,-0.07981237024068832,-0.10405533015727997,0.0762719139456749,-0.08678732067346573,0.09180513769388199,-0.014469006098806858,-0.08445963263511658,-0.12686364352703094,0.0900406762957573,0.15383942425251007,0.10700111091136932,0.27620071172714233,0.16763442754745483,-0.08344307541847229,0.10301990807056427,0.43023377656936646,0.2362416684627533,0.09205053001642227,0.07511502504348755,0.18973910808563232,0.18059666454792023,0.05360792577266693,0.5346587896347046,0.13597950339317322,-0.11878152191638947,-0.15254487097263336,-0.266678124666214,0.055713627487421036,0.08239337801933289,-0.013390556909143925,0.15347954630851746,0.12068848311901093,0.15588237345218658,0.3270609676837921,-0.07610894739627838,-0.24731464684009552,-0.38047924637794495,-0.2952296733856201,-0.09182791411876678,0.1905461847782135,0.03583501651883125,0.10920750349760056,-0.12214166671037674,0.16135558485984802,0.17266340553760529,-0.05886407569050789,0.05356437712907791,0.11842364072799683,-0.1835169643163681,-0.02763240411877632,-0.07300262898206711,-0.2728107273578644,-0.012671799398958683,0.08525702357292175,-0.0777679905295372,-0.03238357603549957,0.0883268266916275,-0.1558779627084732,0.13688687980175018,-0.08429960906505585,-0.04020403325557709,0.263796865940094,0.3267584443092346,0.05315103381872177,-0.07787422835826874,0.04925266653299332,-0.01173316314816475,0.07469437271356583,-0.12275572866201401,0.07492104917764664,-0.16754278540611267,-0.06255745887756348,0.03339605778455734,-0.09956615418195724,0.1434684693813324,0.08185519278049469,-0.3180212080478668,-0.0897618979215622,-0.07527858018875122,0.15502741932868958,0.09278294444084167,-0.19856280088424683,-0.04527648538351059,0.11859425157308578,0.11262840777635574,-0.046243563294410706,-0.06752388924360275,-0.0013497528852894902,0.006799849681556225,-0.01570061594247818,0.0005661661853082478,-0.1877402663230896,-0.03246234729886055,0.0786060243844986,-0.27142083644866943,-0.015308983623981476,-0.015210848301649094,0.11093860864639282,-0.1905941218137741,-0.06290789693593979,-0.0545283742249012,-0.11430086195468903,0.23657286167144775,0.19214732944965363,-0.06896936148405075,-0.05410522595047951,0.1792408972978592,-0.25797921419143677,-0.07759340852499008,-0.3152061402797699,0.09357099235057831,0.282491534948349,-0.06628789752721786,0.06030341237783432,0.0917423889040947,-0.0269724503159523,-0.030275611206889153,-0.13486208021640778,-0.040375322103500366,-0.10058487951755524,0.000009944000339601189,-0.28215235471725464,-0.09771592170000076,0.12152078747749329,-0.06532096862792969,0.029854614287614822,-0.06792574375867844,0.011221473105251789,-0.07459148019552231,-0.030233582481741905,-0.06305902451276779,0.12100596725940704,-0.1662602573633194,-0.06637512147426605,0.09581857919692993,0.07430031150579453,0.13108037412166595,-0.0482197105884552,-0.21443511545658112,0.14398466050624847,-0.06274480372667313,-0.02807055041193962,0.06556514650583267,0.04767636954784393,-0.20554280281066895,0.15014125406742096,-0.07613042742013931,-0.16025474667549133,0.22597257792949677,-0.08933240920305252,-0.0033795516937971115,0.1450847089290619,0.030998829752206802,-0.07601547241210938,0.200995534658432,-0.2635762393474579,-0.20382311940193176,0.1551801711320877,0.018275998532772064,-0.04940352216362953,-0.06467071175575256,0.290237694978714,0.07329926639795303,-0.1790231168270111,-0.005903929937630892,-0.07628233730792999,-0.25289595127105713,-0.11488311737775803,0.2860141098499298,-0.012519964016973972,-0.13057123124599457,0.022057456895709038,0.11313948035240173,-0.19051261246204376,-0.3753497898578644,0.32172825932502747,-0.19490677118301392,-0.13187041878700256,-0.21992528438568115,0.1532011181116104,0.06301074475049973,0.14110909402370453,-0.10803230851888657,-0.07653653621673584,-0.06309519708156586,0.17782816290855408,0.10498613119125366,-0.13871003687381744,-0.09554990381002426,0.013127967715263367,0.029104631394147873,-0.14998270571231842,0.02402615174651146,-0.20792096853256226,0.20954175293445587,-0.12107482552528381,-0.1564778834581375,0.10148274898529053,0.05984684079885483,-0.030388709157705307,0.20500260591506958,-0.0751175507903099,0.0014363853260874748,0.1382642239332199,0.14726296067237854,0.3475751578807831,0.06420794129371643,-0.1957620233297348,-0.07435939460992813,-0.048202160745859146,0.14188240468502045,-0.11905450373888016,0.07168769836425781,-0.03403476998209953,-0.08429158478975296,0.11560878157615662,-0.10191009938716888,0.09591071307659149,-0.029187792912125587,-0.11900053173303604,0.04849894717335701,-0.059145912528038025,0.11252401024103165,0.07221709936857224,0.24243034422397614,-0.1051318570971489,-0.003487367881461978,-0.09499206393957138,0.12040363997220993,0.053476326167583466,-0.09622644633054733,-0.01627095229923725,-0.21706156432628632,-0.17094019055366516,-0.0881752148270607,-0.154243603348732,-0.08619581162929535,0.23581762611865997,0.16352535784244537,0.13668066263198853,0.2256792038679123,-0.06237490847706795,-0.22346656024456024,-0.04115285724401474,-0.19535723328590393,0.006213064305484295,0.11800316721200943,-0.10657235980033875,-0.08986920863389969,-0.04391634091734886,-0.11650793999433517,0.4529402256011963,0.16045548021793365,0.01113162562251091,-0.02747708559036255,0.14323316514492035,0.010708633810281754,-0.24513429403305054,0.01677692122757435,-0.029084328562021255,-0.05140955373644829,-0.0012228561099618673,-0.17715482413768768,0.27628791332244873,-0.03685058653354645,-0.12505599856376648,0.1353219449520111,-0.07730698585510254,-0.2901478409767151,-0.07740966230630875,0.0879267156124115,-0.1248713880777359,0.016332289204001427,-0.18537172675132751,0.09329379349946976,-0.14426970481872559,-0.044804077595472336,-0.036462146788835526,0.26974737644195557,-0.04783139377832413,0.11793243139982224,-0.25289568305015564,-0.021693984046578407,0.26663705706596375,-0.04103419929742813,-0.05359533801674843,0.10861990600824356,-0.014397773891687393,-0.12659405171871185,-0.07232068479061127,0.006953551433980465,0.020415663719177246,0.1378714144229889,0.10197682678699493,0.03611607104539871,0.15953685343265533,-0.20392069220542908,0.1471984088420868,-0.14325083792209625,0.46409884095191956,0.030698787420988083,0.16042135655879974,-0.22652499377727509,0.060711003839969635,0.08309027552604675,-0.1467575877904892,0.003792992327362299,0.1455972045660019,-0.11130823194980621,-0.01840846613049507,0.22730441391468048,0.26217472553253174,0.01877434365451336,-0.0663953498005867,0.03145672380924225,-0.08659747987985611,-0.24413639307022095,-0.05282410606741905,0.34770968556404114,-0.1927834302186966,0.10461927950382233,-0.04677630588412285,0.051863957196474075,-0.026446431875228882,0.04725596681237221,-0.20692233741283417,0.14960139989852905,0.04436814412474632,-0.03748057782649994,0.035473525524139404,-0.01962193474173546,0.08712217956781387,-0.17760533094406128,-0.11804238706827164,-0.020000454038381577,-0.11625872552394867,-0.11507169902324677,-0.18157191574573517,0.024909650906920433,0.00875179748982191,0.14112581312656403,0.17913810908794403,-0.10368606448173523,0.126264289021492,-0.15009890496730804,0.07109338045120239,-0.03294221684336662,-0.35874173045158386,0.06572718918323517,-0.2439393401145935,0.3004111349582672,0.1970248967409134,0.027848877012729645,0.19745256006717682,0.19230441749095917,0.07926579564809799,-0.005651662591844797,-0.07663726806640625,-0.15583749115467072,-0.4941219389438629,0.006669119466096163,0.11930350214242935,-0.011758534237742424,-0.04862455278635025,0.3847462236881256,-0.09917321801185608,-0.12296246737241745,-0.11065762490034103,-0.09724505245685577,0.22277791798114777,0.00012208129919599742,0.23803669214248657,0.02658216468989849,-0.039480604231357574,0.01926201395690441,-0.03683709353208542,0.14407293498516083,0.19336460530757904,0.0756717175245285,-0.13039684295654297,0.12588992714881897,-0.18579192459583282,0.047892533242702484,0.01948382332921028,0.17383427917957306,0.1812165379524231,0.1645682156085968,-0.18695877492427826,-0.04324028268456459,0.12755383551120758,-0.06767155975103378,-0.01934550516307354,0.18185022473335266,0.05207277089357376,0.03451333940029144,0.2016032189130783,0.04517955332994461,0.1110185831785202,0.005964380688965321,-0.13940206170082092,-0.2257973998785019,-0.16135439276695251,0.04436245933175087,-0.12462393939495087,-0.10033341497182846,0.03842443600296974,-0.14966663718223572,0.11358517408370972,0.07682626694440842,0.07166081666946411,0.03716937452554703,-0.14965936541557312,-0.1064421758055687,-0.08828365057706833,-0.09788410365581512,0.20552560687065125,0.005772135686129332,0.028813939541578293,-0.12102652341127396,-0.1731545329093933,0.17556922137737274,0.016823409125208855,0.1825924664735794,0.10536529868841171,-0.02009103074669838,-0.19949162006378174,0.12129601091146469,0.14079047739505768,-0.10448992997407913,0.2296837866306305,0.06630687415599823,0.013851639814674854,-0.009331120178103447,-0.03510880097746849,-0.22673864662647247,0.13451239466667175,-0.0745660588145256,-0.10830330848693848,0.0666469931602478,0.04630277678370476,-0.2154577672481537,0.11349651217460632,0.03999384492635727,0.010389268398284912,-0.03348495811223984,0.0716109350323677,-0.02274778112769127,-0.19326668977737427,0.18624167144298553,0.07288438081741333,0.043152980506420135,-0.16415831446647644,-0.05288553610444069,-0.13289907574653625,-0.022160323336720467,-0.06866070628166199,-0.043072354048490524,0.1537313312292099,0.018005385994911194,-0.04124334827065468,-0.14884427189826965,0.1807812601327896,-0.01879509910941124,0.12554249167442322,0.1307663917541504,0.07095629721879959,-0.10880837589502335,0.10570056736469269,-0.13632556796073914,-0.07552647590637207,0.11570072174072266,-0.05825667455792427,-0.16257473826408386,-0.07727262377738953,-0.08047764003276825,-0.18424655497074127,-0.04379772022366524,0.14093084633350372,0.1650283932685852,0.105963796377182,0.0452149398624897,0.10792793333530426,0.03678832948207855,0.06472798436880112,-0.05226758122444153,0.03735800459980965,0.03621447831392288,0.06820359081029892,0.10685107111930847,0.03901001811027527,-0.2439526915550232,-0.08674517273902893,0.10085079818964005,0.0545433908700943,0.1814211755990982,-0.0006711723981425166,0.015207995660603046,0.10157287865877151,-0.0680609792470932,0.025504006072878838,0.09088842570781708,-0.04219219833612442,0.2943614423274994,-0.14641396701335907,0.2226768434047699,0.12947295606136322,0.005403799936175346,0.2440304309129715,0.15233951807022095,0.028161659836769104,0.09882521629333496,-0.23846599459648132,-0.15495210886001587,0.06397037953138351,-0.08158858120441437,0.13859839737415314,-0.10844708979129791,-0.0881408154964447,-0.1417466551065445,0.07648371905088425,0.16254496574401855,0.170628622174263,-0.001393762999214232,0.031053120270371437,0.04127456620335579,-0.1671464443206787,-0.006232106126844883,0.04404829442501068,-0.2135375738143921,0.009333495981991291,0.13152959942817688,-0.16743537783622742,-0.19814912974834442,-0.015878433361649513,-0.14541877806186676,-0.05996468663215637,0.13704466819763184,0.08444547653198242,0.07339096069335938,-0.12495740503072739,0.17263194918632507,-0.11915700137615204,0.0054640742018818855,-0.04613802954554558,-0.0011837603524327278,0.19662922620773315,0.14055366814136505,-0.10238391160964966,0.033283792436122894,0.11727109551429749,-0.027747010812163353,-0.20848001539707184,-0.007765529211610556,0.16846990585327148,-0.0962434783577919,-0.005802019964903593,0.043455928564071655,-0.18634916841983795,0.034152161329984665,0.022391019389033318,0.005440479144454002,0.006474098656326532,-0.08474387973546982,0.048221103847026825,0.08810004591941833,-0.046785544604063034,0.018942885100841522,-0.0258548092097044,-0.08951195329427719,-0.0018602513009682298,0.007457431871443987,-0.018496230244636536,-0.10852585732936859,-0.11919422447681427,-0.09665925055742264,0.11280383169651031,-0.017816666513681412,-0.04101015254855156,0.23064009845256805,-0.12259120494127274,-0.16793794929981232,0.0035432185977697372,-0.11379272490739822,-0.08119030296802521,0.12449732422828674,0.03535027801990509,-0.1453135460615158,0.4583607316017151,0.14095979928970337,-0.05934493616223335,-0.049039386212825775,-0.02872052974998951,-0.14845432341098785,-0.13929864764213562,-0.08804714679718018,0.08875923603773117,0.0559072345495224,0.08125869929790497,0.006685307715088129,0.3435400426387787,-0.1784016340970993,-0.0010293556842952967,-0.004424519836902618,-0.014853712171316147,0.006217924878001213,-0.1486140340566635,-0.08528894931077957,-0.10212437808513641,0.2862386703491211,-0.11469797790050507,0.0724138393998146,-0.13737420737743378,0.14695629477500916,-0.1496737152338028,0.01701061613857746,0.1020599827170372,-0.2443852573633194,-0.028568968176841736,-0.09465242177248001,0.06341909617185593,-0.12890854477882385,0.013972128741443157,-0.1804230511188507,0.09775010496377945,0.13913553953170776,-0.32099369168281555,-0.09013058245182037,0.19834305346012115,0.05767306312918663,0.23411022126674652,0.17223374545574188,-0.11800894141197205,-0.10038575530052185,0.16578420996665955,0.06918709725141525,-0.09749288856983185,0.10065704584121704,0.048964135348796844,0.10601919144392014,0.01484307087957859,-0.06871428340673447,-0.05699750781059265,0.04704190790653229,0.03083609975874424,0.09265399724245071,-0.23315998911857605,0.16895198822021484,0.18560196459293365,0.09048256278038025,0.14763586223125458,0.7319363355636597,-0.17619483172893524,0.8763976693153381,-0.964947521686554,-0.4691212475299835,0.07383456081151962,0.22875934839248657,0.05701290816068649,0.39516741037368774,0.2893955409526825,-0.9413987398147583,0.3999117910861969,0.2719936966896057,-0.8307947516441345,0.25610777735710144,-0.042697079479694366,-0.12501147389411926,-0.31195685267448425,0.2880062758922577,-0.2162744253873825,-0.02208130806684494,0.31443044543266296,0.015702012926340103,-0.4020281732082367,-0.2961568534374237,-0.0618426688015461,0.04535358026623726,-0.17020228505134583,-0.008341141045093536,-0.06693089753389359,0.1678350567817688,-0.142899289727211,0.2150452584028244,0.031283311545848846,0.10886523127555847,-0.28655627369880676,-0.06322031468153,-0.29510197043418884,0.08897080272436142,0.12375812977552414,-0.17383679747581482,0.009183724410831928,-0.16382938623428345,0.08053474873304367,0.1616155207157135,0.3365183472633362,0.2685432732105255,0.09839464724063873,0.025473564863204956,0.30982789397239685,-0.13535663485527039,-0.049309711903333664,-0.12709951400756836,-0.2629029154777527,-0.30906638503074646,0.15489156544208527,0.13239315152168274,-0.017110098153352737,0.05104388669133186,-0.19987384974956512,0.1560381054878235,0.34115105867385864,-0.10431535542011261,0.252459853887558,-0.28662940859794617,0.025360511615872383,-0.12862250208854675,0.17461168766021729,0.1659090220928192,0.2935164272785187,0.17719779908657074,-0.014908742159605026,-0.31145352125167847,-0.2285088151693344,0.14306825399398804,-0.3553510010242462,0.14559106528759003,0.20863261818885803,-0.0167382899671793,-0.36214059591293335,0.39526858925819397,-0.17864060401916504,-0.037190843373537064,0.19957543909549713,-0.07806339114904404,-0.3495384454727173,-0.03498809039592743,0.016080709174275398,0.21485860645771027,0.19878865778446198,-0.052763961255550385,0.09721237421035767,-0.04792653024196625,0.03839508071541786,-0.20273761451244354,0.06693071126937866,-0.2571312189102173,0.11674827337265015,0.08997510373592377,0.03626059368252754,-0.10596831887960434,0.25920891761779785,-0.047542937099933624,-0.08597631752490997,0.2735753357410431,0.2622639834880829,-0.28761816024780273,0.42080995440483093,-0.1204906478524208,-0.17122763395309448,-0.29511770606040955,0.22839871048927307,-0.26349297165870667,0.14503102004528046,-0.024706315249204636,0.024531902745366096,0.09466656297445297,0.040557194501161575,0.1675882190465927,0.0913051888346672,-0.12248139083385468,0.1070936992764473,-0.027626752853393555,0.01779886893928051,-0.056220848113298416,-0.2232857495546341,0.007662591524422169,-0.193404421210289,0.07677757740020752,0.22243709862232208,-0.046139538288116455,0.12425780296325684,0.03933001682162285,-0.3103604018688202,-0.1617480218410492,0.252082496881485,0.11380938440561295,0.16275738179683685,0.060116253793239594,0.04886946827173233,0.12878432869911194,0.3255605697631836,0.2914891242980957,-0.0036588842049241066,-0.21105335652828217,0.31757304072380066,-0.13897988200187683,0.22822466492652893,-0.16164694726467133,0.039108164608478546,-0.33737725019454956,-0.1399383842945099,0.13040055334568024,0.09070247411727905,-0.046354345977306366,-0.2173520028591156,0.14342433214187622,0.3662658929824829,0.04791979864239693,0.08750900626182556,0.11245908588171005,0.24250946938991547,0.06513024121522903,-0.19688421487808228,-0.2765922546386719,0.019248317927122116,-0.15357783436775208,0.0651630312204361,-0.19077181816101074,-0.10060951858758926,0.11963590234518051,-0.1753428727388382,0.25168153643608093,0.04517638683319092,0.18808035552501678,-0.06395382434129715,-0.19969838857650757,0.18273326754570007,-0.21641023457050323,-0.002626056782901287,-0.1901388317346573,0.15496793389320374,-0.0587090328335762,-0.31391605734825134,0.28654900193214417,0.04742074012756348,-0.1741066873073578,0.0025913631543517113,-0.2420741617679596,0.07738034427165985,-0.015745820477604866,0.027607040479779243,0.07624482363462448,0.15825781226158142,-0.09931092709302902,-0.03312830254435539,-0.10987365245819092,-0.2637447714805603,0.05007430166006088,-0.019719703122973442,-0.3725608289241791,-0.014108775183558464,0.2765582203865051,0.08478625118732452,-0.20538748800754547,0.347144216299057,-0.2132568657398224,-0.1283196210861206,-0.18613755702972412,0.1308917999267578,0.22233843803405762,0.5308079123497009,-0.002626326633617282,0.43782103061676025,0.0007726678159087896,-0.3537615239620209,0.187042236328125,0.122493214905262,-0.17881107330322266,-0.1422729343175888,-0.4407985806465149,-0.009767403826117516,-0.19020043313503265,-0.20720435678958893,-0.36570343375205994,0.15623809397220612,-0.1458955854177475,0.37888002395629883,0.08821870386600494,0.25181058049201965,-0.034600548446178436,-0.0872795507311821,0.04364742338657379,0.23276068270206451,0.08825664967298508,-0.08689780533313751,-0.352433443069458,-0.29947394132614136,-0.14343538880348206,0.08853814005851746,0.38901615142822266,-0.0024720889050513506,0.22586023807525635,0.1791456937789917,-0.2905261218547821,-0.30503740906715393,0.048606328666210175,0.025304393842816353,-0.10680028796195984,0.06864992529153824,-0.23764123022556305,-0.04376322031021118,0.06437338888645172,0.1613418608903885,0.016787545755505562,-0.022540941834449768,0.10749098658561707,0.2256784290075302,-0.17960591614246368,0.10082198679447174,-0.2909044027328491,-0.2560100853443146,0.1897488534450531,-0.07756438851356506,-0.21481294929981232,0.03362995386123657,-0.24135679006576538,0.05307711660861969,0.21579982340335846,-0.01854604296386242,0.042666543275117874,0.07520417124032974,-0.08353031426668167,0.12766577303409576,0.30291488766670227,0.0007719295681454241,0.03333035856485367,0.013104555197060108,0.03446409851312637,0.08864329010248184,-0.3679656684398651,0.22521783411502838,0.04814191535115242,-0.048813361674547195,-0.14480064809322357,-0.3909975588321686,-0.21213732659816742,-0.0013689948245882988,0.05681973323225975,-0.17681185901165009,-0.2703525424003601,0.09019109606742859,-0.06237911805510521,-0.24677538871765137,0.01897352747619152,0.05820291116833687,-0.06928049772977829,-0.1921033263206482,0.10844815522432327,-0.01950876973569393,-0.12884286046028137,0.1867978572845459,-0.020998062565922737,0.21949391067028046,0.03349275887012482,0.14007976651191711,0.16358736157417297,-0.004485736135393381,-0.1197323352098465,0.1768665909767151,0.06150156259536743,-0.08761481940746307,-0.08106299489736557,-0.0557958260178566,0.06740482896566391,0.252143919467926,-0.19945518672466278,-0.1809423863887787,-0.04122013598680496,0.20256201922893524,0.08124382793903351,0.004655195865780115,0.0874195247888565,-0.041883502155542374,-0.08094411343336105,0.05872194841504097,0.1802954375743866,-0.3495999276638031,-0.026005201041698456,0.08432181924581528,0.18595381081104279,-0.24923557043075562,0.10374894738197327,-0.24308981001377106,0.03813692554831505,0.025965839624404907,0.026259828358888626,-0.10023858398199081,-0.08445891737937927,0.3325338661670685,-0.0490286760032177,-0.08070853352546692,-0.20024792850017548,-0.08841067552566528,-0.06765832751989365,-0.19129185378551483,0.18679548799991608,-0.04366245120763779,-0.1282513439655304,-0.040374819189310074,0.04007141664624214,0.09504547715187073,-0.1875205934047699,-0.006189139559864998,-0.05036752298474312,0.1520261913537979,-0.09833992272615433,-0.06499335169792175,-0.17588430643081665,-0.02266361191868782,-0.09409156441688538,0.30465906858444214,0.3661188781261444,0.23596349358558655,-0.03035212680697441,0.0067727891728281975,-0.037303682416677475,-0.10046172142028809,0.10335306078195572,-0.34747058153152466,0.09599877148866653,-0.06928753852844238,-0.09198633581399918,-0.19627538323402405,0.04951676353812218,-0.002378929639235139,-0.026926901191473007,0.17956843972206116,-0.06886017322540283,0.3712330460548401,-0.008220560848712921,-0.165041983127594,-0.015661519020795822,-0.03030342049896717,-0.03315846621990204,-0.23758357763290405,-0.6180933713912964,0.3558379113674164,0.2670811414718628,0.20794528722763062,-0.4378356337547302,-0.2812390923500061,-0.1190929263830185,-0.27133283019065857,-0.08658058941364288,0.03292037546634674,-0.34972232580184937,-0.23232968151569366,-0.24094536900520325,0.1580311506986618,0.08918338268995285,-0.022368326783180237,0.232071653008461,-0.19745077192783356,-0.11835063993930817,-0.19753050804138184,-0.09905911237001419,-0.6616005897521973,0.0872950553894043,-0.07367102056741714,0.11388078331947327,0.6525704860687256,-0.008824547752737999,-0.09634459763765335,0.004655840341001749,0.0428503192961216,0.3504706025123596,-0.12888960540294647,0.16427531838417053,0.1252065747976303,-0.454417884349823,-0.1116982251405716,0.07354617863893509,-0.022207725793123245,0.04922667518258095,0.6102086901664734,-0.19812174141407013,0.4730355441570282,0.38552993535995483,-0.3367402255535126,-0.06526074558496475,0.19076474010944366,0.13091833889484406,-0.19372737407684326,0.02876250259578228,-0.20727740228176117,-0.03606974706053734,-0.1264593005180359,0.07396098971366882,0.08375612646341324,0.051948536187410355,0.09091838449239731,-0.1908615529537201,0.13271893560886383,0.0072356718592345715,0.15237613022327423,0.09993843734264374,-0.0384349599480629,0.1684371381998062,0.149451345205307,0.15452514588832855,-0.24169689416885376,0.09962112456560135,0.11379110813140869,0.06505151838064194,-0.2065838724374771,0.17060409486293793,-0.18116936087608337,-0.023113485425710678,-0.178762748837471,0.06888968497514725,-0.021688368171453476,0.14947180449962616,0.06382986903190613,0.03873688355088234,-0.10380905866622925,-0.2632526159286499,-0.04269211366772652,0.16074709594249725,0.06493013352155685,-0.021512722596526146,0.12244735658168793,-0.02111661434173584,-0.09455948323011398,0.05558473989367485,-0.3426963984966278,0.01171434111893177,0.05911526829004288,-0.12197750061750412,0.06606756150722504,-0.028248127549886703,0.37772664427757263,-0.0024469965137541294,0.05524025857448578,-0.02170553058385849,0.07063275575637817,0.11064476519823074,0.06287172436714172,0.21498435735702515,-0.08309101313352585,0.24083372950553894,0.08926288038492203,0.07484672218561172,-0.07771069556474686,0.15389388799667358,0.09296586364507675,-0.15710265934467316,-0.09178802371025085,0.222906231880188,-0.010859712027013302,-0.08360595256090164,0.03863291069865227,0.11673832684755325,0.04876340925693512,-0.23967421054840088,0.0628904476761818,0.0898209735751152,0.047188885509967804,0.032798882573843,0.04782905802130699,-0.07418281584978104,0.12726588547229767,-0.036617059260606766,0.01906619593501091,-0.027144143357872963,-0.12217401713132858,-0.17847870290279388,0.16250309348106384,0.009146086871623993,0.0002435570495435968,0.04802984371781349,-0.0989208072423935,0.041959330439567566,0.04206577688455582,0.06293192505836487,-0.0717114508152008,0.153156578540802,0.10009065270423889,-0.12132436037063599,0.20608964562416077,-0.11496393382549286,0.04630131274461746,0.006020856089890003,0.16375680267810822,0.04257277399301529,-0.005044311285018921,-0.014054377563297749,-0.0027450653724372387,0.016391202807426453,-0.04402850940823555,-0.09801658987998962,-0.1112222969532013,-0.09118298441171646,-0.14098326861858368,-0.20941688120365143,0.024383636191487312,0.2747125029563904,0.06610492616891861,-0.08853928744792938,-0.11859924346208572,-0.01328311674296856,-0.010453577153384686,-0.19460515677928925,-0.07782801240682602,-0.053677190095186234,0.013055612333118916,0.06249263137578964,-0.000901486724615097,0.0026914922054857016,0.0691760778427124,-0.08377014845609665,-0.13943801820278168,0.2625791132450104,0.02631714940071106,0.021048687398433685,-0.0714832991361618,-0.1427076905965805,-0.16569916903972626,-0.049337148666381836,-0.12793917953968048,0.09541165083646774,0.23159003257751465,0.24027204513549805,-0.01712184213101864,0.12837831676006317,-0.013621700927615166,-0.10413996875286102,-0.4878598749637604,-0.017665332183241844,0.035655535757541656,-0.1939733624458313,-0.14041869342327118,-0.42691904306411743,-0.2658871114253998,-0.3246196210384369,-0.18815737962722778,-0.47441843152046204,-0.07001719623804092,-0.09719989448785782,-0.07214649021625519,-0.22774438560009003,0.16058914363384247,0.5508444905281067,0.11724747717380524,-0.38169166445732117,0.1041218563914299,0.10692063719034195,-0.1785249561071396,-0.24676890671253204,-0.29242444038391113,0.3805907964706421,0.09600173681974411,0.227128803730011,0.1288946568965912,0.1570705771446228,-0.020887983962893486,0.030540838837623596,-0.07309999316930771,-0.002959062345325947,0.2822726368904114,-0.09845630824565887,0.08868364244699478,0.07520050555467606,-0.24095049500465393,0.13934984803199768,0.24420244991779327,0.25191372632980347,0.19587770104408264,-0.06079753488302231,-0.22132296860218048,-0.01571699231863022,0.08243627101182938,-0.3594011962413788,-0.071461521089077,-0.163194939494133,0.25098463892936707,-0.011112021282315254,0.01676344871520996,-0.08120480179786682,0.07015208899974823,0.09701722860336304,0.0025335336104035378,0.26391053199768066,0.16125096380710602,0.23040983080863953,0.03336811438202858,0.10973101109266281,-0.08576996624469757,0.09053787589073181,-0.06675630062818527,-0.3742268979549408,-0.015019059181213379,0.10312626510858536,-0.05771074816584587,0.03092702105641365,0.07616683095693588,-0.07505790144205093,0.019857605919241905,-0.24982625246047974,0.010774379596114159,-0.05412964150309563,-0.07398708164691925,-0.04536440223455429,0.04032482951879501,-0.0005760084022767842,0.11695120483636856,0.1026669517159462,-0.19796721637248993,0.07339808344841003,0.07326754927635193,-0.021859586238861084,0.100616455078125,-0.025010140612721443,-0.015113672241568565,-0.0019043576903641224,-0.15283456444740295,-0.04584018886089325,0.09786904603242874,-0.015576407313346863,-0.1255967915058136,0.14244498312473297,0.03402634710073471,0.09773792326450348,0.19011950492858887,0.1179618090391159,0.24820193648338318,0.0714874118566513,0.12545794248580933,-0.07799496501684189,-0.10116396099328995,-0.025114914402365685,-0.09825204312801361,0.01703212782740593,-0.06617460399866104,0.15189681947231293,-0.2827053368091583,0.09282858669757843,0.01603383757174015,-0.30366724729537964,0.07301075756549835,-0.17754670977592468,0.05270644277334213,-0.018178869038820267,0.11902766674757004,-0.08748029917478561,0.08478095382452011,-0.0899403840303421,0.030926553532481194,-0.06018853560090065,-0.09351816028356552,-0.08023729175329208,0.16675084829330444,-0.11593306809663773,-0.024182483553886414,0.0009506673668511212,-0.1360454261302948,0.21111032366752625,-0.15597864985466003,0.12627051770687103,0.07045696675777435,-0.042658571153879166,-0.14014706015586853,0.03381863981485367,0.016941983252763748,-0.02983505092561245,0.21345017850399017,0.11095879226922989,-0.07186027616262436,0.1661168336868286,0.12031720578670502,-0.013265418820083141,-0.11749427020549774,0.019112179055809975,-0.04709509387612343,0.05863833427429199,-0.14624863862991333,0.04393412545323372,0.12843133509159088,-0.17390599846839905,0.06911609321832657,0.02829936146736145,-0.07069633156061172,0.08783019334077835,0.03478086367249489,0.1098543331027031,-0.024415990337729454,0.004925055895000696,-0.05467153713107109,0.039266299456357956,0.20734956860542297,0.13875095546245575,0.10487718135118484,0.03319000080227852,0.01499598566442728,0.016405940055847168,0.07837791740894318,0.03664153814315796,-0.08647409826517105,-0.17769762873649597,-0.10287446528673172,0.0898672416806221,0.03495433181524277,-0.16446954011917114,0.08412941545248032,0.06651423871517181,-0.20077906548976898,0.07129111140966415,0.049495067447423935,-0.12960828840732574,0.11699609458446503,0.06872694939374924,0.02058001235127449,0.199911430478096,0.14580968022346497,-0.16761882603168488,0.04883618652820587,0.008772502653300762,-0.10259220004081726,-0.24972683191299438,-0.1132005825638771,-0.11868387460708618,0.05956396088004112,0.23872002959251404,0.0670883059501648,-0.0616673044860363,0.1013692244887352,-0.0830010399222374,0.04585482180118561,0.06039692088961601,-0.023100117221474648,-0.02059953846037388,0.00014701495820190758,0.07164619117975235,-0.19392772018909454,0.08072370290756226,-0.015760695561766624,0.058282237499952316,-0.20054681599140167,-0.010016992688179016,-0.04277890920639038,-0.16107431054115295,0.0017393343150615692,0.08993589878082275,-0.04706942290067673,-0.026879586279392242,-0.05618572607636452,0.060864537954330444,0.011150229722261429,0.12027155607938766,0.19236578047275543,0.015806181356310844,0.21831868588924408,0.06294376403093338,-0.16978859901428223,-0.07840234041213989,0.26751285791397095,0.07178328186273575,-0.07188060134649277,0.22275640070438385,0.17987214028835297,0.337422251701355,0.19819235801696777,0.15744684636592865,-0.12990731000900269,-0.08696871250867844,