{"config":{"head":null,"layers":[{"gated":false,"channels":16,"dilations":[1,2,4,8,16,32,64,128,256,512],"head_bias":false,"head_size":8,"activation":"Tanh","input_size":1,"kernel_size":3,"condition_size":1},{"gated":false,"channels":8,"dilations":[1,2,4,8,16,32,64,128,256,512],"head_bias":true,"head_size":1,"activation":"Tanh","input_size":16,"kernel_size":3,"condition_size":1}],"head_scale":0.02},"version":"0.5.4","weights":[-0.00303697120398283,0.4011026918888092,-0.6240243911743164,-0.8079291582107544,-0.24166390299797058,0.22338536381721497,0.0009220647043548524,0.8748125433921814,-0.10218660533428192,0.23599030077457428,-0.4253675043582916,-0.155636265873909,-1.0060878992080688,-0.7265476584434509,-0.38223254680633545,0.0051828473806381226,0.15285174548625946,0.0694321021437645,-0.08047426491975784,-0.27182385325431824,-0.018794545903801918,0.16573654115200043,0.18884935975074768,0.1864919513463974,-0.062021657824516296,0.23867766559123993,0.21115516126155853,-0.17284345626831055,0.10573785752058029,0.022464755922555923,-0.11075841635465622,-0.07930949330329895,-0.1526549607515335,-0.008438292890787125,0.043784283101558685,-0.09710010141134262,-0.149070605635643,-0.09929054230451584,-0.016532665118575096,0.10774405300617218,0.19926227629184723,-0.03142230957746506,-0.060476724058389664,-0.3344994783401489,-0.1642393320798874,-0.010067570954561234,0.3032766282558441,0.15334783494472504,-0.11738484352827072,0.18912844359874725,0.14443688094615936,0.08146417886018753,0.28085872530937195,0.10115829855203629,0.0607224777340889,0.13528431951999664,0.10449898988008499,-0.1527278870344162,0.10944816470146179,-0.0024142740294337273,0.015881044790148735,-0.13386797904968262,-0.10982014238834381,0.06736429035663605,-0.055134713649749756,-0.05690361186861992,-0.06382112950086594,0.04241875186562538,0.011891301721334457,0.16081811487674713,-0.11076299846172333,0.03280435502529144,0.03892838954925537,0.12108945846557617,0.2141042798757553,0.10959050804376602,0.013445585034787655,-0.0534605011343956,-0.016064167022705078,-0.07712476700544357,-0.20413777232170105,0.15798060595989227,0.0764162614941597,-0.19280306994915009,0.09206889569759369,-0.026210099458694458,-0.11310747265815735,-0.04814900457859039,0.030367497354745865,-0.03687560185790062,0.01173933781683445,0.08547589927911758,0.034377340227365494,0.0833578109741211,-0.1498149335384369,-0.012760297395288944,0.04459427297115326,0.008445566520094872,-0.04668831080198288,-0.11840188503265381,0.13828805088996887,0.1871650069952011,-0.07989700883626938,-0.03549925982952118,-0.050109103322029114,-0.021713778376579285,-0.1185198575258255,-0.032670531421899796,-0.03511543571949005,0.031208733096718788,-0.0844033882021904,0.07765469700098038,-0.011926007457077503,0.08925692737102509,0.15949711203575134,-0.11055958271026611,0.1037009060382843,-0.08071556687355042,-0.00018971961981151253,-0.1137019544839859,0.13641119003295898,-0.012071671895682812,-0.22015929222106934,0.14999859035015106,-0.13782306015491486,-0.2130717635154724,0.0617118738591671,-0.06965553760528564,0.0748894065618515,-0.21853290498256683,-0.039325274527072906,-0.0033537030685693026,-0.08151576668024063,0.013142426498234272,0.2533779442310333,-0.096114881336689,0.027025584131479263,-0.10894323140382767,0.1613249033689499,0.08969022333621979,0.2614862024784088,-0.01461587194353342,0.130466029047966,-0.14775435626506805,-0.031983647495508194,-0.05802268907427788,-0.018677616491913795,0.10633862018585205,-0.09388665109872818,-0.26216989755630493,-0.05605079233646393,-0.14013934135437012,-0.17672894895076752,0.16284354031085968,0.06972656399011612,-0.27875807881355286,0.18290318548679352,-0.13538886606693268,-0.008462119847536087,-0.15891994535923004,-0.024707594886422157,0.053399112075567245,-0.16702064871788025,-0.22509236633777618,-0.20246686041355133,0.08201195299625397,0.04413333535194397,0.24353164434432983,-0.20203936100006104,0.10231921821832657,0.3194531500339508,-0.13197362422943115,0.2179253101348877,0.21981105208396912,-0.22213324904441833,0.00033778397482819855,-0.18422558903694153,0.02825932763516903,0.11781975626945496,-0.11236048489809036,-0.04826267063617706,-0.1418711543083191,-0.08962251991033554,0.11297035217285156,0.14054878056049347,0.19294127821922302,-0.15734267234802246,-0.11826597899198532,-0.2845447361469269,0.1773616373538971,0.21383173763751984,0.27932026982307434,-0.1910456120967865,0.08483275771141052,0.05571696162223816,-0.18110279738903046,0.02868896909058094,0.24321052432060242,-0.1566307693719864,0.10615813732147217,0.19603228569030762,0.017779940739274025,-0.010460817255079746,0.08161265403032303,-0.16911610960960388,0.059012409299612045,-0.11496462672948837,0.20962081849575043,-0.024106774479150772,0.10035379230976105,-0.025018969550728798,-0.05653408542275429,-0.19274844229221344,-0.024675609543919563,0.03748840093612671,0.23944023251533508,-0.11135242134332657,-0.037193384021520615,0.34040114283561707,-0.11592644453048706,0.005433689337223768,0.34141939878463745,0.03219040855765343,-0.014208049513399601,-0.32291898131370544,0.09128642827272415,-0.016398541629314423,0.06576912105083466,0.06700259447097778,-0.05917471647262573,-0.2222374826669693,0.11809957772493362,0.014770814217627048,0.297770619392395,0.03788596764206886,-0.10721324384212494,-0.13151763379573822,-0.07619024068117142,-0.0356864295899868,0.2545795440673828,0.03330317884683609,0.1146806851029396,0.14160719513893127,-0.028876038268208504,0.1135847195982933,0.08560515940189362,0.10727070271968842,-0.08360084146261215,0.2232765257358551,-0.026020431891083717,-0.050377730280160904,0.23073409497737885,0.10712842643260956,-0.036584485322237015,-0.1712605208158493,-0.02805599756538868,-0.09526552259922028,0.050677597522735596,-0.1089213564991951,-0.06623893231153488,-0.0027472113724797964,0.08778738230466843,0.03724084421992302,0.024197421967983246,0.039805181324481964,-0.08790726959705353,-0.12834560871124268,0.030612755566835403,0.09999968111515045,-0.029339201748371124,-0.06348326802253723,-0.046871159225702286,-0.06837031245231628,0.02273941971361637,-0.07756472378969193,-0.14049318432807922,0.16860105097293854,-0.054515015333890915,0.07136446982622147,0.05397722125053406,0.003045454388484359,-0.14422573149204254,-0.07493366301059723,0.13451363146305084,0.09264324605464935,0.10574024170637131,-0.0747765451669693,-0.03492457792162895,-0.028697028756141663,-0.015070942230522633,-0.1471341848373413,0.06566961109638214,0.005227632354944944,-0.09198407828807831,-0.047073230147361755,-0.1266186237335205,0.013709727674722672,-0.11804638057947159,0.031199412420392036,-0.12909477949142456,-0.06996729224920273,0.010121434926986694,-0.10528270155191422,-0.012637305073440075,0.11116508394479752,-0.1401873379945755,0.010567822493612766,0.05973481386899948,0.17347308993339539,-0.06555645167827606,-0.1263592541217804,-0.1459331065416336,0.0902826264500618,-0.0595984049141407,-0.07067196816205978,0.13778077065944672,-0.061809785664081573,-0.10340725630521774,0.11634236574172974,-0.0008934177458286285,0.11619202792644501,-0.04248037934303284,-0.1711958795785904,-0.07397917658090591,0.0630202665925026,0.13609494268894196,0.20990605652332306,-0.022430332377552986,0.10006555169820786,-0.1522306501865387,-0.026992443948984146,-0.1388077735900879,0.24860841035842896,0.024223212152719498,-0.09270142763853073,-0.0584862120449543,0.1669590026140213,0.16766934096813202,0.03037581406533718,0.17875339090824127,-0.04063847288489342,-0.17698043584823608,0.15813778340816498,0.07622133940458298,-0.21048907935619354,0.17334963381290436,0.07389536499977112,-0.03882147744297981,-0.03841159865260124,0.019931724295020103,-0.03499395027756691,0.06293610483407974,-0.10613249987363815,0.05070120096206665,-0.09327591955661774,0.23942656815052032,0.0272111464291811,0.13119934499263763,-0.28848499059677124,-0.050934478640556335,-0.1650032103061676,-0.3339346945285797,-0.20085643231868744,0.04503248259425163,-0.08792120963335037,0.07114541530609131,0.06627272814512253,0.04068704694509506,-0.03635118156671524,0.025062020868062973,-0.058122418820858,0.19021080434322357,-0.026934154331684113,0.12128221243619919,-0.05366497114300728,-0.012551912106573582,-0.02772819995880127,0.08461698144674301,0.08565028756856918,0.27880144119262695,0.19093647599220276,0.0070281545631587505,-0.11606962978839874,0.055707357823848724,-0.007189770694822073,-0.013510817661881447,0.020380541682243347,0.048859044909477234,-0.24329739809036255,-0.018202947452664375,-0.05484015867114067,-0.2233203500509262,-0.16387370228767395,-0.14732612669467926,-0.28848862648010254,0.02122723124921322,0.045661795884370804,0.06372193992137909,-0.13271422684192657,0.10315076261758804,0.17398926615715027,-0.02038818784058094,-0.017884384840726852,0.16344468295574188,0.2102995365858078,-0.16428397595882416,0.0971558466553688,-0.05045221373438835,-0.005695205181837082,0.04051590338349342,-0.24364417791366577,0.02584575116634369,0.10230609029531479,-0.13494662940502167,-0.03789028897881508,-0.027250684797763824,0.09821508079767227,-0.09432262182235718,-0.0037153069861233234,0.09956948459148407,-0.020130690187215805,-0.04814757779240608,0.17006683349609375,0.02140166610479355,0.07475022226572037,-0.23740173876285553,0.0726066455245018,-0.08774085342884064,0.07566762715578079,-0.019520623609423637,-0.13060547411441803,-0.09677623957395554,0.1857624351978302,-0.0009124617208726704,-0.22608934342861176,0.02152322791516781,-0.01113749761134386,-0.2744293212890625,0.11709295213222504,-0.16959378123283386,-0.2985263764858246,-0.08972471952438354,-0.056952450424432755,-0.053619589656591415,-0.07568484544754028,0.12146946042776108,-0.012356406077742577,-0.009966632351279259,-0.05100775882601738,-0.051973339170217514,0.13037939369678497,0.2994895577430725,0.1625325232744217,0.005595232360064983,-0.32820460200309753,0.09390809386968613,0.06844103336334229,-0.1685626059770584,-0.14196105301380157,0.020981255918741226,-0.3525027334690094,-0.06483893096446991,0.10614771395921707,0.10107066482305527,0.053029466420412064,-0.002717838389798999,0.06955815851688385,0.027839794754981995,0.08931715041399002,0.19235821068286896,0.08976863324642181,0.0808844119310379,-0.10937035083770752,-0.0016375620616599917,0.16336782276630402,0.0696571096777916,-0.11497047543525696,-0.018312564119696617,-0.30595654249191284,0.05538921058177948,-0.02374914474785328,-0.27243712544441223,-0.11654375493526459,0.16132435202598572,-0.2522643506526947,0.08328709751367569,0.14849399030208588,-0.1545064002275467,-0.019419919699430466,0.019292443990707397,-0.25434815883636475,-0.00003543913408066146,0.14340661466121674,0.0245689507573843,0.05439640209078789,-0.09696845710277557,-0.10620991885662079,-0.08061699569225311,0.01375099178403616,0.2196330726146698,-0.04699769988656044,0.1707909107208252,-0.026929479092359543,-0.01164895948022604,0.043073300272226334,-0.17751844227313995,-0.051896750926971436,-0.02100812830030918,-0.11813517659902573,-0.02672504261136055,-0.09942249208688736,0.16649901866912842,0.03240550681948662,0.004263797774910927,0.01590638794004917,0.06113855913281441,-0.1506078690290451,0.1118234246969223,0.1810249388217926,0.06490203738212585,-0.009299766272306442,-0.0776384174823761,0.020528296008706093,-0.03031066432595253,-0.01416970044374466,-0.021026767790317535,0.04794000834226608,-0.12161479890346527,-0.06445430219173431,-0.13285547494888306,0.08260397613048553,0.09354972094297409,-0.2093638777732849,-0.2159835249185562,-0.1903129518032074,-0.09753458201885223,-0.1314419060945511,-0.17116451263427734,-0.13787135481834412,-0.059317152947187424,-0.1422206312417984,0.07562476396560669,-0.03249290585517883,-0.008489571511745453,0.052382778376340866,0.244960218667984,-0.11829816550016403,-0.11537962406873703,-0.2667410969734192,0.22829683125019073,-0.005099322646856308,0.08344557136297226,0.0634039118885994,0.04268189147114754,0.2530529797077179,-0.0925934687256813,0.07813983410596848,0.16792935132980347,-0.005796552635729313,-0.10472293198108673,-0.34024500846862793,0.013699257746338844,-0.04352213814854622,0.060200285166502,-0.17352186143398285,0.0024555064737796783,-0.2575199604034424,0.05372289940714836,0.20188532769680023,0.24590542912483215,-0.009486410766839981,-0.025771642103791237,-0.24407356977462769,0.009672197513282299,0.11021605134010315,0.33340659737586975,-0.144105464220047,-0.03325085714459419,0.25011634826660156,0.035307660698890686,0.09383752197027206,0.10717401653528214,-0.20813947916030884,0.16717396676540375,0.21167580783367157,-0.1551636904478073,0.14979654550552368,0.2695787250995636,0.022909661754965782,0.060306791216135025,-0.09039472043514252,-0.020984668284654617,-0.08991783857345581,0.0829271525144577,0.0502660758793354,0.1133369654417038,0.029293205589056015,0.14269766211509705,0.07455980777740479,-0.033286143094301224,-0.13952802121639252,-0.11615246534347534,-0.26471710205078125,0.11899175494909286,-0.10103575885295868,-0.20847076177597046,0.07732783257961273,-0.02656419761478901,0.06973233819007874,-0.015437303110957146,-0.03029624931514263,-0.16185006499290466,0.09698490798473358,-0.0028673848137259483,0.21642352640628815,0.14278511703014374,0.05562882870435715,-0.09382511675357819,0.15415920317173004,0.05584733560681343,0.07273999601602554,0.12797367572784424,-0.012962518259882927,-0.29343390464782715,-0.04330258071422577,-0.12719057500362396,-0.005415396299213171,-0.012334773316979408,-0.1939389854669571,-0.1756792515516281,0.07141072303056717,-0.02113700658082962,-0.11708742380142212,-0.001639086753129959,0.004256115294992924,-0.19073769450187683,-0.06389924883842468,-0.10057323426008224,-0.04237327724695206,0.05214143916964531,-0.14464335143566132,0.070518858730793,0.017086513340473175,-0.002222114708274603,-0.22128550708293915,0.18181867897510529,-0.06169736385345459,0.2541981637477875,-0.15053288638591766,-0.012552112340927124,0.21557021141052246,-0.09532032161951065,0.12287633121013641,0.01760520040988922,-0.17530345916748047,-0.06779153645038605,-0.09029017388820648,0.18785934150218964,-0.06829018145799637,0.10825276374816895,-0.0035321256145834923,-0.05376885086297989,-0.031847983598709106,-0.076226145029068,-0.004595851991325617,0.2187892496585846,-0.10478824377059937,0.11009712517261505,-0.1574757695198059,0.17550621926784515,-0.13014960289001465,0.10461585968732834,-0.07669166475534439,0.037594202905893326,0.16210229694843292,0.04667457193136215,0.0025209274608641863,0.1338147222995758,0.06524884700775146,-0.018757840618491173,0.26162824034690857,-0.1342523843050003,-0.006256282329559326,0.11884093284606934,0.014877958223223686,0.09967826306819916,-0.068365179002285,-0.07536738365888596,0.0960235744714737,-0.005408017430454493,0.05437139794230461,-0.020949015393853188,0.20234036445617676,0.13363321125507355,-0.06551998108625412,-0.25210002064704895,0.09529711306095123,-0.18617106974124908,-0.08524663746356964,0.015408683568239212,-0.1234915480017662,-0.04661918431520462,-0.11501872539520264,0.09006199985742569,0.0028716176748275757,-0.0335419699549675,0.06505868583917618,0.06822364032268524,-0.008958070538938046,0.17172229290008545,0.10020923614501953,-0.06183881312608719,-0.15914073586463928,-0.20002734661102295,0.19614377617835999,0.01992361806333065,0.10232579708099365,0.016039831563830376,0.03223152831196785,0.01717430353164673,0.12867993116378784,-0.15129733085632324,-0.10830013453960419,-0.05774885043501854,-0.16303734481334686,-0.08568074554204941,0.12661907076835632,-0.19232197105884552,-0.028067605569958687,-0.07840663194656372,-0.0936451107263565,0.005900811403989792,-0.02427102066576481,0.019423119723796844,-0.07848981767892838,0.06493047624826431,0.11140041053295135,-0.12322236597537994,0.11339506506919861,-0.2956433892250061,-0.16652141511440277,-0.01236657053232193,0.31740936636924744,0.018821420148015022,0.09624745696783066,0.3317418396472931,0.15717348456382751,-0.045610155910253525,0.16423821449279785,-0.006568757351487875,-0.1070205569267273,-0.18618276715278625,0.07133844494819641,0.1126774325966835,0.11397995799779892,0.019230937585234642,-0.0767657682299614,-0.09811074286699295,-0.12172438204288483,-0.13034668564796448,0.19037574529647827,0.09906712174415588,-0.14805838465690613,-0.051789797842502594,0.01436905562877655,-0.10505227744579315,0.16470511257648468,0.17333489656448364,-0.09444654732942581,0.13322672247886658,0.07601501047611237,-0.12536288797855377,0.2867914140224457,0.13799527287483215,0.1212400496006012,0.11180715262889862,0.2018275260925293,-0.05869624763727188,0.3373944163322449,-0.08701318502426147,-0.11046191304922104,-0.06699644029140472,0.05058984085917473,0.023700937628746033,-0.028927935287356377,-0.018275033682584763,-0.058944109827280045,-0.08014728128910065,0.025974757969379425,0.060151275247335434,-0.008932140655815601,-0.0006647749105468392,0.05355900898575783,0.0629812553524971,-0.03213401883840561,-0.008570784702897072,-0.06469403207302094,-0.017853571102023125,-0.03214828670024872,0.015400941483676434,0.4699620008468628,-0.41743794083595276,0.730829656124115,-0.6436654925346375,-0.012869613245129585,0.9262203574180603,0.9669713377952576,-0.49646642804145813,0.1442192941904068,0.07022396475076675,-0.37532517313957214,-0.28044524788856506,0.30202388763427734,-0.6737685799598694,0.1878238022327423,0.3895304203033447,-0.14004775881767273,0.24990469217300415,-0.11129970848560333,0.19807490706443787,0.3037547469139099,-0.14146506786346436,0.06569802761077881,-0.02790372632443905,-0.13959157466888428,-0.030353553593158722,-0.031762223690748215,0.015327587723731995,-0.014047996141016483,0.12524005770683289,0.09290596842765808,-0.057011134922504425,0.24563449621200562,0.0032412605360150337,-0.4925660192966461,0.2617653012275696,0.35775572061538696,-0.29575058817863464,-0.3357030749320984,-0.2990085482597351,-0.20818261802196503,-0.09420671314001083,-0.27401915192604065,0.31307676434516907,-0.17316964268684387,0.16669020056724548,-0.2564575970172882,0.461719810962677,0.15385393798351288,-0.06326146423816681,0.19557534158229828,0.14367878437042236,-0.24935685098171234,-0.010565883480012417,0.25340840220451355,-0.27266424894332886,0.07195565104484558,-0.21149973571300507,0.29255884885787964,-0.29006683826446533,0.3331020176410675,0.09885429590940475,0.13019084930419922,0.05259387195110321,0.05820056051015854,-0.12878136336803436,-0.1118503138422966,-0.16156519949436188,0.05608233064413071,-0.02494439110159874,-0.01944151520729065,0.023499879986047745,-0.21733953058719635,-0.01633232645690441,-0.07315855473279953,-0.007186252623796463,0.10434382408857346,0.24942873418331146,-0.24369144439697266,-0.14937061071395874,-0.2225639522075653,-0.30768147110939026,-0.16581803560256958,0.05210556089878082,0.14433689415454865,0.23636101186275482,0.17770855128765106,-0.15619966387748718,0.18891578912734985,0.37575769424438477,-0.2573602795600891,0.12198489159345627,-0.027929024770855904,0.03143015503883362,-0.049102816730737686,0.15451881289482117,-0.21707893908023834,-0.09186392277479172,0.1879201978445053,0.007145029958337545,0.0797204077243805,0.32267826795578003,0.2946905493736267,0.16100075840950012,0.25698310136795044,0.05384394899010658,-0.1261286586523056,-0.14196796715259552,0.032433703541755676,-0.23968210816383362,0.21695788204669952,0.05082784965634346,0.3542342185974121,0.049678023904561996,0.30897319316864014,0.19606977701187134,-0.2544337511062622,-0.17731809616088867,0.11772369593381882,-0.2462201565504074,0.09648529440164566,-0.5280181169509888,-0.204644575715065,0.2066369503736496,0.2641523480415344,-0.25393369793891907,0.0244459118694067,0.055838797241449356,0.13343748450279236,-0.01589980535209179,0.5190946459770203,-0.40846845507621765,-0.49991512298583984,0.3732585906982422,0.4573342204093933,0.16352809965610504,0.35513678193092346,-0.040816016495227814,0.33394214510917664,-0.4379936456680298,0.2993248403072357,-0.390857458114624,0.14245858788490295,0.0007132396567612886,-0.0002094865485560149,0.03234310448169708,-0.344825804233551,-0.11378462612628937,0.23593220114707947,-0.18917728960514069,-0.24431867897510529,-0.15810032188892365,-0.3007769286632538,-0.30379289388656616,0.08221210539340973,0.21197138726711273,-0.031424496322870255,-0.004005901049822569,-0.049042388796806335,0.10375244170427322,-0.28805187344551086,0.10729894787073135,0.24782736599445343,-0.2862398326396942,-0.30262380838394165,0.024480421096086502,0.19609636068344116,-0.02231038548052311,0.10367005318403244,0.2663036286830902,0.11577419191598892,-0.03394099697470665,0.21088476479053497,0.10031978785991669,-0.05027437210083008,-0.04807402938604355,0.20009596645832062,0.26402077078819275,-0.439814031124115,0.2850481867790222,0.1413247287273407,-0.42733511328697205,-0.14104177057743073,-0.25816506147384644,-0.13954775035381317,-0.343558132648468,-0.29108095169067383,0.15602880716323853,-0.2335919737815857,0.3354092538356781,-0.20780052244663239,0.29872632026672363,-0.05308353528380394,-0.03401390090584755,0.007908673025667667,0.06722354888916016,0.14423303306102753,-0.27530616521835327,-0.15545754134655,-0.06406574696302414,-0.11019932478666306,-0.2803843021392822,-0.11976556479930878,-0.13314172625541687,-0.1952318549156189,0.2560938894748688,-0.2935464382171631,-0.14671200513839722,0.19573648273944855,0.14589372277259827,-0.24525047838687897,0.3312852084636688,0.394010454416275,-0.4975152015686035,-0.3073039948940277,-0.2049209177494049,-0.10741616785526276,-0.3721752464771271,-0.3541752099990845,0.37942492961883545,-0.05745864287018776,0.1848926991224289,-0.4590168595314026,0.43684646487236023,0.20365628600120544,-0.062437936663627625,-0.38053685426712036,0.2845523953437805,0.18112121522426605,-0.04257059097290039,-0.036677055060863495,-0.23135648667812347,-0.19468897581100464,-0.30716365575790405,-0.24519172310829163,0.26833462715148926,-0.3981058895587921,0.17537930607795715,-0.49488499760627747,0.4138973653316498,-0.08764094859361649,0.2088496834039688,-0.018477724865078926,-0.11742134392261505,0.11802701652050018,0.07300757616758347,0.21718476712703705,0.08299322426319122,-0.27489927411079407,0.10964170098304749,-0.018348248675465584,-0.046615131199359894,0.2018595188856125,0.18415047228336334,-0.18629227578639984,-0.026806270703673363,0.2595199942588806,0.03158104792237282,0.25838592648506165,-0.1328950822353363,-0.12615486979484558,0.30439263582229614,0.15906992554664612,0.09527323395013809,-0.05363329499959946,-0.0735904797911644,-0.05806669965386391,-0.22265948355197906,0.12458764016628265,0.12613233923912048,0.09192997962236404,0.059311673045158386,0.03728102147579193,-0.17641310393810272,0.12363536655902863,-0.10399062186479568,-0.07750970870256424,-0.034864917397499084,0.09512706100940704,0.006218756549060345,-0.03886336833238602,-0.12376568466424942,0.05591918155550957,0.053352370858192444,0.048292577266693115,0.11084899306297302,0.026706496253609657,-0.007087096571922302,0.2417062222957611,-0.0784519836306572,0.015575152821838856,0.1464298963546753,-0.03545137494802475,0.06975259631872177,-0.15673142671585083,-0.0090505201369524,0.00017868871509563178,-0.13485002517700195,-0.008617803454399109,-0.046634189784526825,-0.036087580025196075,-0.22633205354213715,-0.0889904573559761,0.10644611716270447,-0.08472619950771332,0.05948678031563759,-0.2836407423019409,-0.0740087553858757,0.21265342831611633,0.010656390339136124,-0.009399520233273506,-0.15420597791671753,-0.04119366034865379,0.05294954031705856,-0.1020364835858345,-0.15084150433540344,0.05799489840865135,-0.0709807425737381,-0.15071527659893036,-0.06511884182691574,-0.010043425485491753,-0.06821312010288239,-0.054122526198625565,0.08268248289823532,-0.10090535134077072,-0.012432700023055077,-0.04503685608506203,-0.08258596062660217,0.04109011963009834,-0.14149883389472961,0.07387865334749222,0.02934342622756958,-0.04805811867117882,0.08448288589715958,-0.030733050778508186,-0.1181994378566742,-0.1164991557598114,-0.023820044472813606,0.295767605304718,-0.30047985911369324,-0.04159219563007355,0.2060319483280182,-0.1522846221923828,0.02907739207148552,0.21021585166454315,-0.2470463067293167,0.0862448439002037,0.05605761706829071,0.03850618377327919,-0.20634672045707703,0.16363506019115448,0.09803161025047302,-0.06790279597043991,-0.1958652287721634,-0.051474619656801224,-0.17528803646564484,0.05979438126087189,0.32765698432922363,-0.024006612598896027,-0.22017812728881836,-0.3450404107570648,-0.07662378251552582,0.13254423439502716,0.26180708408355713,0.0541260801255703,-0.3086933195590973,-0.21080145239830017,-0.034011974930763245,0.19116203486919403,-0.30373603105545044,-0.06930381059646606,0.34629562497138977,-0.28639015555381775,-0.0776832178235054,0.24773761630058289,-0.15115194022655487,0.04704580083489418,0.19838574528694153,-0.16810676455497742,-0.08842486143112183,0.02196776494383812,0.17858478426933289,0.19408118724822998,-0.28621646761894226,-0.03553636744618416,-0.013025577180087566,-0.02991558238863945,0.10217208415269852,0.15363965928554535,-0.027490094304084778,-0.08744149655103683,-0.06305822730064392,0.007874976843595505,0.004332471173256636,-0.037219543009996414,-0.06686843186616898,0.17578990757465363,0.06370913982391357,0.047687746584415436,0.023836810141801834,0.08401019871234894,0.056952595710754395,0.11841973662376404,-0.31408584117889404,-0.11580294370651245,0.020592961460351944,-0.05053161457180977,0.07457800954580307,-0.0610126368701458,-0.11441278457641602,0.050819359719753265,-0.03293600678443909,0.09568071365356445,-0.17903222143650055,-0.1940142661333084,-0.16862809658050537,0.1523701399564743,0.09137323498725891,-0.03279528766870499,0.170103058218956,0.02197912335395813,-0.03769241273403168,0.03094838559627533,-0.03880880028009415,-0.03219965100288391,0.15664659440517426,-0.17318452894687653,0.07308825850486755,0.027317732572555542,-0.06178345903754234,0.09953800588846207,0.03709743171930313,-0.10209889709949493,-0.3020637333393097,0.01189148798584938,0.050988372415304184,0.019485225901007652,-0.024629836902022362,0.14937269687652588,-0.14987251162528992,-0.3447422981262207,0.19753961265087128,-0.03322545066475868,-0.049876533448696136,0.08911433070898056,-0.04055194929242134,0.09042061120271683,-0.21566353738307953,0.21772420406341553,0.03613054379820824,0.25988999009132385,0.36105024814605713,-0.46445727348327637,-0.29613929986953735,0.18188263475894928,0.08340680599212646,0.24455490708351135,-0.2471240758895874,-0.03616718202829361,-0.01692369394004345,-0.04911816120147705,0.11626838892698288,0.277488648891449,-0.20785467326641083,-0.08602607250213623,0.22571910917758942,-0.06500241160392761,0.10662360489368439,0.2742313742637634,0.007648277096450329,-0.1401396095752716,0.22699186205863953,-0.2647358477115631,-0.22650933265686035,-0.09774016588926315,-0.4210042953491211,0.4542188346385956,-0.06727036088705063,0.20523770153522491,0.08870446681976318,-0.03377551585435867,0.016278589144349098,0.12612071633338928,0.13727831840515137,0.015292984433472157,0.07523109763860703,-0.11278992891311646,-0.044629957526922226,-0.06376069784164429,-0.20383399724960327,0.022829731926321983,0.10914753377437592,0.020040065050125122,0.09224607050418854,-0.18194594979286194,-0.14806506037712097,0.12857696413993835,-0.14925509691238403,0.11049143224954605,-0.36822986602783203,-0.03811456635594368,0.013895434327423573,0.18744075298309326,0.047916896641254425,0.13259872794151306,-0.03905662149190903,0.03711819648742676,-0.12759065628051758,-0.0006583810318261385,-0.046846166253089905,0.15933510661125183,-0.15319086611270905,0.052751220762729645,-0.09041839838027954,-0.03047649748623371,0.16285410523414612,-0.1643667370080948,-0.2703242599964142,0.15071962773799896,0.06327256560325623,-0.1414986401796341,0.10894829034805298,-0.12634453177452087,0.005429996643215418,-0.09509554505348206,0.08559204638004303,0.02322038635611534,-0.14054080843925476,-0.035346031188964844,-0.10135950893163681,-0.046981532126665115,-0.06393427401781082,0.07760176807641983,0.04393014684319496,-0.16736501455307007,-0.0761503130197525,-0.06831282377243042,0.09068891406059265,0.14295102655887604,0.013594294898211956,-0.09510867297649384,0.052242595702409744,0.1876748949289322,0.07087350636720657,-0.03303404152393341,0.10191118717193604,0.08291342109441757,-0.2783289849758148,-0.08093441277742386,0.015579372644424438,-0.11899314075708389,0.26548269391059875,0.1839570850133896,0.10534335672855377,-0.14669401943683624,0.12605436146259308,-0.027965720742940903,0.02212664484977722,0.1753207892179489,0.061258379369974136,-0.020340828225016594,0.2086341679096222,-0.06782380491495132,-0.0304738637059927,0.10832587629556656,0.0666426345705986,-0.06882163137197495,-0.047925643622875214,-0.1743464320898056,0.025483427569270134,-0.09833138436079025,0.20267555117607117,-0.15168708562850952,-0.058090489357709885,0.01716800592839718,0.17824482917785645,-0.022176232188940048,0.06509468704462051,0.04317029193043709,0.07675071060657501,0.3139924108982086,-0.004078390076756477,-0.04810292273759842,-0.12707053124904633,0.07965658605098724,0.1379851996898651,0.07270978391170502,0.0835922360420227,-0.12006453424692154,0.06478912383317947,-0.04863244667649269,0.3227003216743469,0.11164329200983047,0.01789078302681446,0.23398949205875397,0.0914173349738121,0.14164549112319946,0.1842837631702423,0.15444231033325195,-0.13133014738559723,-0.12492302805185318,-0.08106498420238495,-0.0072836424224078655,0.17994749546051025,0.059325914829969406,0.013093591667711735,-0.11988116800785065,-0.10041556507349014,0.1588355302810669,-0.1584869623184204,0.03432956337928772,0.09189128875732422,-0.06008344516158104,0.10324171930551529,0.22481150925159454,-0.12068454176187515,0.0724375918507576,-0.16164065897464752,-0.34405121207237244,-0.274739533662796,-0.10290312021970749,0.14102278649806976,0.0666511282324791,-0.11297989636659622,-0.1133381649851799,-0.013133956119418144,0.21520647406578064,0.1220918595790863,0.06007770448923111,-0.04694842919707298,-0.2133733481168747,-0.009371704421937466,0.1376868486404419,-0.05580507591366768,-0.023487232625484467,0.027431311085820198,-0.015034791082143784,-0.28191936016082764,-0.36971381306648254,0.1284182220697403,-0.129111185669899,-0.11683331429958344,-0.07168328016996384,0.06890546530485153,0.16141214966773987,0.07101800292730331,-0.05491297319531441,-0.1157282367348671,0.012797796167433262,-0.06306023895740509,0.2326653152704239,0.17475548386573792,0.12171231955289841,-0.052111368626356125,0.04213966429233551,-0.10437707602977753,0.026419905945658684,-0.03850235790014267,-0.04271978512406349,0.13127180933952332,-0.13405835628509521,-0.039626479148864746,0.03412073850631714,-0.18423615396022797,-0.004850886296480894,-0.08140240609645844,-0.004193607717752457,-0.13657207787036896,0.12344416975975037,-0.08170739561319351,-0.03322375938296318,-0.09204375743865967,0.029247375205159187,0.12079964578151703,-0.14205776154994965,-0.41549310088157654,-0.23723351955413818,-0.04413660243153572,0.30524879693984985,0.16228604316711426,0.0399271622300148,-0.033961664885282516,-0.1333557516336441,-0.2762746214866638,-0.04496179521083832,-0.05469265952706337,-0.12086406350135803,0.009381826035678387,0.09485708922147751,0.005459399428218603,0.2532297968864441,0.19315485656261444,0.08217694610357285,0.10398726910352707,0.0364251583814621,0.21784642338752747,-0.2101844847202301,-0.13256210088729858,0.1751365214586258,0.08212616294622421,0.06616397202014923,-0.2090647667646408,-0.16028954088687897,-0.12676262855529785,-0.12951481342315674,0.004521016031503677,-0.004318137187510729,0.023369455710053444,-0.056641511619091034,0.17393571138381958,0.027934441342949867,-0.11680615693330765,-0.014062473550438881,-0.023855026811361313,0.1622193157672882,-0.09485229104757309,-0.19573397934436798,0.030470022931694984,-0.006314969155937433,-0.03446593135595322,0.12193888425827026,0.2290373146533966,-0.024967432022094727,-0.06152830645442009,0.15569359064102173,0.0758976861834526,-0.116342693567276,-0.02109006978571415,-0.024525141343474388,-0.04697585850954056,0.1882678121328354,-0.044648025184869766,0.09748952090740204,0.0546952448785305,0.1518617421388626,-0.05649294704198837,-0.12539631128311157,0.07886973023414612,0.046903785318136215,-0.14448358118534088,0.049035463482141495,-0.12274568527936935,-0.10113190114498138,0.14586253464221954,-0.029612794518470764,0.19968226552009583,-0.04376291483640671,-0.11068973690271378,-0.18159346282482147,0.05635162442922592,-0.09753595292568207,0.09943772852420807,0.10503780096769333,-0.04867973178625107,0.009966114535927773,-0.05050992965698242,-0.09321575611829758,-0.01352935004979372,-0.14625763893127441,-0.14301438629627228,0.11193858087062836,-0.016328290104866028,-0.11180399358272552,-0.05502115562558174,0.09083077311515808,-0.020530862733721733,-0.06453605741262436,-0.03800526633858681,-0.07236775755882263,-0.04903416708111763,-0.09239242225885391,-0.1444549709558487,-0.059017155319452286,-0.2123069167137146,0.09551272541284561,0.2203863263130188,0.28331658244132996,-0.11829525977373123,-0.09982836246490479,-0.038887619972229004,0.08631657809019089,0.09219139814376831,0.07976962625980377,-0.0038053628522902727,0.10311393439769745,-0.0034773831721395254,-0.07511519640684128,0.3232269883155823,0.16070307791233063,-0.1650424748659134,0.05810553580522537,0.028484953567385674,0.023640919476747513,-0.039788663387298584,0.11171402037143707,-0.21453514695167542,-0.23273082077503204,-0.15162810683250427,0.18755705654621124,-0.03666147217154503,-0.04444602504372597,0.15653347969055176,0.00869555864483118,-0.06559741497039795,0.17607083916664124,0.05357819050550461,0.09709730744361877,0.1927066594362259,0.0017345400992780924,0.13206662237644196,0.2033354640007019,0.14169257879257202,0.22007766366004944,-0.2113957554101944,-0.2296672910451889,-0.07182773947715759,0.10889805853366852,-0.377349853515625,0.08461510390043259,0.19532686471939087,-0.33964553475379944,-0.08173796534538269,0.019867975264787674,0.3580365777015686,-0.04190975800156593,0.23643791675567627,-0.07498501241207123,0.22529570758342743,-0.011730946600437164,-0.2816489338874817,-0.036474041640758514,-0.30094143748283386,0.3196614682674408,-0.13363490998744965,0.17627516388893127,0.13555531203746796,-0.6689378619194031,-0.10987801104784012,0.40128880739212036,-0.09573709219694138,0.3747308850288391,-0.37574803829193115,-0.04758405312895775,-0.41462793946266174,0.35795000195503235,-0.08388710767030716,0.24284517765045166,-0.16839440166950226,0.023163462057709694,0.18294979631900787,-0.1484377235174179,0.1863735020160675,0.22693493962287903,-0.2799939811229706,0.16881063580513,0.388131320476532,-0.26239264011383057,-0.02286139689385891,0.08327528089284897,-0.10201766341924667,0.34492093324661255,-0.2843312621116638,0.31710541248321533,-0.061674486845731735,-0.09105564653873444,0.06324037164449692,0.018406327813863754,0.10635900497436523,-0.003855722723528743,-0.062366172671318054,0.18450850248336792,0.1366291046142578,-0.010588077828288078,0.051459409296512604,0.009542303159832954,-0.04542470723390579,0.05637197196483612,-0.07964279502630234,-0.062195077538490295,-0.07700508087873459,-0.08071013540029526,0.18332719802856445,0.0696033462882042,-0.025228112936019897,-0.13147878646850586,-0.14499178528785706,-0.08239205181598663,0.10307614505290985,-0.07837259769439697,0.0332152359187603,0.02643081732094288,-0.0687219500541687,0.029678594321012497,-0.1103702187538147,0.16831253468990326,0.11594058573246002,-0.02510342001914978,0.08277829736471176,-0.2390531599521637,-0.11117807030677795,0.0872189998626709,-0.12190110236406326,0.036673687398433685,0.01828022673726082,-0.051042914390563965,-0.11670555919408798,0.06120271608233452,-0.00539963785558939,0.17100900411605835,0.10284540802240372,0.16977471113204956,0.11494523286819458,0.006606098264455795,-0.05063863471150398,-0.020510945469141006,-0.02718302607536316,0.04749451205134392,0.12695391476154327,0.14516551792621613,-0.05692898854613304,0.02700800821185112,-0.16996842622756958,-0.06596691906452179,-0.08493143320083618,0.16920079290866852,0.13110405206680298,0.19632329046726227,-0.041911978274583817,0.07029534131288528,-0.08985741436481476,0.1182958260178566,0.050159379839897156,0.22383499145507812,0.17702901363372803,0.11760393530130386,0.06629681587219238,-0.007300229277461767,-0.09052767604589462,0.16025875508785248,0.05777110531926155,-0.11120691150426865,0.05660555511713028,-0.08053816109895706,-0.0736580416560173,-0.07379624992609024,-0.0008682673214934766,0.056466374546289444,-0.06336317211389542,-0.10725507140159607,-0.039735421538352966,-0.015182710252702236,0.11330661922693253,0.10838329046964645,-0.017900455743074417,0.08982176333665848,0.09346108883619308,-0.3200150728225708,-0.08673610538244247,-0.12250664085149765,0.03169252723455429,-0.08966884762048721,-0.03731594607234001,-0.06430402398109436,0.01637757197022438,0.2509462237358093,-0.09321748465299606,-0.11307511478662491,0.039630189538002014,0.17821243405342102,-0.09079112112522125,-0.07374198734760284,-0.017117181792855263,0.14756624400615692,0.21168680489063263,0.014244128949940205,0.19519485533237457,-0.05473421514034271,-0.09983474761247635,0.08614443242549896,0.30381807684898376,0.40277233719825745,0.1364392191171646,0.08221457898616791,-0.15992970764636993,-0.007205619011074305,-0.10771077126264572,0.024444540962576866,-0.022893153131008148,-0.08072111010551453,0.12351460009813309,-0.09887802600860596,0.0693279579281807,0.15377315878868103,0.029818162322044373,0.02933608368039131,0.01768638752400875,-0.07153887301683426,-0.02599874511361122,0.11864761263132095,-0.10244647413492203,-0.012231585569679737,-0.059175506234169006,-0.34705081582069397,-0.2935488820075989,-0.12593227624893188,0.23245155811309814,0.05816185846924782,-0.05679614841938019,-0.3024994730949402,0.41944268345832825,-0.2986399531364441,-0.15621213614940643,0.26191213726997375,0.11079785227775574,-0.0022697681561112404,0.043776992708444595,0.17087727785110474,-0.08344677835702896,0.20795923471450806,-0.3231179118156433,-0.1286040097475052,0.12490011006593704,0.07096244394779205,0.16844351589679718,-0.34169670939445496,0.05085816606879234,-0.025821147486567497,-0.017439819872379303,0.1299486607313156,0.2270067036151886,-0.4846648871898651,-0.051194965839385986,-0.3052322268486023,0.18700575828552246,0.006598335225135088,0.06383103877305984,-0.13678988814353943,0.07627280056476593,-0.2057919055223465,0.3450479209423065,-0.05746091529726982,-0.25571057200431824,0.21900680661201477,-0.11319665610790253,-0.3084826171398163,0.14952407777309418,0.025273893028497696,-0.1717420518398285,0.38936343789100647,-0.01670520007610321,0.035018812865018845,0.16987302899360657,-0.23392876982688904,0.17467962205410004,-0.14229834079742432,0.2581775188446045,0.16082097589969635,0.13389086723327637,-0.0018754852935671806,0.07843580096960068,-0.09380350261926651,0.03870943933725357,-0.0020996378734707832,0.07441581785678864,0.10684201121330261,-0.07710836827754974,0.2649325728416443,-0.01397788431495428,0.11984483152627945,0.1853957623243332,0.036459941416978836,0.0381796658039093,-0.3192807734012604,-0.05898815393447876,0.4923938810825348,-0.7469924688339233,0.21039515733718872,-0.643544614315033,-0.35389506816864014,-0.532071590423584,1.4928683042526245,-0.9458209872245789,-0.8036432862281799,-1.2743513584136963,0.04105827584862709,-0.3162173926830292,0.10543762147426605,-0.5353534817695618,0.002060466445982456,-0.3663829565048218,0.08221945911645889,0.7121925354003906,0.3388884961605072,-0.0762590542435646,-0.1485019475221634,0.04232770577073097,0.07254426926374435,-0.1758948564529419,0.16510644555091858,0.8742560148239136,0.11847434192895889,0.16929273307323456,0.008057733066380024,-0.47093093395233154,0.0420166552066803,0.013014830648899078,0.07446548342704773,-0.07824502885341644,-0.06708072125911713,0.02529500238597393,-0.08062568306922913,-0.10902626812458038,0.3046687841415405,-0.20962674915790558,0.16929039359092712,0.2289508432149887,-0.012874593026936054,0.06819633394479752,-0.019255109131336212,0.0339047871530056,-0.16447964310646057,-0.12948136031627655,-0.11376173049211502,-0.028797952458262444,-0.1350553333759308,0.31437888741493225,-0.30253463983535767,-0.1611996740102768,-0.194773867726326,0.13302646577358246,-0.0427270270884037,-0.7026187181472778,0.17631040513515472,-0.034686580300331116,-0.28195303678512573,0.30140116810798645,0.018189577385783195,0.17849217355251312,-0.209661066532135,0.08604038506746292,-0.1669541895389557,0.04127250984311104,-0.14074136316776276,-0.0676136240363121,0.11566273868083954,0.022814908996224403,0.03548882156610489,0.3404204249382019,0.23417581617832184,-0.20738814771175385,0.006844246760010719,-0.12352681905031204,0.2906634509563446,-0.20384453237056732,0.06235992908477783,0.2186267226934433,0.3591727912425995,-0.1469113528728485,0.0140829561278224,0.28465765714645386,0.37300246953964233,-0.19592951238155365,-0.15873733162879944,0.4872833788394928,-0.1159043237566948,-0.014842432923614979,-0.05919196456670761,-0.377169132232666,-0.09045533090829849,-0.11673197895288467,-0.041933100670576096,-0.16990089416503906,0.09736109524965286,-0.27922698855400085,0.11654090136289597,0.0406547449529171,0.23143868148326874,0.08435218036174774,-0.10831014066934586,-0.16911235451698303,-0.25411880016326904,-0.01844191364943981,0.17734704911708832,0.03497545048594475,-0.2478972226381302,-0.15150471031665802,-0.11952698975801468,-0.06441770493984222,-0.2675812840461731,0.46995991468429565,-0.4744565784931183,-0.3588024079799652,-0.2718609869480133,0.1945456862449646,0.05343597009778023,0.02857431396842003,0.4211781919002533,-0.3839460015296936,-0.38734564185142517,0.46487441658973694,0.08561690896749496,0.03801703080534935,-0.04890880361199379,0.08841311931610107,0.046333130449056625,-0.1155770868062973,-0.0620388425886631,0.057571861892938614,-0.14264097809791565,0.20734919607639313,-0.23754872381687164,0.0737220048904419,-0.015951992943882942,0.07963601499795914,0.028104525059461594,0.05811837688088417,-0.010264906100928783,0.22735916078090668,-0.06788435578346252,-0.08573314547538757,0.01811244711279869,-0.14340952038764954,0.011764328926801682,-0.0399772971868515,-0.004092882387340069,-0.032001081854104996,0.2888528108596802,-0.19176450371742249,-0.08342760056257248,0.12625032663345337,-0.03216194733977318,0.16235004365444183,-0.16002611815929413,-0.19647471606731415,-0.11140705645084381,0.2977770268917084,-0.06076367571949959,-0.061820391565561295,0.03329457342624664,-0.027615278959274292,-0.04441900551319122,0.12187620997428894,0.19654148817062378,0.3900413513183594,0.20740514993667603,-0.06959118694067001,-0.024954501539468765,-0.060239676386117935,-0.13819901645183563,-0.06419829279184341,-0.10134609788656235,0.13244572281837463,0.05678355693817139,-0.010913665406405926,-0.061205651611089706,0.0010454354342073202,0.1474941223859787,0.18452188372612,-0.26203110814094543,0.11034227907657623,0.0765409842133522,0.04616084322333336,-0.09075021743774414,-0.0022161861415952444,0.20374999940395355,0.469279021024704,0.07262523472309113,-0.23320776224136353,-0.07627321034669876,-0.2253204882144928,0.22777122259140015,0.2372952550649643,-0.2777133882045746,0.03601669892668724,0.1849091500043869,-0.15480782091617584,-0.2160918116569519,-0.035025034099817276,0.3214760720729828,-0.13296638429164886,-0.2974892556667328,-0.1472812443971634,-0.3273581564426422,0.1813754439353943,-0.24634899199008942,0.11081793904304504,-0.2873309254646301,-0.1348717212677002,-0.3868403434753418,0.16570661962032318,-0.02648964896798134,0.04382430016994476,0.37253129482269287,-0.4128011465072632,-0.18635696172714233,0.23432298004627228,0.16775541007518768,0.07997768372297287,0.027212100103497505,0.015673747286200523,-0.09952855110168457,0.024864699691534042,-0.005894835572689772,0.060245878994464874,0.22421695291996002,0.16350331902503967,0.04105069488286972,-0.20353995263576508,0.0021564215421676636,0.1894262582063675,0.04340913146734238,-0.08898060768842697,0.13221710920333862,0.17559321224689484,0.051040008664131165,-0.08086546510457993,-0.057024504989385605,-0.09650036692619324,0.1712072789669037,-0.028882646933197975,0.02520875819027424,-0.019346460700035095,-0.3309202194213867,0.02741699106991291,-0.16482079029083252,0.2437276840209961,0.16616392135620117,0.08164047449827194,0.1471220999956131,-0.1984567791223526,-0.12970159947872162,0.008762652054429054,-0.10083815455436707,0.09705296158790588,-0.14890030026435852,-0.01894742250442505,0.2649768590927124,-0.13401105999946594,0.12193670123815536,0.14976702630519867,-0.029161132872104645,0.23631714284420013,-0.16152937710285187,-0.14492177963256836,-0.11336676776409149,-0.07973784953355789,0.02618122100830078,-0.0298415869474411,-0.06804031133651733,0.0493309311568737,0.06608445942401886,0.09740038961172104,-0.0868176594376564,0.07514352351427078,0.0480227917432785,-0.0808771550655365,0.10374142229557037,-0.2674224078655243,0.005180958192795515,-0.16815590858459473,0.07403401285409927,-0.10612071305513382,-0.15349826216697693,0.21457694470882416,-0.1347423642873764,-0.3274044096469879,0.31247466802597046,0.14775331318378448,-0.20440389215946198,0.26948606967926025,-0.11047417670488358,-0.2688717246055603,-0.007419891189783812,0.002144641475751996,0.23501405119895935,-0.16501843929290771,0.04265386983752251,0.1730545610189438,0.10735076665878296,0.03790326416492462,-0.25703203678131104,-0.29398107528686523,0.012237763032317162,0.05578717589378357,0.16785424947738647,0.1464332938194275,-0.1944340020418167,-0.48849037289619446,-0.017917457967996597,0.013290238566696644,0.2685883343219757,0.1567402184009552,-0.2279195338487625,0.14706037938594818,-0.054312221705913544,-0.178170308470726,0.23118780553340912,-0.010957964695990086,-0.26276612281799316,0.18783220648765564,0.12475067377090454,-0.3155677914619446,0.03093912824988365,0.050784479826688766,0.26258164644241333,-0.14021460711956024,-0.2172752469778061,0.17235450446605682,0.1064990684390068,0.10266085714101791,-0.2904515862464905,-0.04542231559753418,0.07939286530017853,-0.0812913179397583,0.25616350769996643,-0.26512590050697327,0.3178088068962097,0.037054967135190964,0.08045646548271179,-0.16409170627593994,0.09489347040653229,0.07823776453733444,-0.1563105434179306,0.018939319998025894,0.12194100022315979,-0.08682391047477722,0.2574293911457062,-0.22650249302387238,0.30538275837898254,-0.06218360736966133,0.013898413628339767,0.04462771862745285,0.004902906250208616,-0.10576475411653519,-0.09662766009569168,0.5166330933570862,0.2523967921733856,0.07982192933559418,0.20351500809192657,-0.0629906877875328,-0.0937446653842926,-0.22831477224826813,0.07247291505336761,-0.05889187008142471,0.08223561197519302,0.03275665268301964,-0.008183424361050129,0.06902936100959778,-0.07107551395893097,-0.11908848583698273,-0.18600502610206604,0.21300652623176575,-0.0322740413248539,0.12447665631771088,0.06780242919921875,0.08465620875358582,0.16183865070343018,-0.1547263115644455,-0.21308305859565735,0.2742508351802826,0.005598198156803846,-0.2319658249616623,0.2865080237388611,0.08540712296962738,-0.04867778345942497,-0.025024572387337685,-0.011936122551560402,-0.03362032026052475,-0.16700215637683868,-0.12738914787769318,0.24067547917366028,-0.07759080082178116,0.03975564241409302,0.16054163873195648,0.18162518739700317,0.16000181436538696,-0.16259098052978516,-0.21635504066944122,0.09464038908481598,0.163310244679451,0.21550485491752625,0.010297788307070732,-0.11716070026159286,-0.009687967598438263,0.2697566747665405,-0.1289864182472229,0.03944622725248337,0.06389546394348145,-0.19254529476165771,0.08193610608577728,-0.03956146538257599,-0.09312032908201218,0.24360449612140656,0.025997091084718704,-0.12257061153650284,0.15614053606987,0.026786671951413155,-0.053779032081365585,-0.038774002343416214,-0.16361555457115173,0.14840124547481537,-0.2665032148361206,-0.04979598522186279,0.21871164441108704,0.15668825805187225,-0.3543376624584198,0.08693479001522064,-0.005802010651677847,0.06246872618794441,-0.011497905477881432,0.17115658521652222,0.1274934858083725,-0.18748486042022705,0.18582630157470703,0.014109544456005096,-0.12960168719291687,-0.057230934500694275,-0.06877521425485611,0.05449223890900612,-0.19205346703529358,-0.12467199563980103,0.10601381212472916,0.21116526424884796,-0.07656902819871902,-0.2892683744430542,-0.1558586210012436,-0.023375630378723145,0.09687403589487076,0.11547944694757462,0.1098032146692276,0.04789121448993683,0.02075674571096897,-0.3956739902496338,-0.37769562005996704,0.15535973012447357,0.0751606822013855,0.009280607104301453,0.16410768032073975,0.02402941882610321,-0.11486195027828217,0.15128256380558014,-0.060389116406440735,-0.10008378326892853,0.18493138253688812,-0.018000107258558273,0.11483533680438995,-0.05134151503443718,0.09028293192386627,0.34132856130599976,-0.19008782505989075,-0.005567486863583326,0.10526293516159058,-0.217293843626976,-0.09582340717315674,0.17918479442596436,-0.262119323015213,0.09832239896059036,0.2273455113172531,-0.19467182457447052,0.10036810487508774,0.133599191904068,-0.17507563531398773,0.19141387939453125,0.09200694411993027,0.14980368316173553,0.014149812050163746,-0.2448984831571579,0.20265313982963562,0.04338325932621956,-0.2542896568775177,-0.4314313232898712,-0.12115149945020676,0.2663182318210602,0.1510968804359436,-0.15948863327503204,-0.15208746492862701,-0.17289230227470398,-0.07918053865432739,0.3269021511077881,-0.08931952714920044,-0.0022094848100095987,-0.07068853080272675,-0.2356082946062088,0.03360255807638168,0.30724287033081055,-0.16566793620586395,0.13948464393615723,0.09337181597948074,-0.3218483030796051,0.09911618381738663,0.23551152646541595,-0.2475663423538208,-0.07694325596094131,0.30248740315437317,0.30403003096580505,-0.09308376908302307,-0.04781588166952133,0.29530957341194153,-0.13967539370059967,-0.3285832107067108,0.2747994363307953,-0.13305845856666565,-0.2904876172542572,0.20086821913719177,-0.09076298773288727,-0.14291197061538696,0.07793919742107391,-0.11617626994848251,-0.21852029860019684,0.051064081490039825,-0.19288316369056702,0.046064119786024094,-0.08232763409614563,-0.00813860259950161,0.2322477102279663,-0.30147212743759155,-0.0750017911195755,0.11969062685966492,-0.01953883096575737,0.003869367064908147,-0.20964562892913818,-0.25900885462760925,-0.11169729381799698,0.1335228979587555,0.20313329994678497,-0.029608342796564102,-0.18949216604232788,-0.15754668414592743,-0.10210590064525604,-0.15450705587863922,0.2074967324733734,0.026310862973332405,-0.07161188870668411,0.07587385922670364,0.01418047770857811,0.02864500880241394,0.25760576128959656,-0.10359068959951401,-0.2105143517255783,0.08490549027919769,0.003102601272985339,-0.029386315494775772,-0.040408067405223846,0.07119206339120865,0.222505122423172,0.013028424233198166,-0.008749778382480145,0.0759112760424614,-0.7955611944198608,0.625791609287262,-0.16663813591003418,-0.05093488469719887,0.008621981367468834,0.0573103167116642,0.29085007309913635,-0.5068779587745667,0.15914630889892578,-0.15146805346012115,0.3162033259868622,-0.09740058332681656,-0.16916592419147491,0.2687959671020508,-0.10113732516765594,-0.011592855677008629,0.08478239923715591,0.005665407981723547,0.1693626046180725,0.014584588818252087,0.26624155044555664,0.19310377538204193,0.1503097414970398,-0.08217161893844604,-0.11905068904161453,-0.19255390763282776,0.13562485575675964,-0.4677930772304535,0.425478458404541,-0.07672527432441711,-0.10148778557777405,0.12775273621082306,-0.000012374316611385439,0.00917300395667553,-0.18628257513046265,-0.23163755238056183,-0.03338984400033951,-0.10516033321619034,0.1974000334739685,0.015239892527461052,-0.10547496378421783,0.09804010391235352,-0.14566615223884583,-0.027981692925095558,-0.20230336487293243,-0.02802431583404541,-0.057584118098020554,-0.02368514984846115,0.12785592675209045,0.16442543268203735,-0.15176130831241608,0.1939014047384262,0.1646701693534851,0.14247922599315643,-0.008666091598570347,0.06630941480398178,0.02275509387254715,-0.04476388171315193,0.09234780073165894,0.004442780744284391,-0.07868993282318115,0.22038134932518005,0.15270736813545227,-0.055203311145305634,0.056199781596660614,0.04568233713507652,-0.09358365833759308,-0.0818767249584198,-0.07998524606227875,-0.23804189264774323,0.0032009200658649206,-0.0583922453224659,0.039280761033296585,0.08595317602157593,-0.1124095618724823,-0.0772131085395813,0.08984275907278061,-0.19323943555355072,0.2629329562187195,0.029996011406183243,0.09025751054286957,-0.07688968628644943,-0.08758550882339478,-0.31501924991607666,0.07717018574476242,0.031347598880529404,0.01897311583161354,0.056732166558504105,0.13248521089553833,0.21529480814933777,0.1019071415066719,0.09106932580471039,0.1596841961145401,-0.11980271339416504,0.0471804104745388,0.1397407054901123,-0.8152729272842407,-0.23043382167816162,0.7651697993278503,0.0050300960429012775,0.04175470396876335,0.10714008659124374,-0.18250390887260437,0.2882877290248871,-0.1095750704407692,-0.1251346617937088,-0.0005995932151563466,0.20997433364391327,-0.10507829487323761,-0.10844308137893677,0.09438055008649826,0.09533841162919998,-0.11965365707874298,-0.17538008093833923,-0.11083612591028214,0.05707221478223801,0.035894133150577545,0.13566046953201294,-0.13531999289989471,-0.0628865584731102,0.01911483146250248,-0.08612902462482452,-0.07014036178588867,-0.4689424932003021,0.02207351289689541,0.5599977374076843,-0.1283353716135025,0.06849823147058487,-0.01326990406960249,0.2749113142490387,-0.05234576389193535,-0.249939426779747,-0.28667089343070984,0.21511319279670715,0.09315629303455353,-0.048681166023015976,0.044975265860557556,0.1368931084871292,0.42384397983551025,0.006991239730268717,-0.16551165282726288,0.1370098888874054,0.04898755997419357,-0.007685279008001089,-0.353716641664505,0.07151159644126892,-0.09202181547880173,-0.048612575978040695,0.08193109929561615,0.156145378947258,-0.16405567526817322,0.02001900225877762,0.14167974889278412,-0.21808190643787384,-0.11431339383125305,-0.008364091627299786,0.0662689357995987,0.010336999781429768,-0.06719344109296799,0.057190436869859695,0.019032370299100876,-0.20719240605831146,-0.22598841786384583,0.046174123883247375,-0.03185100853443146,0.1710897982120514,-0.1293668895959854,-0.22457255423069,-0.1313610076904297,-0.17324888706207275,0.22428052127361298,0.035112764686346054,0.23741301894187927,-0.026623187586665154,-0.14806529879570007,-0.033897288143634796,0.04206562787294388,-0.19619868695735931,0.02681145817041397,0.061453837901353836,-0.16525310277938843,0.0174452755600214,0.0818152129650116,-0.26907965540885925,-0.22906529903411865,0.0578768253326416,0.013533473946154118,-0.013009279035031796,-0.2533721923828125,0.25324520468711853,0.0474952831864357,-0.16242872178554535,0.1281961053609848,-0.3361344337463379,0.11870397627353668,0.18085803091526031,0.14628499746322632,0.017978128045797348,0.17199118435382843,0.04132968187332153,-0.02726987935602665,0.21736887097358704,0.046939048916101456,-0.062406040728092194,0.0018048612400889397,-0.17033222317695618,0.25299379229545593,-0.10100792348384857,0.06390861421823502,0.16598430275917053,0.2561756670475006,0.15332463383674622,-0.24361029267311096,-0.07106278091669083,0.13249169290065765,0.20152512192726135,0.10191184282302856,0.10239243507385254,-0.2381170094013214,0.02150391973555088,-0.40902090072631836,0.4229840338230133,0.16819658875465393,-0.05335654318332672,-0.16212499141693115,0.2828357517719269,0.010583033785223961,-0.18751458823680878,0.2522084712982178,-0.006582056172192097,-0.1984301060438156,0.2874296307563782,-0.06706755608320236,-0.2329682856798172,-0.2856188118457794,0.09036626666784286,-0.04510855674743652,-0.141799658536911,-0.13640224933624268,0.21685099601745605,-0.17731569707393646,0.23153242468833923,0.17482446134090424,-0.06502020359039307,-0.02510864846408367,0.08873650431632996,-0.048388708382844925,-0.10816184431314468,0.23165194690227509,-0.19238866865634918,0.07170972228050232,0.08118323981761932,0.1015344187617302,0.03349927067756653,-0.145025372505188,-0.0072937821969389915,-0.1136060282588005,-0.10975341498851776,-0.08791974186897278,0.1399535834789276,0.320747047662735,0.22052019834518433,-0.019157106056809425,-0.11393097043037415,-0.19374272227287292,0.00626469636335969,-0.06163119152188301,-0.16603365540504456,0.21287712454795837,0.181810200214386,-0.20636014640331268,-0.14565175771713257,-0.08338772505521774,0.06845009326934814,-0.13877364993095398,0.0836610347032547,-0.08292359113693237,-0.00308987800963223,0.08379437029361725,-0.10804404318332672,-0.09830158203840256,0.12998104095458984,0.022539077326655388,-0.22239063680171967,-0.06765151023864746,0.08327826112508774,-0.07272930443286896,-0.2043265849351883,0.03961234167218208,-0.8011600375175476,0.2528068423271179,0.12098298221826553,0.04355594143271446,0.03798927366733551,-0.2338535487651825,0.16429594159126282,0.029536139219999313,0.03824835270643234,-0.08646680414676666,0.0956834927201271,0.27434343099594116,-0.08010580390691757,0.04434235394001007,0.048176027834415436,-0.04308236017823219,-0.10008172690868378,-0.2938194274902344,0.14891166985034943,-0.11046095192432404,0.09156455844640732,-0.19072991609573364,-0.17144621908664703,0.057600509375333786,0.08393991738557816,0.2537984549999237,-0.29389721155166626,-0.5909698009490967,-0.36464470624923706,0.08989744633436203,0.21860046684741974,0.20018798112869263,-0.07438088208436966,0.13105778396129608,0.21674445271492004,-0.2271794080734253,0.0495922788977623,-0.0307592935860157,0.16145867109298706,0.30275651812553406,0.33369967341423035,0.16910095512866974,0.15158139169216156,-0.09134369343519211,0.3083454966545105,-0.05598157271742821,0.05528789758682251,0.1475224494934082,-0.3636139929294586,-0.10719777643680573,0.11679735034704208,-0.13455934822559357,-0.04748938977718353,0.26605653762817383,0.06533990800380707,0.06758226454257965,0.010007952339947224,-0.08479059487581253,-0.04440617561340332,-0.17710387706756592,0.08795168250799179,0.1709037870168686,-0.10084991157054901,0.09795736521482468,0.04621016979217529,0.15831305086612701,-0.06750279664993286,0.017603447660803795,-0.06358693540096283,0.1480831801891327,0.07621661573648453,0.06456869840621948,-0.0043451813980937,-0.07943885028362274,0.3528613746166229,-0.32736435532569885,0.14045138657093048,0.11375383287668228,-0.07877246290445328,-0.19941146671772003,-0.006202646531164646,0.19031742215156555,-0.23679280281066895,0.08295755833387375,0.020262818783521652,-0.07643424719572067,0.08915437012910843,0.028593402355909348,-0.2126832902431488,-0.2748638987541199,0.012481193989515305,-0.09909041225910187,-0.1624639630317688,0.024810509756207466,0.19803842902183533,0.17016513645648956,0.011037499643862247,-0.003687637159600854,0.14379018545150757,0.01986870914697647,-0.02739640511572361,0.2134966105222702,0.034625690430402756,0.088760145008564,0.024846820160746574,-0.12169764190912247,-0.13701224327087402,-0.22683462500572205,-0.13101717829704285,-0.07447104156017303,-0.056479427963495255,-0.0032800876069813967,0.018236655741930008,0.06774391233921051,0.021795101463794708,-0.23042850196361542,-0.14283347129821777,0.010269109159708023,0.150433748960495,0.1489742398262024,-0.10818230360746384,-0.053680695593357086,-0.11363072693347931,-0.24841032922267914,-0.2646496295928955,0.13627435266971588,0.05978354811668396,-0.03599618002772331,0.034221846610307693,0.08049493283033371,-0.2813622057437897,0.1303487867116928,-0.07909097522497177,-0.2049766331911087,0.0928640216588974,-0.06069754809141159,0.005990700796246529,-0.13396024703979492,-0.07955387979745865,0.17954428493976593,-0.19440850615501404,0.049495454877614975,0.03281093388795853,-0.25669294595718384,0.18702033162117004,0.15073645114898682,-0.180043026804924,-0.013112513348460197,0.26536089181900024,-0.23628950119018555,0.08366435766220093,0.22658637166023254,-0.2836291790008545,0.051562801003456116,0.22936218976974487,0.1619187444448471,0.13836446404457092,-0.1172012910246849,0.2516329288482666,-0.04327021911740303,-0.27532145380973816,-0.11672021448612213,-0.035575348883867264,0.197055384516716,0.2044384628534317,0.04974959418177605,-0.0679670125246048,-0.13270200788974762,-0.0466233566403389,0.1885554939508438,-0.25832539796829224,0.1425321400165558,-0.20104612410068512,-0.16090968251228333,-0.09703991562128067,0.2532181441783905,-0.2888275980949402,0.038471464067697525,0.2797602117061615,-0.3142542541027069,0.14171117544174194,0.07372846454381943,-0.20805701613426208,0.05042770132422447,0.0944753885269165,0.3942132294178009,0.02156870998442173,-0.10380350798368454,0.08060029149055481,-0.06451625376939774,-0.035434525460004807,0.12042354047298431,0.023852039128541946,0.07219438999891281,0.001020580530166626,0.03426042199134827,0.04141276702284813,-0.060155175626277924,-0.0025903554633259773,-0.014983365312218666,0.19134224951267242,-0.09666882455348969,0.03524195775389671,-0.18022102117538452,-0.006283428519964218,-0.05084167420864105,0.01937936060130596,-0.39141738414764404,-0.015097481198608875,0.807050883769989,0.06525969505310059,-0.5383536219596863,-0.1385391801595688,0.10574997216463089,-0.2800731062889099,0.3735600411891937,-0.8259317874908447,1.0794401168823242,0.9761044979095459,-0.10236945003271103,0.1134895458817482,0.0713161900639534,-0.7554206848144531,0.4983512759208679,-0.20430707931518555,0.2054847925901413,-0.34727200865745544,-0.21332331001758575,0.1869712471961975,-0.11887713521718979,-0.19686605036258698,0.2521447539329529,0.1327606737613678,0.2380366325378418,0.06199020892381668,-0.06566525995731354,-0.08555779606103897,-0.3309084177017212,-0.3402799665927887,0.5471929907798767,0.24181756377220154,0.21625739336013794,0.4237123429775238,0.05927295237779617,0.48916196823120117,0.04953344538807869,-0.22208774089813232,-0.3546075224876404,-0.011670843698084354,0.013059796765446663,-0.35823822021484375,-0.18257863819599152,0.1711612045764923,0.19181950390338898,-0.17796698212623596,-0.5158696174621582,-0.09607526659965515,-0.5985333323478699,-0.3202025890350342,1.0691627264022827,-0.40479207038879395,-0.039108987897634506,-0.11831881105899811,0.18986855447292328,0.24525226652622223,-0.7454338073730469,0.22391143441200256,0.2587239444255829,-0.24542026221752167,-0.3620683252811432,0.8989421129226685,0.21297098696231842,-0.2055903673171997,0.2563771605491638,-0.044409021735191345,-0.12734392285346985,0.0337538905441761,-0.1641937643289566,0.21247540414333344,0.371834933757782,0.008151310496032238,0.15974675118923187,0.12137642502784729,0.24508069455623627,-0.04771800339221954,0.06799875199794769,-0.17381708323955536,0.06141790747642517,-0.2801084518432617,0.22731555998325348,-0.2927059233188629,0.15907813608646393,-0.18752184510231018,0.0348685197532177,-0.0939483791589737,0.3182757496833801,-0.0470094196498394,-0.12636533379554749,0.2317180633544922,-0.18719235062599182,-0.19885365664958954,0.07912591099739075,-0.09033281356096268,-0.4613068401813507,-0.08735228329896927,-0.10910466313362122,-0.010648253373801708,-0.0464935228228569,-0.23313133418560028,0.06826179474592209,0.1723138391971588,0.022529147565364838,-0.20812413096427917,-0.010584788396954536,0.26591286063194275,0.11819001287221909,0.11450318247079849,0.07475500553846359,0.12979614734649658,-0.1240856871008873,-0.11548931151628494,-0.46495962142944336,0.06940028071403503,0.6215629577636719,-0.0797792375087738,-0.18038052320480347,-0.05880097299814224,0.03376036882400513,0.22122883796691895,-0.034798555076122284,-0.3262224793434143,0.2178470939397812,0.035539206117391586,0.014730975963175297,0.5584734082221985,0.21601131558418274,0.059408098459243774,-0.22189979255199432,-0.014845875091850758,0.26513877511024475,-0.03689489886164665,-0.12272752821445465,-0.05422963947057724,0.10549686849117279,-0.015273510478436947,0.03007574938237667,0.18355143070220947,-0.0015875283861532807,-0.04398389533162117,-0.03292513266205788,-0.04747922345995903,-0.17410250008106232,0.029317328706383705,-0.22201213240623474,-0.05733463913202286,0.4895145893096924,-0.019390378147363663,-0.14301207661628723,0.016290919855237007,-0.0650121197104454,0.2544407546520233,-0.27167829871177673,0.18186907470226288,-0.28735223412513733,-0.05157298594713211,0.009846937842667103,0.24696940183639526,0.5209833979606628,-0.11675102263689041,0.21182331442832947,0.3683168590068817,-0.4630608856678009,0.24532219767570496,-0.1490952968597412,-0.05663764104247093,0.09751031547784805,-0.1452319622039795,0.2499464452266693,-0.026323705911636353,0.08839718997478485,-0.1192927360534668,0.08797015994787216,-0.4459027051925659,0.22749553620815277,-0.20582616329193115,-0.133650004863739,-0.35103559494018555,0.3669067919254303,-0.24972951412200928,-0.009410516358911991,-0.1127692461013794,0.3675867021083832,0.15551532804965973,-0.3195902109146118,0.16627399623394012,0.06381537020206451,-0.2501463294029236,-0.11057747155427933,0.4934822618961334,0.19032706320285797,0.23078474402427673,0.1921481341123581,0.29340583086013794,-0.6069647073745728,0.3434855341911316,0.6736972332000732,0.4100215435028076,-0.3997192978858948,-0.29756125807762146,0.046228256076574326,0.17324797809123993,-0.40073513984680176,-0.010836801491677761,0.26861175894737244,-0.19479148089885712,-0.144479438662529,-0.22289735078811646,-0.2022581398487091,0.08497758954763412,0.45967698097229004,0.1992773711681366,-0.266437828540802,0.008233257569372654,0.13687492907047272,0.07759178429841995,-0.3812372386455536,-0.11560507863759995,0.13687092065811157,-0.0004114471666980535,-0.06491241604089737,0.2938266396522522,-0.29278671741485596,0.05243755504488945,-0.304439902305603,-0.13560549914836884,0.17520387470722198,-0.14403320848941803,-0.018144620582461357,-0.20617854595184326,-0.19028450548648834,0.20774509012699127,-0.13086071610450745,-0.17172405123710632,-0.09499605745077133,0.1870080977678299,-0.04399146884679794,0.2544398009777069,-0.06025216728448868,0.25694674253463745,-0.08562585711479187,-0.12497483193874359,-0.06416569650173187,-0.05353659763932228,0.20555759966373444,-0.1523543745279312,-0.19434627890586853,0.08046393096446991,0.17857128381729126,0.10136496275663376,-0.08411303162574768,0.1266086995601654,0.16541624069213867,-0.20718099176883698,0.23798350989818573,-0.2518168091773987,0.17062778770923615,-0.2809482216835022,-0.22971849143505096,0.04102836176753044,-0.2549939453601837,-0.22401180863380432,0.06362125277519226,0.04834161698818207,0.2814594805240631,0.2633061408996582,-0.06154414638876915,-0.16739524900913239,-0.10159704089164734,-0.04681757092475891,-0.11241142451763153,-0.14334437251091003,-0.011783374473452568,0.025086674839258194,-0.004233633168041706,0.20526118576526642,0.10028059035539627,0.05479753389954567,-0.22866106033325195,-0.0024283616803586483,-0.017248446121811867,0.054901741445064545,0.10758531838655472,0.03644120320677757,0.06690076738595963,-0.06842610985040665,0.15658804774284363,-0.09753326326608658,0.10345497727394104,-0.0519525483250618,0.1280486285686493,-0.13406780362129211,0.12832027673721313,0.01820755936205387,0.13829024136066437,0.1335543543100357,0.14787767827510834,-0.06134556606411934,-0.13963188230991364,-0.26159730553627014,-0.003919527865946293,-0.05548897385597229,-0.09249310940504074,0.26137876510620117,0.2518743872642517,0.05168665945529938,-0.1149032711982727,-0.3338527977466583,-0.032949358224868774,0.25180381536483765,0.14441026747226715,-0.05460658296942711,-0.25893300771713257,0.11821157485246658,0.1346980184316635,-0.01086766179651022,0.035600002855062485,-0.08236274868249893,-0.09559423476457596,0.33035558462142944,-0.06622302532196045,-0.37888842821121216,0.03434649109840393,0.09931748360395432,-0.1996171921491623,-0.057473164051771164,0.016495630145072937,-0.32867348194122314,-0.26018282771110535,-0.16723878681659698,0.04667792096734047,-0.1754051148891449,-0.1604117602109909,0.14599591493606567,-0.12323924154043198,0.05490582808852196,-0.05654257908463478,0.16824182868003845,-0.1532793492078781,0.15699836611747742,-0.09048296511173248,-0.012374055571854115,0.11876438558101654,-0.32936185598373413,0.05586794763803482,0.3671704828739166,0.05599313601851463,0.034499574452638626,-0.03609266132116318,0.26447010040283203,-0.08691061288118362,-0.20646490156650543,-0.2690451443195343,0.10088427364826202,0.06926161050796509,0.15751659870147705,-0.08976663649082184,-0.27333852648735046,-0.21945872902870178,0.07176180928945541,0.010297654196619987,-0.09171603620052338,-0.06725185364484787,0.20588861405849457,-0.28442564606666565,0.16990947723388672,0.2410511076450348,-0.021366233006119728,-0.09587662667036057,-0.019033608958125114,-0.2472340315580368,-0.005669582635164261,0.21580302715301514,-0.28640514612197876,0.12996645271778107,-0.15306058526039124,0.17790192365646362,0.10073509067296982,-0.21473868191242218,0.06422525644302368,0.07429738342761993,-0.24296270310878754,-0.05191315710544586,-0.1640641987323761,0.046312395483255386,0.22807657718658447,0.16508151590824127,-0.35088399052619934,-0.06626972556114197,0.02968032844364643,0.20540478825569153,0.20204047858715057,0.13285106420516968,-0.21455292403697968,0.014703407883644104,-0.0806184709072113,0.1255435347557068,-0.32801684737205505,-0.23015104234218597,0.17508362233638763,0.15885654091835022,0.15358710289001465,-0.21378211677074432,-0.21335110068321228,-0.10274932533502579,0.24196310341358185,0.11708773672580719,0.19325508177280426,-0.06731802225112915,0.22382506728172302,-0.002808887045830488,-0.008756580762565136,0.15396186709403992,0.08101145178079605,-0.2846934199333191,0.09258794784545898,-0.01415974646806717,-0.3446293771266937,0.09480728209018707,0.0753481388092041,-0.18595504760742188,-0.0308571495115757,0.17611825466156006,-0.09099175781011581,-0.056814681738615036,-0.1566258817911148,0.08310507982969284,-0.22687257826328278,-0.02419723942875862,0.20785431563854218,0.14443548023700714,0.2700960636138916,0.18982309103012085,0.3172156810760498,0.06989184021949768,0.05312277749180794,0.23522575199604034,-0.005893761292099953,-0.1804099828004837,0.21476010978221893,0.04917245730757713,-0.179059699177742,-0.09898723661899567,0.16327965259552002,0.1131661981344223,-0.28980836272239685,-0.1310698539018631,0.17055468261241913,0.21715368330478668,-0.12838485836982727,-0.21585388481616974,-0.14622646570205688,-0.00349059677682817,0.2577526569366455,0.27145904302597046,-0.1027379259467125,-0.20708338916301727,-0.1491127610206604,-0.24976535141468048,-0.12424053996801376,0.2778168320655823,0.11300729215145111,-0.12059974670410156,0.2672775983810425,0.04067722335457802,-0.20174391567707062,0.15150976181030273,0.07299575209617615,-0.30827826261520386,0.19708211719989777,0.21875260770320892,0.04868200793862343,-0.22705702483654022,0.1465928703546524,0.1858586072921753,-0.14020980894565582,0.12626411020755768,0.187696635723114,0.4682270586490631,-0.6506119966506958,0.040078602731227875,-0.03537812456488609,0.0408971831202507,-0.07081086933612823,-0.32928502559661865,0.6502158641815186,-0.1366230994462967,0.11846444755792618,-0.2431647628545761,0.19199292361736298,0.3231925964355469,-0.24913839995861053,-0.10541832447052002,-0.005260937847197056,0.12908829748630524,0.13047246634960175,-0.19612789154052734,0.2018253356218338,0.07054360955953598,0.1507028043270111,-0.002505968324840069,-0.12132641673088074,-0.3539312779903412,0.36647143959999084,-0.11605897545814514,0.07076171040534973,-0.3448862135410309,0.20292750000953674,-0.034193456172943115,0.24310143291950226,-0.015789493918418884,-0.11693127453327179,-0.18777936697006226,0.0664120465517044,-0.2600761950016022,0.2032719999551773,-0.006625758484005928,-0.13977208733558655,0.37253519892692566,-0.09354233741760254,0.037438053637742996,-0.10658064484596252,-0.06607942283153534,0.2026330828666687,-0.2677851617336273,-0.0965675562620163,-0.2013082206249237,-0.29559653997421265,-0.21877573430538177,-0.13665500283241272,0.14296874403953552,0.003768280381336808,0.0705680102109909,0.3083569407463074,0.015905680134892464,-0.16399110853672028,-0.008924794383347034,-0.12386348098516464,0.2718135416507721,-0.2118396759033203,-0.23237936198711395,0.014866289682686329,-0.1405838578939438,0.03585416451096535,0.04157857596874237,0.2848706841468811,0.0969940721988678,0.05652312934398651,-0.09857501834630966,-0.19333645701408386,-0.20782457292079926,0.057857636362314224,-0.14601464569568634,-0.17921088635921478,-0.0435471385717392,-0.05750274658203125,-0.00958943460136652,-0.04061345383524895,-0.18201877176761627,-0.05049853026866913,-0.06476429849863052,0.24377772212028503,-0.016321124508976936,0.14806467294692993,-0.06165008991956711,0.412828654050827,0.4300590753555298,0.140123188495636,0.09003954380750656,0.04355287179350853,-0.02318832278251648,0.11659979075193405,0.047184690833091736,-0.09973550587892532,0.04545998573303223,-0.02868669480085373,-0.24675561487674713,0.07374555617570877,-0.029769187793135643,-0.20097416639328003,0.22257332503795624,0.30003517866134644,-0.05133769288659096,0.081050805747509,-0.0010919549968093634,-0.3281436860561371,-0.1589704006910324,0.011196894571185112,0.14135156571865082,-0.33132046461105347,-0.1860453337430954,0.2933257818222046,0.011164885014295578,0.008107548579573631,-0.17494632303714752,-0.022406700998544693,-0.05112124979496002,0.1339937448501587,0.18323297798633575,0.25667116045951843,-0.1375306397676468,-0.015567979775369167,0.07239364832639694,-0.03134048730134964,0.42628636956214905,0.18193553388118744,-0.18736356496810913,0.1007428988814354,-0.21361219882965088,-0.2169448286294937,0.37127235531806946,0.04697476699948311,-0.2429879754781723,0.1710747927427292,0.22877348959445953,-0.05421803891658783,-0.07814754545688629,0.1532885879278183,0.303786963224411,-0.0736784115433693,-0.019237127155065536,0.03167709708213806,0.14627209305763245,0.20013025403022766,-0.324094295501709,0.21866056323051453,-0.1308445930480957,0.15981480479240417,-0.03769305720925331,-0.3934190273284912,-0.0433710515499115,0.23169147968292236,0.2567710876464844,-0.255751371383667,-0.2448800653219223,0.20789764821529388,0.04814304783940315,-0.2915480434894562,-0.08397047966718674,0.010644661262631416,0.1482659876346588,-0.24104923009872437,-0.17931023240089417,-0.2685517370700836,0.05047106742858887,0.06144172325730324,0.22656366229057312,-0.19065092504024506,-0.015387818217277527,0.08598094433546066,0.1571303755044937,-0.2371247559785843,0.25866416096687317,-0.1410137563943863,-0.3185255229473114,0.168869748711586,-0.15535113215446472,0.14789052307605743,0.2723763883113861,-0.04854506626725197,-0.11005017161369324,0.11794894933700562,-0.26094067096710205,0.21928094327449799,-0.23055961728096008,-0.10622327029705048,0.29536527395248413,-0.17760737240314484,0.019383283331990242,0.1453683227300644,-0.23258621990680695,0.45963117480278015,0.3292384147644043,0.41318386793136597,0.16420240700244904,0.041105370968580246,-0.3176272511482239,-0.9942580461502075,0.39027830958366394,-0.10944857448339462,0.18504565954208374,0.1773514449596405,-0.3466460704803467,0.12183669209480286,0.08652062714099884,-0.19052919745445251,0.044280897825956345,-0.15310397744178772,-0.03590787202119827,-0.6616928577423096,0.09715355932712555,-0.11663494259119034,-0.13160130381584167,-0.05056414380669594,0.08217612653970718,-0.3587247431278229,-0.047260839492082596,0.3007200360298157,0.654346764087677,0.07575909048318863,-0.032169826328754425,-0.42533814907073975,0.41697606444358826,0.45230934023857117,0.7155187726020813,-0.5101239681243896,0.17609968781471252,-0.39037105441093445,0.11549709737300873,-0.13482286036014557,-0.4148588180541992,-0.0761474147439003,-0.032093729823827744,0.1707475334405899,-0.38161447644233704,-0.07084430754184723,0.05114082247018814,0.15009407699108124,0.05261405184864998,0.32627975940704346,0.06560283154249191,0.1606871336698532,-0.20857077836990356,0.06844838708639145,0.0442417748272419,-0.0704362615942955,0.09303892403841019,0.22179840505123138,-0.059991177171468735,0.015932083129882812,-0.12367556989192963,0.05782894417643547,0.04641365259885788,-0.21599775552749634,-0.011491046287119389,-0.18980222940444946,0.040964629501104355,-0.13068486750125885,0.013952475972473621,-0.07169155031442642,0.14111928641796112,0.12738452851772308,-0.011729246005415916,-0.06007349118590355,-0.03162986785173416,0.08355563133955002,0.09982489794492722,0.005131380166858435,-0.15459130704402924,0.09186654537916183,0.05454634130001068,0.06686146557331085,-0.006024922244250774,-0.08943625539541245,0.14979735016822815,-0.11287139356136322,-0.05205893516540527,-0.3663991689682007,-0.14773379266262054,-0.1791078746318817,-0.008504469878971577,0.1690381020307541,-0.030450651422142982,0.02301226183772087,0.006544338073581457,0.17406141757965088,0.11191283166408539,-0.11330914497375488,0.1488870233297348,0.23096515238285065,-0.08633926510810852,-0.05666628107428551,-0.04814905673265457,-0.12624867260456085,0.14302028715610504,0.21522723138332367,0.03133891522884369,-0.1969653218984604,-0.33849745988845825,-0.11636096239089966,0.1089785099029541,-0.10313299298286438,0.04725806415081024,0.05344275012612343,0.25887128710746765,0.05819579213857651,-0.19968339800834656,-0.18558189272880554,0.014081930741667747,0.1446792483329773,0.1666470170021057,0.0917038694024086,0.15804091095924377,-0.06772637367248535,-0.07829850167036057,-0.22854605317115784,0.24270117282867432,-0.005259225144982338,-0.0473036952316761,0.07072720676660538,-0.02920517697930336,-0.278797447681427,0.21410158276557922,-0.1351606398820877,-0.03348113223910332,0.20797285437583923,0.1318584531545639,0.3007124960422516,-0.020269686356186867,0.17041490972042084,0.25879091024398804,-0.0912405326962471,0.07391282171010971,0.18425798416137695,0.052209969609975815,-0.04404337704181671,0.5855168700218201,0.1820289045572281,0.33381831645965576,-0.2145845592021942,-0.023875964805483818,-0.1587330400943756,-0.4468216896057129,0.1807774007320404,0.04615451768040657,-0.1447424590587616,-0.34391099214553833,-0.20384009182453156,0.3479733467102051,-0.22906526923179626,-0.18247422575950623,0.19619062542915344,0.15571635961532593,-0.02054348587989807,-0.3616665303707123,-0.20042268931865692,-0.12521357834339142,0.32046616077423096,0.09015760570764542,-0.006196251139044762,-0.41556650400161743,0.17422734200954437,0.20779235661029816,0.48749569058418274,0.24638329446315765,-0.1431640386581421,-0.29276734590530396,0.5078805088996887,0.14241909980773926,-0.20590949058532715,0.2751840353012085,0.1444890946149826,-0.40151870250701904,0.06150265783071518,-0.005648399703204632,-0.38695859909057617,-0.26755672693252563,-0.11189580708742142,0.1329825073480606,-0.12420227378606796,-0.1361304074525833,0.37073928117752075,0.07783392071723938,-0.0041684904135763645,0.05092491954565048,-0.0760158896446228,0.0897441878914833,-0.053004004061222076,0.23006851971149445,0.013388723134994507,-0.17454560101032257,-0.1270216405391693,0.06795278191566467,-0.1396285742521286,0.1952226758003235,0.1538497805595398,0.06153889745473862,0.12115269899368286,-0.08532298356294632,-0.04967372491955757,-0.19906172156333923,0.10452486574649811,-0.12202031165361404,0.05758856236934662,-0.07581297308206558,0.025760987773537636,-0.029699763283133507,0.10923443734645844,-0.34203872084617615,-0.22493824362754822,0.10215219110250473,0.07734758406877518,0.08574642241001129,0.08617722243070602,-0.15237292647361755,-0.046694621443748474,0.049189385026693344,0.17923621833324432,0.05208921805024147,0.12391877174377441,-0.0217880979180336,0.3053593337535858,0.1558341383934021,0.09700101613998413,0.006049299146980047,-0.02907593548297882,0.05971691012382507,0.1525791883468628,0.028206927701830864,0.031971368938684464,0.1173686757683754,-0.04608454927802086,0.09724870324134827,0.05918006971478462,-0.036128051578998566,-0.22639207541942596,0.062298618257045746,-0.013010541908442974,-0.03212416544556618,0.24636606872081757,0.13050605356693268,-0.09953159093856812,0.07242472469806671,-0.05562179908156395,0.25527146458625793,-0.06378094851970673,0.06340470165014267,0.22952900826931,-0.018688488751649857,0.08654927462339401,0.011383886449038982,-0.19741570949554443,-0.05389389395713806,-0.0410517193377018,0.1499917209148407,0.14015622437000275,0.11248921602964401,-0.025996781885623932,-0.1783512979745865,-0.09312580525875092,0.2955147624015808,-0.03902373090386391,0.036323655396699905,0.029658924788236618,-0.15132319927215576,-0.08073640614748001,0.14223261177539825,-0.024295585229992867,-0.17562229931354523,0.04933697357773781,0.07261756807565689,0.21889622509479523,-0.10001104325056076,-0.07504331320524216,0.22877922654151917,-0.003919375129044056,0.10703553259372711,0.23948195576667786,-0.020152168348431587,0.09485379606485367,0.3693174719810486,-0.2646344006061554,-0.054484933614730835,0.1628274917602539,-0.07016950100660324,-0.021215282380580902,-0.030255597084760666,-0.2550103962421417,0.04095452278852463,0.3092097043991089,0.1474640965461731,-0.05948913097381592,-0.21493324637413025,0.2997642457485199,-0.09848687052726746,-0.20826730132102966,-0.04673381894826889,-0.10097383707761765,0.25801771879196167,0.12381371110677719,0.007427659351378679,-0.11866375058889389,-0.1924653947353363,0.003765484318137169,0.11562550812959671,-0.28774863481521606,0.0805942639708519,0.34861040115356445,-0.11223484575748444,-0.04264126345515251,0.19703908264636993,-0.17848072946071625,-0.11525937914848328,0.023928675800561905,-0.30958810448646545,0.03517893701791763,0.10407697409391403,0.020295707508921623,0.12129790335893631,-0.16086965799331665,0.05296489968895912,-0.0032850780989974737,-0.26012682914733887,0.08757365494966507,0.05799487978219986,-0.15645946562290192,0.00004481896758079529,0.05294114351272583,-0.19495037198066711,-0.026017097756266594,-0.024219417944550514,-0.06649605929851532,-0.1301562786102295,0.0059608533047139645,0.082347571849823,0.1639300435781479,-0.007873048074543476,0.05963684245944023,-0.13289593160152435,0.08997292816638947,-0.12304981052875519,-0.17734919488430023,-0.013877950608730316,0.04881207272410393,0.1685582995414734,0.06973087042570114,-0.023402288556098938,-0.12186502665281296,0.1666690856218338,-0.05775505304336548,0.09864399582147598,0.05046157166361809,0.2989564538002014,0.025066066533327103,-0.01868884079158306,0.06092541292309761,-0.1655658781528473,0.08540801703929901,-0.16049551963806152,0.09552508592605591,-0.006460526026785374,0.021019700914621353,-0.04166746512055397,-0.02762417495250702,0.07290833443403244,-0.1893676072359085,-0.03814741596579552,-0.12636785209178925,-0.012336538173258305,0.045389365404844284,0.03897437825798988,-0.09382505714893341,-0.05892902612686157,-0.057126741856336594,-0.041691698133945465,-0.04351469874382019,0.06677354872226715,-0.2530461549758911,0.10121932625770569,0.23118557035923004,-0.13092687726020813,-0.2171667069196701,-0.013127876445651054,0.2258647084236145,-0.0005913773784413934,-0.056495729833841324,0.12846824526786804,-0.07512377947568893,0.09638307243585587,0.00014022694085724652,0.8631954789161682,0.2146141231060028,0.7217916250228882,-1.1021119356155396,-0.6014988422393799,-0.12634789943695068,0.20502789318561554,-0.21239161491394043,0.5643569827079773,0.5724839568138123,-1.113526463508606,0.32090768218040466,-0.42357730865478516,-0.9232204556465149,-0.08441003412008286,0.09821780025959015,-0.127608984708786,-0.04070403426885605,0.523667573928833,-0.3432932198047638,0.17764979600906372,0.20412084460258484,-0.39044666290283203,-0.24357746541500092,-0.1820935755968094,0.23139669001102448,-0.10489896684885025,0.024781106039881706,-0.06936386972665787,-0.28033214807510376,-0.23380252718925476,0.22095723450183868,-0.4483446180820465,-0.006229022052139044,-0.263464093208313,-0.22133058309555054,-0.05816948786377907,-0.08126714080572128,0.16133685410022736,-0.26575130224227905,-0.3071194589138031,-0.12291694432497025,-0.41509127616882324,0.01448969915509224,0.13753120601177216,0.4550412595272064,0.5333864688873291,-0.12941186130046844,-0.2919445335865021,0.14094433188438416,-0.5402394533157349,-0.23390041291713715,-0.038121867924928665,-0.10782454907894135,-0.16209754347801208,0.18420837819576263,0.3691248595714569,-0.2203211933374405,-0.12192370742559433,-0.6362659335136414,-0.04170417785644531,0.04792376980185509,0.2903584837913513,0.07327179610729218,-0.24484241008758545,0.040741000324487686,-0.27586817741394043,0.17805413901805878,0.07442957162857056,0.25557905435562134,0.076322540640831,-0.031773120164871216,-0.25696036219596863,-0.23321257531642914,-0.010157565586268902,-0.09836011379957199,0.19137512147426605,0.06816154718399048,0.29462799429893494,-0.2601063549518585,0.2810697555541992,0.10321313142776489,-0.18340574204921722,0.1796405166387558,-0.0018328623846173286,-0.09113003313541412,-0.06511789560317993,-0.1709766983985901,0.26488056778907776,0.20680850744247437,0.020774906501173973,0.44516921043395996,-0.3389422297477722,-0.5949282050132751,-0.19010108709335327,0.03300116956233978,0.028751451522111893,0.19017376005649567,0.38482293486595154,0.3128511905670166,-0.00965170469135046,0.06793306022882462,0.09648972749710083,-0.03139906004071236,0.16185879707336426,0.26437491178512573,0.05505303293466568,0.30279579758644104,-0.39029231667518616,0.16030128300189972,-0.5799354314804077,0.06317944079637527,-0.07449819892644882,-0.24055273830890656,-0.2100255787372589,0.15556465089321136,-0.3311534821987152,-0.30812257528305054,0.30916377902030945,0.09674432873725891,0.07920946180820465,0.05977672338485718,0.12585867941379547,0.041907139122486115,0.24821355938911438,0.2630190849304199,0.043344780802726746,-0.3399820029735565,0.043144866824150085,0.16085880994796753,-0.17602293193340302,0.09951201826334,0.07433537393808365,-0.09643467515707016,-0.22162111103534698,0.32147055864334106,0.18416419625282288,-0.028283769264817238,0.23140934109687805,0.029654428362846375,-0.2492324560880661,-0.042780108749866486,0.1999274343252182,-0.10369931906461716,-0.38878771662712097,0.194420725107193,-0.2990725636482239,-0.24179092049598694,0.10626320540904999,0.2502042055130005,-0.4903237223625183,-0.2085091769695282,-0.024329770356416702,0.10254688560962677,-0.1395706981420517,-0.614328920841217,0.07127051800489426,-0.29909008741378784,0.42730647325515747,0.008640248328447342,0.39213573932647705,0.19472885131835938,0.06341773271560669,0.09896697849035263,-0.18314386904239655,-0.10945110023021698,0.0418609194457531,0.28743040561676025,-0.23807735741138458,0.09285645931959152,0.4530829191207886,0.22105181217193604,-0.021256374195218086,0.1651732176542282,-0.05973244085907936,0.1203310415148735,-0.3845672309398651,0.3309727609157562,-0.4923652112483978,-0.017016960307955742,-0.052316129207611084,-0.11109534651041031,-0.08297107368707657,-0.20916064083576202,0.30011680722236633,-0.03882616385817528,-0.26989880204200745,-0.368264764547348,-0.2507891058921814,-0.058829501271247864,0.24217242002487183,-0.03555392846465111,-0.015866149216890335,0.3787364661693573,-0.2267380654811859,-0.13830286264419556,0.1453004628419876,-0.31305912137031555,-0.020907824859023094,0.004060656297951937,-0.3318479657173157,0.06657236814498901,0.1930599957704544,0.2620086073875427,-0.18926984071731567,0.12818583846092224,0.025071028620004654,-0.1384103149175644,-0.2909327745437622,0.5120977163314819,-0.07904526591300964,0.2851714491844177,0.09123477339744568,-0.07095425575971603,-0.26682528853416443,-0.11072184145450592,0.1098971888422966,-0.1355896294116974,-0.5129491090774536,-0.41210222244262695,-0.04710065573453903,0.05979064479470253,0.24791330099105835,-0.0002855727216228843,-0.24350593984127045,0.10297239571809769,-0.08637647330760956,-0.010522788390517235,-0.12009814381599426,-0.07314633578062057,-0.2778039872646332,0.0021065562032163143,0.22626185417175293,0.4136669337749481,-0.17395037412643433,-0.594459056854248,-0.23035641014575958,-0.44726791977882385,0.03359643369913101,0.148128941655159,0.40154844522476196,0.15131835639476776,0.03989199176430702,0.2469368427991867,0.11460155248641968,0.05113908648490906,0.3902904689311981,0.09976383298635483,-0.27879515290260315,-0.11067284643650055,-0.35429316759109497,0.25490710139274597,0.004303141962736845,0.06114073842763901,0.22194254398345947,-0.1039944589138031,0.006139220204204321,0.2515883445739746,-0.03906552866101265,-0.046715348958969116,-0.055924639105796814,-0.17491474747657776,0.06736450642347336,-0.007025329861789942,-0.20711296796798706,0.1304667592048645,-0.16685855388641357,-0.08952075988054276,0.05055617168545723,-0.4664599895477295,0.1537790596485138,0.1255212128162384,-0.3419639766216278,-0.11111073940992355,0.031155316159129143,-0.12143073230981827,0.1805035024881363,0.1780414581298828,0.08544336259365082,0.1464732140302658,-0.3873338997364044,0.1788293868303299,0.02503480389714241,0.05311024188995361,-0.009533350355923176,-0.12926889955997467,0.11417177319526672,-0.024714970961213112,-0.2953280210494995,0.14032217860221863,-0.29044607281684875,-0.2704249918460846,0.1992596834897995,-0.28919950127601624,0.065145343542099,0.6148890256881714,-0.13814476132392883,-0.22648854553699493,0.09925037622451782,-0.04602406546473503,0.0336928516626358,-0.1544269621372223,-0.06416045874357224,0.22201025485992432,-0.2309253066778183,0.17983558773994446,0.10734686255455017,-0.01111732330173254,0.15145598351955414,0.24016313254833221,0.1482529491186142,-0.08894926309585571,-0.20995648205280304,0.33765745162963867,-0.09817838668823242,0.12636695802211761,-0.3014945089817047,0.03533468395471573,-0.05204123258590698,0.5614710450172424,-0.21215727925300598,0.034242719411849976,-0.13770823180675507,-0.18209096789360046,-0.09205715358257294,0.19257748126983643,0.031712353229522705,0.04746747389435768,0.6143831014633179,0.12175612151622772,0.15912170708179474,-0.21856071054935455,0.10870738327503204,-0.01981646940112114,0.07803329080343246,0.05482019856572151,-0.43920964002609253,-0.11282006651163101,0.15425896644592285,0.2658231556415558,-0.015071309171617031,0.014250053092837334,0.04521607607603073,-0.11528801918029785,-0.15375879406929016,0.034565724432468414,0.04747309535741806,-0.1967596560716629,0.2703382968902588,-0.03079948201775551,0.14471374452114105,0.08518058061599731,-0.0034892612602561712,0.13279077410697937,-0.08566634356975555,0.1095583364367485,0.03719846531748772,0.2727678418159485,0.0021164780482649803,-0.09222389757633209,0.09165129065513611,0.20097984373569489,0.019072216004133224,-0.12057296931743622,0.011229146271944046,0.09407088160514832,0.29794085025787354,0.04612518474459648,0.14791515469551086,-0.36432379484176636,0.011210749857127666,0.04375484213232994,-0.2500726580619812,0.048653144389390945,0.1537206768989563,-0.4225099980831146,-0.07935044169425964,-0.07097513973712921,0.398245632648468,-0.13200421631336212,-0.2859537899494171,0.2541166841983795,-0.027475738897919655,-0.1799992471933365,0.06939416378736496,-0.25949037075042725,0.24790075421333313,0.07742899656295776,0.2662324905395508,-0.010912821628153324,0.02355465665459633,0.22212596237659454,-0.10046235471963882,-0.12309452891349792,0.12348640710115433,-0.11777859181165695,0.019019901752471924,-0.24243269860744476,-0.12546035647392273,0.1225019246339798,0.019067002460360527,-0.014004440046846867,-0.03832617029547691,-0.0650658831000328,-0.15750674903392792,0.1481422781944275,-0.07606849074363708,-0.04359536990523338,0.016333140432834625,0.06397105753421783,0.06483583152294159,-0.03262428566813469,-0.2937815487384796,-0.041557613760232925,0.10189062356948853,0.21099954843521118,-0.06657946109771729,-0.21759337186813354,0.22154581546783447,0.13449008762836456,-0.14395689964294434,-0.041482094675302505,0.056636616587638855,-0.08804693818092346,0.22435888648033142,0.20556437969207764,0.21811732649803162,0.09282108396291733,0.029836198315024376,0.27888038754463196,-0.14333991706371307,0.09277774393558502,-0.11239993572235107,-0.2747524678707123,0.19321869313716888,-0.010661821812391281,0.14279432594776154,-0.29413479566574097,0.04183037206530571,0.3970971703529358,-0.0017778069013729692,0.022233406081795692,-0.01835210807621479,0.07651585340499878,0.1293182224035263,-0.15774348378181458,0.010622010566294193,-0.005079701542854309,-0.050731200724840164,0.11362699419260025,-0.013135588727891445,0.025161439552903175,-0.0074033718556165695,0.3179168701171875,-0.06634271144866943,-0.08520793169736862,-0.04152624309062958,0.09348906576633453,0.23202364146709442,-0.2094976156949997,0.049827802926301956,-0.061335545033216476,-0.057496119290590286,0.18038704991340637,-0.06123844534158707,-0.04003344848752022,-0.030314501374959946,0.12894544005393982,-0.0286273006349802,0.12705911695957184,0.04664488136768341,-0.0752718597650528,0.03207511082291603,-0.16933228075504303,0.19624795019626617,-0.11097666621208191,0.062086645513772964,0.2553708255290985,-0.09669279307126999,0.028847698122262955,-0.07043400406837463,0.0729694813489914,0.053156204521656036,-0.24716071784496307,0.12928248941898346,-0.0066358414478600025,-0.15902234613895416,0.3043566942214966,0.0005274590221233666,-0.24328500032424927,0.15626151859760284,0.02759888954460621,0.11506037414073944,-0.00583441648632288,0.10606763511896133,0.23004433512687683,-0.11925013363361359,-0.09803711622953415,0.07810602337121964,-0.01149187795817852,-0.10012615472078323,0.05114688351750374,-0.01852431148290634,-0.049454499036073685,-0.2763760983943939,0.20701710879802704,0.09574402868747711,0.24579709768295288,0.059767257422208786,0.048719510436058044,-0.23516151309013367,0.45629000663757324,-0.14384163916110992,0.318787157535553,-0.13085895776748657,-0.17635050415992737,-0.20735563337802887,0.20034214854240417,-0.054764118045568466,-0.10861758142709732,0.4137345552444458,0.13426877558231354,-0.10863378643989563,-0.2839849591255188,0.0475812628865242,-0.1814802885055542,-0.032740022987127304,0.15811480581760406,0.15379534661769867,-0.34653767943382263,-0.03329776972532272,0.07747666537761688,-0.12525372207164764,0.020184066146612167,0.3846237361431122,-0.34897151589393616,0.045473985373973846,0.14562465250492096,-0.01867159828543663,-0.14765608310699463,-0.319035142660141,0.04442565515637398,0.05467759072780609,-0.34979888796806335,0.0762374997138977,0.1688058227300644,0.054005950689315796,0.03493305668234825,-0.13250088691711426,-0.18967205286026,0.06477860361337662,0.04257844015955925,0.36657974123954773,-0.4940568208694458,-0.0633024200797081,-0.17024476826190948,0.21060405671596527,-0.07627502083778381,0.36026790738105774,-0.4570731222629547,0.0001685051538515836,-0.11322996020317078,0.19248256087303162,-0.0564553402364254,0.3529927134513855,-0.1723102182149887,-0.12418779730796814,0.22380520403385162,-0.5786594748497009,-0.057209473103284836,-0.12174348533153534,0.27072960138320923,-0.14247837662696838,-0.036306314170360565,0.08049120008945465,0.02216157130897045,0.12576426565647125,-0.07232782989740372,0.12435263395309448,-0.168606236577034,-0.17244228720664978,-0.06547072529792786,-0.053928982466459274,0.00014990881027188152,-0.022183017805218697,-0.228933185338974,-0.013301840983331203,-0.006111986003816128,0.11624930799007416,0.11692359298467636,-0.12013351917266846,0.16582149267196655,0.13519775867462158,0.10433348268270493,-0.11980509012937546,0.265489399433136,-0.03722540661692619,0.0820549950003624,-0.15733183920383453,-0.051630400121212006,-0.14571064710617065,-0.01920314133167267,0.06475610285997391,-0.07054343074560165,-0.03164286911487579,-0.021474920213222504,-0.1493615061044693,0.25684577226638794,-0.02642800472676754,-0.004225915763527155,-0.20506376028060913,0.07156933099031448,-0.2369137853384018,0.2996063828468323,0.11484692990779877,-0.017250966280698776,0.1697862297296524,-0.02014296129345894,-0.030711324885487556,-0.2203918993473053,0.055315569043159485,0.20149189233779907,-0.128087118268013,0.04644247889518738,0.01335070375353098,0.0052877021953463554,-0.03718458488583565,0.37792354822158813,-0.02662346512079239,0.019839394837617874,0.032141994684934616,-0.19841526448726654,0.15202949941158295,0.28941965103149414,-0.06604227423667908,0.05583783984184265,-0.009402467869222164,-0.053115762770175934,-0.01887824386358261,-0.14021827280521393,0.0035115305799990892,0.005844889674335718,-0.030503757297992706,-0.10408572107553482,0.008192318491637707,-0.05517240986227989,0.01605965942144394,-0.04417671263217926,0.10014945268630981,-0.03011365234851837,0.10669617354869843,-0.029793454334139824,0.01043511088937521,0.02692265808582306,0.06922968477010727,-0.26436734199523926,-0.05799947306513786,-0.2779531478881836,-0.17029999196529388,-0.0250741895288229,0.12323357164859772,-0.22850078344345093,-0.06667905300855637,0.09151501208543777,-0.0039713638834655285,-0.1696867048740387,-0.008522788994014263,-0.20790719985961914,-0.028520220890641212,-0.2318630814552307,-0.0044839587062597275,0.004674369934946299,-0.25980144739151,0.062338992953300476,0.14187771081924438,0.021841639652848244,0.05944065749645233,-0.17617735266685486,-0.08604603260755539,0.009947127662599087,-0.5219709873199463,-0.021299218758940697,0.062882199883461,-0.20920886099338531,-0.015008823946118355,-0.2753855586051941,0.2989320755004883,0.022415170446038246,-0.22773514688014984,0.3318299353122711,0.09727953374385834,-0.16248288750648499,-0.18543371558189392,-0.05551042780280113,-0.2389480322599411,0.10724380612373352,-0.022047385573387146,0.18826767802238464,-0.4391283690929413,0.10978008061647415,-0.02283303439617157,0.26689815521240234,-0.17491768300533295,0.16245993971824646,-0.43001851439476013,0.14290571212768555,0.23673787713050842,-0.09441962093114853,0.24321888387203217,0.13486222922801971,-0.2633196711540222,-0.22220714390277863,0.12597841024398804,-0.06494166702032089,-0.1753743588924408,-0.09274152666330338,0.044446978718042374,-0.3344617187976837,-0.0662197470664978,0.24689936637878418,0.2976871430873871,0.2665097415447235,-0.3491382896900177,-0.047954101115465164,0.022696860134601593,0.17139451205730438,-0.01159755326807499,-0.031149249523878098,0.2593558728694916,-0.10918846726417542,-0.02477230131626129,0.14005827903747559,0.1955816000699997,0.040062326937913895,-0.35929611325263977,0.2191375195980072,0.0903334841132164,-0.383990615606308,-0.2592381238937378,-0.06716401875019073,0.04690755158662796,0.3226871192455292,0.21206501126289368,-0.22928309440612793,-0.1102558895945549,0.07089923322200775,0.6399892568588257,0.0006018101703375578,-0.03189883008599281,-0.14999926090240479,-0.040538325905799866,-0.06328704208135605,0.2586151659488678,-0.21004696190357208,-0.143405944108963,0.17664054036140442,-0.13395856320858002,0.013127489946782589,0.2294921725988388,0.1676163226366043,-0.13248784840106964,0.33297374844551086,0.09012200683355331,0.03488602116703987,-0.21574805676937103,0.20015399158000946,0.1426863968372345,-0.21530847251415253,-0.04122113063931465,0.020848264917731285,0.282584547996521,0.24693262577056885,-0.05739394575357437,0.14552031457424164,0.06007867678999901,-0.43355295062065125,0.007383210118860006,0.1400146335363388,-0.05848497152328491,-0.06271854788064957,-0.18814288079738617,0.19781605899333954,0.11220258474349976,-0.17950068414211273,0.3569399416446686,-0.0020831236615777016,0.08577787131071091,-0.1472962200641632,-0.1912655532360077,-0.15738356113433838,-0.02358373999595642,-0.07604312151670456,0.32590922713279724,-0.42306041717529297,0.0923217311501503,-0.10031279176473618,0.28027451038360596,-0.07436251640319824,0.19635644555091858,-0.4276224374771118,0.060273829847574234,0.09358573704957962,0.21224583685398102,0.04875928536057472,0.0393594466149807,-0.0005397039349190891,0.11430848389863968,-0.23573453724384308,-0.5843275785446167,0.15252241492271423,0.06173855811357498,0.1676543951034546,-0.19872038066387177,-0.12024138122797012,0.011085784062743187,0.0980466902256012,0.022348422557115555,0.26239877939224243,-0.11347714811563492,0.33937129378318787,0.25621867179870605,-0.269717276096344,0.22369883954524994,0.5255594253540039,-0.0022647136356681585,-0.12467194348573685,0.2022062987089157,0.06339989602565765,-0.010379675775766373,-0.30942150950431824,0.17599986493587494,0.0468270368874073,-0.13936573266983032,-0.05766281858086586,-0.13839487731456757,0.17678917944431305,0.17232081294059753,0.3305342197418213,-0.0946713387966156,0.07429223507642746,-0.10807251930236816,0.37273162603378296,-0.1584864854812622,-0.32557347416877747,-0.24368388950824738,0.10657680779695511,0.10545664280653,0.15473401546478271,-0.05826137959957123,-0.2894549071788788,-0.21574154496192932,0.04608479514718056,-0.055899422615766525,0.10050634294748306,